tree
version=v4
num_class=1
num_tree_per_iteration=1
label_index=0
max_feature_idx=9
objective=regression
feature_names=feature_0 feature_1 feature_2 feature_3 feature_4 feature_5 feature_6 feature_7 feature_8 feature_9
feature_infos=[-3.1028344546657687:3.1278669020867742] [-2.902550796593224:3.0904096445995335] [-2.7287704664296637:3.152143150291324] [-2.4161720763385772:4.4195203932780629] [-1.1707502786479456:3.9218744631527334] [-1.2377300756913483:3.4729055395641573] [-1.5051177121101846:3.9471521083400347] [-1.5754032550595818:3.9441655857126401] [-2.3508983830530297:2.2153851545632506] [-2.0416353858008582:2.1355926360972921]
tree_sizes=246 342 341 342 343 341 343 330

Tree=0
num_leaves=1
num_cat=0
split_feature=
split_gain=
threshold=
decision_type=
left_child=
right_child=
leaf_value=0.0011436585209155783
leaf_weight=
leaf_count=53899
internal_value=
internal_weight=
internal_count=
is_linear=0
shrinkage=1


Tree=1
num_leaves=2
num_cat=0
split_feature=4
split_gain=0.0552731
threshold=2.731502808194898
decision_type=2
left_child=-1
right_child=-2
leaf_value=-6.7668947533401077e-06 0.00021436864008627537
leaf_weight=31455 1051
leaf_count=31455 1051
internal_value=1.99663e-07
internal_weight=32506
internal_count=32506
is_linear=0
shrinkage=0.03


Tree=2
num_leaves=2
num_cat=0
split_feature=5
split_gain=0.05524
threshold=1.1926529334352227
decision_type=2
left_child=-1
right_child=-2
leaf_value=-2.056262445917112e-05 0.00010060877557607389
leaf_weight=28446 3837
leaf_count=28446 3837
internal_value=-5.97439e-06
internal_weight=32283
internal_count=32283
is_linear=0
shrinkage=0.03


Tree=3
num_leaves=2
num_cat=0
split_feature=5
split_gain=0.0628479
threshold=1.669003813727264
decision_type=2
left_child=-1
right_child=-2
leaf_value=-1.1730192740281371e-05 0.00014311340829981423
leaf_weight=29724 2562
leaf_count=29724 2562
internal_value=3.72127e-07
internal_weight=32286
internal_count=32286
is_linear=0
shrinkage=0.03


Tree=4
num_leaves=2
num_cat=0
split_feature=5
split_gain=0.0583527
threshold=1.1926529334352227
decision_type=2
left_child=-1
right_child=-2
leaf_value=-1.547783853959495e-05 0.00011018595682547726
leaf_weight=28232 3769
leaf_count=28232 3769
internal_value=-4.89373e-07
internal_weight=32001
internal_count=32001
is_linear=0
shrinkage=0.03


Tree=5
num_leaves=2
num_cat=0
split_feature=4
split_gain=0.0506052
threshold=3.1500312790754541
decision_type=2
left_child=-1
right_child=-2
leaf_value=-3.8137284423450355e-06 0.00023411122865663996
leaf_weight=31442 825
leaf_count=31442 825
internal_value=2.08498e-06
internal_weight=32267
internal_count=32267
is_linear=0
shrinkage=0.03


Tree=6
num_leaves=2
num_cat=0
split_feature=5
split_gain=0.0522828
threshold=1.1926529334352227
decision_type=2
left_child=-1
right_child=-2
leaf_value=-1.2187880840411331e-05 0.00010535981291565461
leaf_weight=28635 3863
leaf_count=28635 3863
internal_value=1.60082e-06
internal_weight=32498
internal_count=32498
is_linear=0
shrinkage=0.03


Tree=7
num_leaves=2
num_cat=0
split_feature=4
split_gain=0.0518089
threshold=3.1500312790754541
decision_type=2
left_child=-1
right_child=-2
leaf_value=-6.043161519892067e-06 0.00023692098361725663
leaf_weight=31497 810
leaf_count=31497 810
internal_value=0
internal_weight=32307
internal_count=32307
is_linear=0
shrinkage=0.03


end of trees

feature_importances:
feature_5=4
feature_4=3

parameters:
[boosting: gbdt]
[objective: regression]
[metric: rmse]
[tree_learner: serial]
[device_type: cpu]
[data_sample_strategy: bagging]
[data: ]
[valid: ]
[num_iterations: 50]
[learning_rate: 0.03]
[num_leaves: 15]
[num_threads: 0]
[seed: 42]
[deterministic: 0]
[force_col_wise: 1]
[force_row_wise: 0]
[histogram_pool_size: -1]
[max_depth: 4]
[min_data_in_leaf: 200]
[min_sum_hessian_in_leaf: 0.001]
[bagging_fraction: 0.6]
[pos_bagging_fraction: 1]
[neg_bagging_fraction: 1]
[bagging_freq: 1]
[bagging_seed: 400]
[bagging_by_query: 0]
[feature_fraction: 0.6]
[feature_fraction_bynode: 1]
[feature_fraction_seed: 30056]
[extra_trees: 0]
[extra_seed: 12879]
[early_stopping_round: 0]
[early_stopping_min_delta: 0]
[first_metric_only: 0]
[max_delta_step: 0]
[lambda_l1: 0.2]
[lambda_l2: 0.2]
[linear_lambda: 0]
[min_gain_to_split: 0.05]
[drop_rate: 0.1]
[max_drop: 50]
[skip_drop: 0.5]
[xgboost_dart_mode: 0]
[uniform_drop: 0]
[drop_seed: 17869]
[top_rate: 0.2]
[other_rate: 0.1]
[min_data_per_group: 100]
[max_cat_threshold: 32]
[cat_l2: 10]
[cat_smooth: 10]
[max_cat_to_onehot: 4]
[top_k: 20]
[monotone_constraints: ]
[monotone_constraints_method: basic]
[monotone_penalty: 0]
[feature_contri: ]
[forcedsplits_filename: ]
[refit_decay_rate: 0.9]
[cegb_tradeoff: 1]
[cegb_penalty_split: 0]
[cegb_penalty_feature_lazy: ]
[cegb_penalty_feature_coupled: ]
[path_smooth: 0]
[interaction_constraints: ]
[verbosity: -1]
[saved_feature_importance_type: 0]
[use_quantized_grad: 0]
[num_grad_quant_bins: 4]
[quant_train_renew_leaf: 0]
[stochastic_rounding: 1]
[linear_tree: 0]
[max_bin: 255]
[max_bin_by_feature: ]
[min_data_in_bin: 3]
[bin_construct_sample_cnt: 200000]
[data_random_seed: 175]
[is_enable_sparse: 1]
[enable_bundle: 1]
[use_missing: 1]
[zero_as_missing: 0]
[feature_pre_filter: 1]
[pre_partition: 0]
[two_round: 0]
[header: 0]
[label_column: ]
[weight_column: ]
[group_column: ]
[ignore_column: ]
[categorical_feature: ]
[forcedbins_filename: ]
[precise_float_parser: 0]
[parser_config_file: ]
[objective_seed: 16083]
[num_class: 1]
[is_unbalance: 0]
[scale_pos_weight: 1]
[sigmoid: 1]
[boost_from_average: 1]
[reg_sqrt: 0]
[alpha: 0.9]
[fair_c: 1]
[poisson_max_delta_step: 0.7]
[tweedie_variance_power: 1.5]
[lambdarank_truncation_level: 30]
[lambdarank_norm: 1]
[label_gain: ]
[lambdarank_position_bias_regularization: 0]
[eval_at: ]
[multi_error_top_k: 1]
[auc_mu_weights: ]
[num_machines: 1]
[local_listen_port: 12400]
[time_out: 120]
[machine_list_filename: ]
[machines: ]
[gpu_platform_id: -1]
[gpu_device_id: -1]
[gpu_use_dp: 0]
[num_gpu: 1]

end of parameters

pandas_categorical:null
