tree
version=v4
num_class=1
num_tree_per_iteration=1
label_index=0
max_feature_idx=378
objective=regression
feature_names=Column_0 Column_1 Column_2 Column_3 Column_4 Column_5 Column_6 Column_7 Column_8 Column_9 Column_10 Column_11 Column_12 Column_13 Column_14 Column_15 Column_16 Column_17 Column_18 Column_19 Column_20 Column_21 Column_22 Column_23 Column_24 Column_25 Column_26 Column_27 Column_28 Column_29 Column_30 Column_31 Column_32 Column_33 Column_34 Column_35 Column_36 Column_37 Column_38 Column_39 Column_40 Column_41 Column_42 Column_43 Column_44 Column_45 Column_46 Column_47 Column_48 Column_49 Column_50 Column_51 Column_52 Column_53 Column_54 Column_55 Column_56 Column_57 Column_58 Column_59 Column_60 Column_61 Column_62 Column_63 Column_64 Column_65 Column_66 Column_67 Column_68 Column_69 Column_70 Column_71 Column_72 Column_73 Column_74 Column_75 Column_76 Column_77 Column_78 Column_79 Column_80 Column_81 Column_82 Column_83 Column_84 Column_85 Column_86 Column_87 Column_88 Column_89 Column_90 Column_91 Column_92 Column_93 Column_94 Column_95 Column_96 Column_97 Column_98 Column_99 Column_100 Column_101 Column_102 Column_103 Column_104 Column_105 Column_106 Column_107 Column_108 Column_109 Column_110 Column_111 Column_112 Column_113 Column_114 Column_115 Column_116 Column_117 Column_118 Column_119 Column_120 Column_121 Column_122 Column_123 Column_124 Column_125 Column_126 Column_127 Column_128 Column_129 Column_130 Column_131 Column_132 Column_133 Column_134 Column_135 Column_136 Column_137 Column_138 Column_139 Column_140 Column_141 Column_142 Column_143 Column_144 Column_145 Column_146 Column_147 Column_148 Column_149 Column_150 Column_151 Column_152 Column_153 Column_154 Column_155 Column_156 Column_157 Column_158 Column_159 Column_160 Column_161 Column_162 Column_163 Column_164 Column_165 Column_166 Column_167 Column_168 Column_169 Column_170 Column_171 Column_172 Column_173 Column_174 Column_175 Column_176 Column_177 Column_178 Column_179 Column_180 Column_181 Column_182 Column_183 Column_184 Column_185 Column_186 Column_187 Column_188 Column_189 Column_190 Column_191 Column_192 Column_193 Column_194 Column_195 Column_196 Column_197 Column_198 Column_199 Column_200 Column_201 Column_202 Column_203 Column_204 Column_205 Column_206 Column_207 Column_208 Column_209 Column_210 Column_211 Column_212 Column_213 Column_214 Column_215 Column_216 Column_217 Column_218 Column_219 Column_220 Column_221 Column_222 Column_223 Column_224 Column_225 Column_226 Column_227 Column_228 Column_229 Column_230 Column_231 Column_232 Column_233 Column_234 Column_235 Column_236 Column_237 Column_238 Column_239 Column_240 Column_241 Column_242 Column_243 Column_244 Column_245 Column_246 Column_247 Column_248 Column_249 Column_250 Column_251 Column_252 Column_253 Column_254 Column_255 Column_256 Column_257 Column_258 Column_259 Column_260 Column_261 Column_262 Column_263 Column_264 Column_265 Column_266 Column_267 Column_268 Column_269 Column_270 Column_271 Column_272 Column_273 Column_274 Column_275 Column_276 Column_277 Column_278 Column_279 Column_280 Column_281 Column_282 Column_283 Column_284 Column_285 Column_286 Column_287 Column_288 Column_289 Column_290 Column_291 Column_292 Column_293 Column_294 Column_295 Column_296 Column_297 Column_298 Column_299 Column_300 Column_301 Column_302 Column_303 Column_304 Column_305 Column_306 Column_307 Column_308 Column_309 Column_310 Column_311 Column_312 Column_313 Column_314 Column_315 Column_316 Column_317 Column_318 Column_319 Column_320 Column_321 Column_322 Column_323 Column_324 Column_325 Column_326 Column_327 Column_328 Column_329 Column_330 Column_331 Column_332 Column_333 Column_334 Column_335 Column_336 Column_337 Column_338 Column_339 Column_340 Column_341 Column_342 Column_343 Column_344 Column_345 Column_346 Column_347 Column_348 Column_349 Column_350 Column_351 Column_352 Column_353 Column_354 Column_355 Column_356 Column_357 Column_358 Column_359 Column_360 Column_361 Column_362 Column_363 Column_364 Column_365 Column_366 Column_367 Column_368 Column_369 Column_370 Column_371 Column_372 Column_373 Column_374 Column_375 Column_376 Column_377 Column_378
feature_infos=[-0.095465950428715807:0.088619520864240728] [-0.16770878364248015:0.24467136666176562] [-0.31011300300532441:0.42526835730265794] [-0.15001670518617038:0.15945416776338139] [-0.20422348871937682:0.19535129233380283] [-0.22704604534892669:0.35499191023080873] [-0.12646642046207274:0.11899984930061303] [-0.17341893982166962:0.16065929045049415] none [0:5] [-3.5115712757509989:2.9337197629312906] [-3.6733536358556265:3.0280625507753673] [-3.1473252606990658:2.6665132767600981] [-0.2830727151194451:1.2603800721297664] [0.027963578859353275:0.65025319442209073] [-0.6762453501821486:2.6822924324338229] [-0.56609539979636792:1.6682218696633413] [-1.313400940314666:1.4682869433008536] [-5:5] [-0.16770878364248015:0.24467136666176562] [-0.24263108819170645:0.3084842542988665] [-0.31011300300532441:0.42526835730265794] [0.00635793565954968:0.12270811949782529] [0.0097229650294710888:0.99721274816716476] [0.010329067001504646:0.071929752885828022] [-2.9872308009998876:2.7598034109405929] [-0.99147537125329377:0.99852235137446455] [-0.095465950428715807:0.088619520864240728] [-0.16770878364248015:0.17141956839119032] [-0.31011300300532441:0.42526835730265794] [-0.15001670518617038:0.15945416776338139] [-0.20422348871937682:0.19535129233380283] [-0.22704604534892669:0.35499191023080873] [-0.12646642046207274:0.11899984930061303] [-0.17341893982166962:0.16065929045049415] none [0:5] [-3.5115712757509989:2.9337197629312906] [-3.6733536358556265:3.0280625507753673] [-3.1473252606990658:2.6665132767600981] [-0.2830727151194451:1.2603800721297664] [0.027963578859353275:0.65025319442209073] [-0.6762453501821486:2.6822924324338229] [-0.56609539979636792:1.6682218696633413] [-1.313400940314666:1.4682869433008536] [-5:5] [-0.16770878364248015:0.17141956839119032] [-0.24263108819170645:0.3084842542988665] [-0.31011300300532441:0.42526835730265794] [0.00635793565954968:0.12270811949782529] [0.0097229650294710888:0.99721274816716476] [0.010329067001504646:0.071929752885828022] [-2.9872308009998876:2.7598034109405929] [-0.99147537125329377:0.99852235137446455] [-0.095465950428715807:0.088619520864240728] [-0.16770878364248015:0.17141956839119032] [-0.31011300300532441:0.42526835730265794] [-0.15001670518617038:0.12870125486036454] [-0.20422348871937682:0.19535129233380283] [-0.22704604534892669:0.35499191023080873] [-0.12646642046207274:0.10401863725144067] [-0.17341893982166962:0.15941730458039241] none [0:5] [-3.5115712757509989:2.9337197629312906] [-3.6733536358556265:3.0280625507753673] [-3.1473252606990658:2.6665132767600981] [-0.2830727151194451:1.2603800721297664] [0.027963578859353275:0.65025319442209073] [-0.6762453501821486:2.6822924324338229] [-0.57633321313086106:1.6682218696633413] [-1.313400940314666:1.4682869433008536] [-5:5] [-0.16770878364248015:0.17141956839119032] [-0.24263108819170645:0.3084842542988665] [-0.31011300300532441:0.42526835730265794] [0.00635793565954968:0.12270811949782529] [0.0097229650294710888:0.99721274816716476] [0.010329067001504646:0.071929752885828022] [-2.9872308009998876:2.7598034109405929] [-0.99147537125329377:0.99852235137446455] [-0.095465950428715807:0.088619520864240728] [-0.16770878364248015:0.17141956839119032] [-0.31011300300532441:0.42526835730265794] [-0.15001670518617038:0.11891017186893182] [-0.20422348871937682:0.19535129233380283] [-0.22704604534892669:0.35499191023080873] [-0.12646642046207274:0.10401863725144067] [-0.17341893982166962:0.15941730458039241] none [0:5] [-3.5115712757509989:2.9337197629312906] [-3.6733536358556265:3.0280625507753673] [-3.1473252606990658:2.6665132767600981] [-0.2830727151194451:1.2603800721297664] [0.027963578859353275:0.65025319442209073] [-0.6762453501821486:2.6822924324338229] [-0.57633321313086106:1.6682218696633413] [-1.313400940314666:1.4682869433008536] [-5:5] [-0.16770878364248015:0.17141956839119032] [-0.24263108819170645:0.3084842542988665] [-0.31011300300532441:0.42526835730265794] [0.00635793565954968:0.12270811949782529] [0.0097229650294710888:0.99721274816716476] [0.010329067001504646:0.071929752885828022] [-2.9872308009998876:2.7598034109405929] [-0.99147537125329377:0.99852235137446455] [-0.095465950428715807:0.11961636568500011] [-0.16770878364248015:0.17141956839119032] [-0.31011300300532441:0.42526835730265794] [-0.15001670518617038:0.11891017186893182] [-0.20422348871937682:0.19293223627297618] [-0.22704604534892669:0.35499191023080873] [-0.12646642046207274:0.10401863725144067] [-0.17341893982166962:0.15941730458039241] none [0:5] [-3.5115712757509989:2.9337197629312906] [-3.6733536358556265:3.0280625507753673] [-3.1473252606990658:2.6665132767600981] [-0.2830727151194451:1.2603800721297664] [0.027963578859353275:0.65025319442209073] [-0.6762453501821486:2.6822924324338229] [-0.57633321313086106:1.6682218696633413] [-1.313400940314666:1.4682869433008536] [-5:5] [-0.16770878364248015:0.17141956839119032] [-0.24263108819170645:0.3084842542988665] [-0.31011300300532441:0.42526835730265794] [0.00635793565954968:0.12270811949782529] [0.0097229650294710888:0.99721274816716476] [0.010329067001504646:0.071929752885828022] [-2.9872308009998876:2.7598034109405929] [-0.99147537125329377:0.99852235137446455] [-0.095465950428715807:0.11961636568500011] [-0.16770878364248015:0.17141956839119032] [-0.31011300300532441:0.42526835730265794] [-0.15001670518617038:0.11891017186893182] [-0.20422348871937682:0.19293223627297618] [-0.22704604534892669:0.35499191023080873] [-0.12646642046207274:0.10401863725144067] [-0.17341893982166962:0.15941730458039241] none [0:5] [-3.5115712757509989:2.9337197629312906] [-3.6733536358556265:3.0280625507753673] [-3.1473252606990658:2.6665132767600981] [-0.2830727151194451:1.2603800721297664] [0.027963578859353275:0.65025319442209073] [-0.6762453501821486:2.6822924324338229] [-0.57633321313086106:1.6682218696633413] [-1.313400940314666:1.4682869433008536] [-5:5] [-0.16770878364248015:0.17141956839119032] [-0.24263108819170645:0.3084842542988665] [-0.31011300300532441:0.42526835730265794] [0.00635793565954968:0.12270811949782529] [0.0097229650294710888:0.99721274816716476] [0.010329067001504646:0.071929752885828022] [-2.9872308009998876:2.7598034109405929] [-0.99147537125329377:0.99852235137446455] [-0.095465950428715807:0.11961636568500011] [-0.16770878364248015:0.17141956839119032] [-0.31011300300532441:0.42526835730265794] [-0.15001670518617038:0.11891017186893182] [-0.20422348871937682:0.19081920180324646] [-0.22704604534892669:0.35499191023080873] [-0.12646642046207274:0.10401863725144067] [-0.17341893982166962:0.15941730458039241] none [0:5] [-3.5115712757509989:2.9337197629312906] [-3.6733536358556265:3.0280625507753673] [-3.1473252606990658:2.6665132767600981] [-0.2830727151194451:1.2603800721297664] [0.027963578859353275:0.65025319442209073] [-0.6762453501821486:2.6822924324338229] [-0.57633321313086106:1.6682218696633413] [-1.313400940314666:1.4682869433008536] [-5:5] [-0.16770878364248015:0.17141956839119032] [-0.24263108819170645:0.26443009054019723] [-0.31011300300532441:0.42526835730265794] [0.00635793565954968:0.12270811949782529] [0.0097229650294710888:0.99721274816716476] [0.010329067001504646:0.071929752885828022] [-2.9872308009998876:2.7598034109405929] [-0.99147537125329377:0.99852235137446455] [-0.095465950428715807:0.11961636568500011] [-0.16770878364248015:0.27840825655726581] [-0.31011300300532441:0.42526835730265794] [-0.15001670518617038:0.18890739327257886] [-0.20422348871937682:0.19081920180324646] [-0.22796649569447014:0.35499191023080873] [-0.12646642046207274:0.15857552123693477] [-0.17341893982166962:0.16811280515950733] none [0:5] [-3.5115712757509989:2.9337197629312906] [-3.6733536358556265:3.0280625507753673] [-3.1473252606990658:2.6665132767600981] [-0.2830727151194451:1.2603800721297664] [0.027963578859353275:0.65025319442209073] [-0.6762453501821486:2.6822924324338229] [-0.57633321313086106:1.6682218696633413] [-1.313400940314666:1.4682869433008536] [-5:5] [-0.16770878364248015:0.27840825655726581] [-0.24263108819170645:0.26443009054019723] [-0.31011300300532441:0.42526835730265794] [0.00635793565954968:0.12270811949782529] [0.0097229650294710888:0.99721274816716476] [0.010329067001504646:0.071929752885828022] [-2.9872308009998876:2.8183607746050634] [-0.99147537125329377:0.99852235137446455] [-0.095465950428715807:0.11961636568500011] [-0.16770878364248015:0.27840825655726581] [-0.31011300300532441:0.42526835730265794] [-0.15001670518617038:0.18890739327257886] [-0.20422348871937682:0.19081920180324646] [-0.24502964591805032:0.35499191023080873] [-0.12646642046207274:0.15857552123693477] [-0.17341893982166962:0.16811280515950733] none [0:5] [-3.5115712757509989:2.9337197629312906] [-3.6733536358556265:3.0280625507753673] [-3.1473252606990658:2.6665132767600981] [-0.2830727151194451:1.2603800721297664] [0.027963578859353275:0.65025319442209073] [-0.6762453501821486:2.6822924324338229] [-0.57633321313086106:1.6682218696633413] [-1.313400940314666:1.4682869433008536] [-5:5] [-0.16770878364248015:0.27840825655726581] [-0.24263108819170645:0.26443009054019723] [-0.31011300300532441:0.42526835730265794] [0.00635793565954968:0.12270811949782529] [0.0097229650294710888:0.99721274816716476] [0.010329067001504646:0.071929752885828022] [-2.9872308009998876:2.8183607746050634] [-0.99147537125329377:0.99852235137446455] [-0.095465950428715807:0.11961636568500011] [-0.16770878364248015:0.27840825655726581] [-0.31011300300532441:0.42526835730265794] [-0.15001670518617038:0.18890739327257886] [-0.20422348871937682:0.19081920180324646] [-0.24502964591805032:0.35499191023080873] [-0.12646642046207274:0.15857552123693477] [-0.17341893982166962:0.16811280515950733] none [0:5] [-3.5115712757509989:2.9337197629312906] [-3.6733536358556265:3.0280625507753673] [-3.1473252606990658:2.6665132767600981] [-0.2830727151194451:1.2603800721297664] [0.027963578859353275:0.65025319442209073] [-0.6762453501821486:2.6822924324338229] [-0.57633321313086106:1.6682218696633413] [-1.1261199591927207:1.4682869433008536] [-5:5] [-0.16770878364248015:0.27840825655726581] [-0.24263108819170645:0.26443009054019723] [-0.31011300300532441:0.42526835730265794] [0.00635793565954968:0.12270811949782529] [0.0097229650294710888:0.99721274816716476] [0.010329067001504646:0.071929752885828022] [-2.9872308009998876:2.8183607746050634] [-0.99147537125329377:0.99852235137446455] none [-0.0094687755037690339:0.012947944225760307] [0.006436872901033514:0.040390782375115238] [-0.095465950428715807:-0.010359936113219947] [0.011139174367260862:0.11961636568500011] [-0.040653037635049211:0.07282909982392935] [0.011545588275577818:0.097330770302870753] [-0.16770878364248015:0.001630859600554313] [0.027083912280290612:0.27840825655726581] [-0.16078434912035627:0.27196367107383107] [0.013527124279289303:0.21044248466845072] [-0.31011300300532441:0.1269186907725961] [-0.03598752911671077:0.42526835730265794] [-0.042862240986774422:0.06136643135257748] [0.0081828357467604255:0.076189974984236478] [-0.15001670518617038:0.0064321624170207148] [0.013519388405113908:0.18890739327257886] [-0.089739787037376867:0.1222286000975434] [0.0076470682273801034:0.12239664144616905] [-0.20422348871937682:0.02549132889284933] [0.013080762238173449:0.19535129233380283] [-0.17642734040227959:0.28766562130135026] [0:0.1566870911502386] [-0.24502964591805032:0.25452117433643007] [-0.090042665669113009:0.35499191023080873] [-0.043468971511500823:0.05721480362671124] [0.0065784147444784297:0.066177006715699635] [-0.12646642046207274:0.0099647318086935055] [0.01242262321908072:0.15857552123693477] [-0.085572408073078352:0.11049473611362415] [0.0071248782009120295:0.099925252402415024] [-0.17341893982166962:0.030926766573809106] [0.0016834021343437033:0.16811280515950733] none none none none [4.580845819183712:5] [0:1.3331516943118387] [0:5] none [-1.8580387946975065:2.3341844722376854] [0:1.7015528647650959] [-3.5115712757509989:2.3255559168565694] [-1.2869957026164467:2.9337197629312906] [-2.0127583999647856:2.6980511482819391] [0:1.7826126680548038] [-3.6733536358556265:2.6980511482819391] [-1.7026427967177824:3.0280625507753673] [-1.2529794825937319:1.9001884290209603] [0:1.5494088498321827] [-3.1473252606990658:1.8701519206216941] [-1.2529794825937319:2.6665132767600981] [0.19847467098774355:0.92430428205912474] [0.089508382826849059:0.41540750245498531] [-0.2830727151194451:0.72448252612345787] [0.63797316645424862:1.2603800721297664] [0.046325768103572286:0.35743731940444168] [0.0092561833062196792:0.23029222378160283] [0.027963578859353275:0.25677245695971707] [0.068192338499733662:0.65025319442209073] [-0.61112739039745989:0.52454038693961602] [0:1.1619576175764896] [-0.6762453501821486:0.37382196877480856] [-0.61001994448316443:2.6822924324338229] [-0.45601588924306868:0.59812926110390163] [0:0.82573639508872521] [-0.57633321313086106:0.33122369396472573] [-0.45432811720046673:1.6682218696633413] [-0.34064756756136438:0.16193971855822226] [0.13981086642836563:0.58786195709757871] [-1.313400940314666:-0.30550520428056732] [0.14335170738807182:1.4682869433008536] [-3.0295593346691954:1.7334806105691229] [0.033803319699147419:4.1165975960016175] [-5:0.22738710190919731] [0.033663713048912802:5] [-0.040653037635049211:0.07282909982392935] [0.011545588275577818:0.097330770302870753] [-0.16770878364248015:0.001630859600554313] [0.027083912280290612:0.27840825655726581] [-0.086455591809003432:0.13864532021063081] [0.014342792463713535:0.14050661276315807] [-0.24263108819170645:0.021834219765775931] [0.01336629260151101:0.3084842542988665] [-0.16078434912035627:0.27196367107383107] [0.013527124279289303:0.21044248466845072] [-0.31011300300532441:0.1269186907725961] [-0.03598752911671077:0.42526835730265794] [0.011419317910288471:0.045189680906405891] [0.0035685036508791286:0.021514215935745852] [0.00635793565954968:0.025806458716233292] [0.020600097696861056:0.12270811949782529] [0.41805664680032795:0.69550515902418175] [0.22093805356555068:0.33748166770022942] [0.0097229650294710888:0.10416716282997567] [0.89019668156561815:0.99721274816716476] [0.012004642259114446:0.048309252172090075] [0.00057525511480307036:0.01665376064564076] [0.010329067001504646:0.041749461179115405] [0.013969257805816614:0.071929752885828022] [-2.0371341410872383:1.4606517248115907] [0:1.4228872209242716] [-2.9872308009998876:1.4219291031717771] [-2.0370096849060753:2.8183607746050634] [-0.59490761404712778:0.85062746581925985] [0.14831686246035405:0.74328655170511304] [-0.99147537125329377:0.36254167728382525] [0.25571163937013752:0.99852235137446455]
tree_sizes=2388

Tree=0
num_leaves=26
num_cat=0
split_feature=27 342 27 166 196 84 82 104 375 272 27 74 229 103 206 135 18 120 125 343 50 312 220 138 49
split_gain=6.6733 4.96806 4.41804 4.02775 5.98711 5.63278 5.59148 4.77559 4.40521 4.39163 4.21075 5.45204 4.91755 4.02016 3.59011 3.3836 3.32285 3.29105 3.06482 3.06079 2.58836 3.21502 2.37817 1.98669 0.592628
threshold=-0.016243056041878142 0.72418783848287693 -0.015182817859628215 -0.068130716050619752 -0.0050160570060221446 0.014686250881965847 -0.052130053075777109 0.65908932312748669 0.39071462600605028 0.020115405289243285 0.018524934686909082 -0.0055089581556878034 0.26072303614232206 0.033960375166224251 0.20677890633515802 0.013630179423276713 0.077208083151840926 1.1797479606400969 -0.1131915487556895 0.02745943289629833 0.15590985703848501 0.92884595517896951 -0.030044672910963906 0.003113524740934404 0.037035405568090214
decision_type=2 2 2 2 2 2 2 2 2 2 2 2 2 2 2 2 2 2 2 2 2 2 2 2 2
left_child=1 15 -2 7 8 6 -6 -4 10 -8 12 -12 -5 14 20 19 18 -18 -7 -1 23 -22 -10 -3 -21
right_child=2 13 3 4 5 16 9 -9 22 -11 11 -13 -14 -15 -16 -17 17 -19 -20 24 21 -23 -24 -25 -26
leaf_value=0.050557353629085686 0.021206711580292307 0.03429082311242488 0.037673257020784286 0.040349975393521566 0.056370713327853081 0.043775745449658947 0.036337831512968627 0.0072076455559503816 0.070590281964639026 0.025368545165603922 0.04856446345924207 0.016143298947214731 0.052672294427821981 0.027000722321838297 0.028564463528909838 0.040550441182193774 0.041855887810937693 0.051625906894539171 0.032381902121898065 0.063975718848565039 0.043498647940591252 0.067352269911496121 0.04738683109544406 0.054021902623676517 0.076960291802776887
leaf_weight=37 32 32 37 180 30 100 508 20 25 112 23 29 146 33 23 25 340 116 142 23 25 34 21 21 21
leaf_count=37 32 32 37 180 30 100 508 20 25 112 23 29 146 33 23 25 340 116 142 23 25 34 21 21 21
internal_value=0.0406798 0.0479604 0.0396049 0.0399306 0.0403548 0.0387223 0.0353724 0.0268555 0.0455322 0.034346 0.0437364 0.0305663 0.0458551 0.0425769 0.0464289 0.0564362 0.0418351 0.044354 0.0371099 0.0613954 0.05015 0.0573507 0.0601426 0.0420244 0.0703537
internal_weight=2135 274 1861 1829 1772 1348 650 57 424 620 378 52 326 168 135 106 698 456 242 81 112 59 46 53 44
internal_count=2135 274 1861 1829 1772 1348 650 57 424 620 378 52 326 168 135 106 698 456 242 81 112 59 46 53 44
is_linear=0
shrinkage=1


end of trees

feature_importances:
Column_27=3
Column_18=1
Column_49=1
Column_50=1
Column_74=1
Column_82=1
Column_84=1
Column_103=1
Column_104=1
Column_120=1
Column_125=1
Column_135=1
Column_138=1
Column_166=1
Column_196=1
Column_206=1
Column_220=1
Column_229=1
Column_272=1
Column_312=1
Column_342=1
Column_343=1
Column_375=1

parameters:
[boosting: gbdt]
[objective: regression]
[metric: rmse]
[tree_learner: serial]
[device_type: cpu]
[data_sample_strategy: bagging]
[data: ]
[valid: ]
[num_iterations: 2000]
[learning_rate: 0.05]
[num_leaves: 63]
[num_threads: -1]
[seed: 42]
[deterministic: 0]
[force_col_wise: 0]
[force_row_wise: 0]
[histogram_pool_size: -1]
[max_depth: 7]
[min_data_in_leaf: 20]
[min_sum_hessian_in_leaf: 0.001]
[bagging_fraction: 0.8]
[pos_bagging_fraction: 1]
[neg_bagging_fraction: 1]
[bagging_freq: 5]
[bagging_seed: 400]
[bagging_by_query: 0]
[feature_fraction: 0.8]
[feature_fraction_bynode: 1]
[feature_fraction_seed: 30056]
[extra_trees: 0]
[extra_seed: 12879]
[early_stopping_round: 0]
[early_stopping_min_delta: 0]
[first_metric_only: 0]
[max_delta_step: 0]
[lambda_l1: 0.1]
[lambda_l2: 0.1]
[linear_lambda: 0]
[min_gain_to_split: 0]
[drop_rate: 0.1]
[max_drop: 50]
[skip_drop: 0.5]
[xgboost_dart_mode: 0]
[uniform_drop: 0]
[drop_seed: 17869]
[top_rate: 0.2]
[other_rate: 0.1]
[min_data_per_group: 100]
[max_cat_threshold: 32]
[cat_l2: 10]
[cat_smooth: 10]
[max_cat_to_onehot: 4]
[top_k: 20]
[monotone_constraints: ]
[monotone_constraints_method: basic]
[monotone_penalty: 0]
[feature_contri: ]
[forcedsplits_filename: ]
[refit_decay_rate: 0.9]
[cegb_tradeoff: 1]
[cegb_penalty_split: 0]
[cegb_penalty_feature_lazy: ]
[cegb_penalty_feature_coupled: ]
[path_smooth: 0]
[interaction_constraints: ]
[verbosity: -1]
[saved_feature_importance_type: 0]
[use_quantized_grad: 0]
[num_grad_quant_bins: 4]
[quant_train_renew_leaf: 0]
[stochastic_rounding: 1]
[linear_tree: 0]
[max_bin: 255]
[max_bin_by_feature: ]
[min_data_in_bin: 3]
[bin_construct_sample_cnt: 200000]
[data_random_seed: 175]
[is_enable_sparse: 1]
[enable_bundle: 1]
[use_missing: 1]
[zero_as_missing: 0]
[feature_pre_filter: 1]
[pre_partition: 0]
[two_round: 0]
[header: 0]
[label_column: ]
[weight_column: ]
[group_column: ]
[ignore_column: ]
[categorical_feature: ]
[forcedbins_filename: ]
[precise_float_parser: 0]
[parser_config_file: ]
[objective_seed: 16083]
[num_class: 1]
[is_unbalance: 0]
[scale_pos_weight: 1]
[sigmoid: 1]
[boost_from_average: 1]
[reg_sqrt: 0]
[alpha: 0.9]
[fair_c: 1]
[poisson_max_delta_step: 0.7]
[tweedie_variance_power: 1.5]
[lambdarank_truncation_level: 30]
[lambdarank_norm: 1]
[label_gain: ]
[lambdarank_position_bias_regularization: 0]
[eval_at: ]
[multi_error_top_k: 1]
[auc_mu_weights: ]
[num_machines: 1]
[local_listen_port: 12400]
[time_out: 120]
[machine_list_filename: ]
[machines: ]
[gpu_platform_id: -1]
[gpu_device_id: -1]
[gpu_use_dp: 0]
[num_gpu: 1]

end of parameters

pandas_categorical:null
