tree
version=v4
num_class=1
num_tree_per_iteration=1
label_index=0
max_feature_idx=378
objective=regression
feature_names=Column_0 Column_1 Column_2 Column_3 Column_4 Column_5 Column_6 Column_7 Column_8 Column_9 Column_10 Column_11 Column_12 Column_13 Column_14 Column_15 Column_16 Column_17 Column_18 Column_19 Column_20 Column_21 Column_22 Column_23 Column_24 Column_25 Column_26 Column_27 Column_28 Column_29 Column_30 Column_31 Column_32 Column_33 Column_34 Column_35 Column_36 Column_37 Column_38 Column_39 Column_40 Column_41 Column_42 Column_43 Column_44 Column_45 Column_46 Column_47 Column_48 Column_49 Column_50 Column_51 Column_52 Column_53 Column_54 Column_55 Column_56 Column_57 Column_58 Column_59 Column_60 Column_61 Column_62 Column_63 Column_64 Column_65 Column_66 Column_67 Column_68 Column_69 Column_70 Column_71 Column_72 Column_73 Column_74 Column_75 Column_76 Column_77 Column_78 Column_79 Column_80 Column_81 Column_82 Column_83 Column_84 Column_85 Column_86 Column_87 Column_88 Column_89 Column_90 Column_91 Column_92 Column_93 Column_94 Column_95 Column_96 Column_97 Column_98 Column_99 Column_100 Column_101 Column_102 Column_103 Column_104 Column_105 Column_106 Column_107 Column_108 Column_109 Column_110 Column_111 Column_112 Column_113 Column_114 Column_115 Column_116 Column_117 Column_118 Column_119 Column_120 Column_121 Column_122 Column_123 Column_124 Column_125 Column_126 Column_127 Column_128 Column_129 Column_130 Column_131 Column_132 Column_133 Column_134 Column_135 Column_136 Column_137 Column_138 Column_139 Column_140 Column_141 Column_142 Column_143 Column_144 Column_145 Column_146 Column_147 Column_148 Column_149 Column_150 Column_151 Column_152 Column_153 Column_154 Column_155 Column_156 Column_157 Column_158 Column_159 Column_160 Column_161 Column_162 Column_163 Column_164 Column_165 Column_166 Column_167 Column_168 Column_169 Column_170 Column_171 Column_172 Column_173 Column_174 Column_175 Column_176 Column_177 Column_178 Column_179 Column_180 Column_181 Column_182 Column_183 Column_184 Column_185 Column_186 Column_187 Column_188 Column_189 Column_190 Column_191 Column_192 Column_193 Column_194 Column_195 Column_196 Column_197 Column_198 Column_199 Column_200 Column_201 Column_202 Column_203 Column_204 Column_205 Column_206 Column_207 Column_208 Column_209 Column_210 Column_211 Column_212 Column_213 Column_214 Column_215 Column_216 Column_217 Column_218 Column_219 Column_220 Column_221 Column_222 Column_223 Column_224 Column_225 Column_226 Column_227 Column_228 Column_229 Column_230 Column_231 Column_232 Column_233 Column_234 Column_235 Column_236 Column_237 Column_238 Column_239 Column_240 Column_241 Column_242 Column_243 Column_244 Column_245 Column_246 Column_247 Column_248 Column_249 Column_250 Column_251 Column_252 Column_253 Column_254 Column_255 Column_256 Column_257 Column_258 Column_259 Column_260 Column_261 Column_262 Column_263 Column_264 Column_265 Column_266 Column_267 Column_268 Column_269 Column_270 Column_271 Column_272 Column_273 Column_274 Column_275 Column_276 Column_277 Column_278 Column_279 Column_280 Column_281 Column_282 Column_283 Column_284 Column_285 Column_286 Column_287 Column_288 Column_289 Column_290 Column_291 Column_292 Column_293 Column_294 Column_295 Column_296 Column_297 Column_298 Column_299 Column_300 Column_301 Column_302 Column_303 Column_304 Column_305 Column_306 Column_307 Column_308 Column_309 Column_310 Column_311 Column_312 Column_313 Column_314 Column_315 Column_316 Column_317 Column_318 Column_319 Column_320 Column_321 Column_322 Column_323 Column_324 Column_325 Column_326 Column_327 Column_328 Column_329 Column_330 Column_331 Column_332 Column_333 Column_334 Column_335 Column_336 Column_337 Column_338 Column_339 Column_340 Column_341 Column_342 Column_343 Column_344 Column_345 Column_346 Column_347 Column_348 Column_349 Column_350 Column_351 Column_352 Column_353 Column_354 Column_355 Column_356 Column_357 Column_358 Column_359 Column_360 Column_361 Column_362 Column_363 Column_364 Column_365 Column_366 Column_367 Column_368 Column_369 Column_370 Column_371 Column_372 Column_373 Column_374 Column_375 Column_376 Column_377 Column_378
feature_infos=[-0.095465950428715807:0.11961636568500011] [-0.20700495603634109:0.27840825655726581] [-0.41242098991554926:0.50825335953706996] [-0.18136769331023839:0.18890739327257886] [-0.30449213287789428:0.28637386876059512] [-0.33842932392022068:0.40115576345866644] [-0.15103511714406415:0.15857552123693477] [-0.24744601117782769:0.23830292161636238] none [0:5] [-3.5186543304782654:3.2396777801215442] [-3.6733536358556265:3.1365907327699385] [-3.2189466866713641:3.0689927142219768] [-0.2830727151194451:1.2603800721297664] [0.027963578859353275:0.87561775362770355] [-0.6996040517836698:2.6822924324338229] [-0.57633321313086106:1.683348607392817] [-1.313400940314666:1.4682869433008536] [-5:5] [-0.20700495603634109:0.27840825655726581] [-0.35446447058082431:0.37794512283844378] [-0.41242098991554926:0.50825335953706996] [0.00635793565954968:0.13006682264568145] [0.0097229650294710888:0.9999999966963149] [0.010329067001504646:0.090198843563025932] [-2.9872308009998876:2.8929934471180712] [-0.99147537125329377:0.99936651225910555] [-0.095465950428715807:0.11961636568500011] [-0.20700495603634109:0.27840825655726581] [-0.41242098991554926:0.50825335953706996] [-0.18136769331023839:0.18890739327257886] [-0.30449213287789428:0.28637386876059512] [-0.33842932392022068:0.40115576345866644] [-0.15103511714406415:0.15857552123693477] [-0.24744601117782769:0.23830292161636238] none [0:5] [-3.5186543304782654:3.2396777801215442] [-3.6733536358556265:3.1365907327699385] [-3.2189466866713641:3.0689927142219768] [-0.2830727151194451:1.2603800721297664] [0.027963578859353275:0.87561775362770355] [-0.6996040517836698:2.6822924324338229] [-0.57633321313086106:1.683348607392817] [-1.313400940314666:1.4682869433008536] [-5:5] [-0.20700495603634109:0.27840825655726581] [-0.35446447058082431:0.37794512283844378] [-0.41242098991554926:0.50825335953706996] [0.00635793565954968:0.13006682264568145] [0.0097229650294710888:0.9999999966963149] [0.010329067001504646:0.090198843563025932] [-2.9872308009998876:2.8929934471180712] [-0.99147537125329377:0.99936651225910555] [-0.095465950428715807:0.11961636568500011] [-0.20700495603634109:0.27840825655726581] [-0.41242098991554926:0.50825335953706996] [-0.18136769331023839:0.18890739327257886] [-0.30449213287789428:0.28637386876059512] [-0.33842932392022068:0.40115576345866644] [-0.15103511714406415:0.15857552123693477] [-0.24744601117782769:0.23830292161636238] none [0:5] [-3.5186543304782654:3.2396777801215442] [-3.6733536358556265:3.1365907327699385] [-3.2189466866713641:3.0689927142219768] [-0.2830727151194451:1.2603800721297664] [0.027963578859353275:0.87561775362770355] [-0.6996040517836698:2.6822924324338229] [-0.57633321313086106:1.683348607392817] [-1.313400940314666:1.4682869433008536] [-5:5] [-0.20700495603634109:0.27840825655726581] [-0.35446447058082431:0.37794512283844378] [-0.41242098991554926:0.50825335953706996] [0.00635793565954968:0.13006682264568145] [0.0097229650294710888:0.9999999966963149] [0.010329067001504646:0.090198843563025932] [-2.9872308009998876:2.8929934471180712] [-0.99147537125329377:0.99936651225910555] [-0.095465950428715807:0.11961636568500011] [-0.20700495603634109:0.27840825655726581] [-0.41242098991554926:0.50825335953706996] [-0.18136769331023839:0.18890739327257886] [-0.30449213287789428:0.28637386876059512] [-0.33842932392022068:0.40115576345866644] [-0.15103511714406415:0.15857552123693477] [-0.24744601117782769:0.23830292161636238] none [0:5] [-3.5186543304782654:3.2396777801215442] [-3.6733536358556265:3.1365907327699385] [-3.2189466866713641:3.0689927142219768] [-0.2830727151194451:1.2603800721297664] [0.027963578859353275:0.87561775362770355] [-0.6996040517836698:2.6822924324338229] [-0.57633321313086106:1.683348607392817] [-1.313400940314666:1.4682869433008536] [-5:5] [-0.20700495603634109:0.27840825655726581] [-0.35446447058082431:0.37794512283844378] [-0.41242098991554926:0.50825335953706996] [0.00635793565954968:0.13006682264568145] [0.0097229650294710888:0.9999999966963149] [0.010329067001504646:0.090198843563025932] [-2.9872308009998876:2.8929934471180712] [-0.99147537125329377:0.99936651225910555] [-0.095465950428715807:0.11961636568500011] [-0.20700495603634109:0.27840825655726581] [-0.41242098991554926:0.50825335953706996] [-0.18136769331023839:0.18890739327257886] [-0.30449213287789428:0.28637386876059512] [-0.33842932392022068:0.40115576345866644] [-0.15103511714406415:0.15857552123693477] [-0.24744601117782769:0.23830292161636238] none [0:5] [-3.5186543304782654:3.2396777801215442] [-3.6733536358556265:3.1365907327699385] [-3.2189466866713641:3.0689927142219768] [-0.2830727151194451:1.2603800721297664] [0.027963578859353275:0.87561775362770355] [-0.6996040517836698:2.6822924324338229] [-0.57633321313086106:1.683348607392817] [-1.313400940314666:1.4682869433008536] [-5:5] [-0.20700495603634109:0.27840825655726581] [-0.35446447058082431:0.37794512283844378] [-0.41242098991554926:0.50825335953706996] [0.00635793565954968:0.13006682264568145] [0.0097229650294710888:0.9999999966963149] [0.010329067001504646:0.090198843563025932] [-2.9872308009998876:2.8929934471180712] [-0.99147537125329377:0.99936651225910555] [-0.095465950428715807:0.11961636568500011] [-0.20700495603634109:0.27840825655726581] [-0.41242098991554926:0.50825335953706996] [-0.18136769331023839:0.18890739327257886] [-0.30449213287789428:0.28637386876059512] [-0.33842932392022068:0.40115576345866644] [-0.15103511714406415:0.15857552123693477] [-0.24744601117782769:0.23830292161636238] none [0:5] [-3.5186543304782654:3.2396777801215442] [-3.6733536358556265:3.1365907327699385] [-3.2189466866713641:3.0689927142219768] [-0.2830727151194451:1.2603800721297664] [0.027963578859353275:0.87561775362770355] [-0.6996040517836698:2.6822924324338229] [-0.57633321313086106:1.683348607392817] [-1.313400940314666:1.4682869433008536] [-5:5] [-0.20700495603634109:0.27840825655726581] [-0.35446447058082431:0.37794512283844378] [-0.41242098991554926:0.50825335953706996] [0.00635793565954968:0.13006682264568145] [0.0097229650294710888:0.9999999966963149] [0.010329067001504646:0.090198843563025932] [-2.9872308009998876:2.8929934471180712] [-0.99147537125329377:0.99936651225910555] [-0.095465950428715807:0.11961636568500011] [-0.20700495603634109:0.27840825655726581] [-0.41242098991554926:0.50825335953706996] [-0.18136769331023839:0.18890739327257886] [-0.30449213287789428:0.28637386876059512] [-0.33842932392022068:0.40115576345866644] [-0.15103511714406415:0.15857552123693477] [-0.24744601117782769:0.23830292161636238] none [0:5] [-3.5186543304782654:3.2396777801215442] [-3.6733536358556265:3.1365907327699385] [-3.2189466866713641:3.0689927142219768] [-0.2830727151194451:1.2603800721297664] [0.027963578859353275:0.87561775362770355] [-0.6996040517836698:2.6822924324338229] [-0.57633321313086106:1.683348607392817] [-1.313400940314666:1.4682869433008536] [-5:5] [-0.20700495603634109:0.27840825655726581] [-0.35446447058082431:0.37794512283844378] [-0.41242098991554926:0.50825335953706996] [0.00635793565954968:0.13006682264568145] [0.0097229650294710888:0.9999999966963149] [0.010329067001504646:0.090198843563025932] [-2.9872308009998876:2.8929934471180712] [-0.99147537125329377:0.99936651225910555] [-0.095465950428715807:0.11961636568500011] [-0.20700495603634109:0.27840825655726581] [-0.41242098991554926:0.50825335953706996] [-0.18136769331023839:0.18890739327257886] [-0.30449213287789428:0.28637386876059512] [-0.33842932392022068:0.40115576345866644] [-0.15103511714406415:0.15857552123693477] [-0.24744601117782769:0.23830292161636238] none [0:5] [-3.5186543304782654:3.2396777801215442] [-3.6733536358556265:3.1365907327699385] [-3.2189466866713641:3.0689927142219768] [-0.2830727151194451:1.2603800721297664] [0.027963578859353275:0.87561775362770355] [-0.6996040517836698:2.6822924324338229] [-0.57633321313086106:1.683348607392817] [-1.313400940314666:1.4682869433008536] [-5:5] [-0.20700495603634109:0.27840825655726581] [-0.35446447058082431:0.37794512283844378] [-0.41242098991554926:0.50825335953706996] [0.00635793565954968:0.13006682264568145] [0.0097229650294710888:0.9999999966963149] [0.010329067001504646:0.090198843563025932] [-2.9872308009998876:2.8929934471180712] [-0.99147537125329377:0.99936651225910555] [-0.095465950428715807:0.11961636568500011] [-0.20700495603634109:0.27840825655726581] [-0.41242098991554926:0.50825335953706996] [-0.18136769331023839:0.18890739327257886] [-0.30449213287789428:0.28637386876059512] [-0.33842932392022068:0.40115576345866644] [-0.15103511714406415:0.15857552123693477] [-0.24744601117782769:0.23830292161636238] none [0:5] [-3.5186543304782654:3.2396777801215442] [-3.6733536358556265:3.1365907327699385] [-3.2189466866713641:3.0689927142219768] [-0.2830727151194451:1.2603800721297664] [0.027963578859353275:0.87561775362770355] [-0.6996040517836698:2.6822924324338229] [-0.57633321313086106:1.683348607392817] [-1.313400940314666:1.4682869433008536] [-5:5] [-0.20700495603634109:0.27840825655726581] [-0.35446447058082431:0.37794512283844378] [-0.41242098991554926:0.50825335953706996] [0.00635793565954968:0.13006682264568145] [0.0097229650294710888:0.9999999966963149] [0.010329067001504646:0.090198843563025932] [-2.9872308009998876:2.8929934471180712] [-0.99147537125329377:0.99936651225910555] [-0.095465950428715807:0.11961636568500011] [-0.20700495603634109:0.27840825655726581] [-0.41242098991554926:0.50825335953706996] [-0.18136769331023839:0.18890739327257886] [-0.30449213287789428:0.28637386876059512] [-0.33842932392022068:0.40115576345866644] [-0.15103511714406415:0.15857552123693477] [-0.24744601117782769:0.23830292161636238] none [0:5] [-3.5186543304782654:3.2396777801215442] [-3.6733536358556265:3.1365907327699385] [-3.2189466866713641:3.0689927142219768] [-0.2830727151194451:1.2603800721297664] [0.027963578859353275:0.87561775362770355] [-0.6996040517836698:2.6822924324338229] [-0.57633321313086106:1.683348607392817] [-1.1456001193267076:1.4682869433008536] [-5:5] [-0.20700495603634109:0.27840825655726581] [-0.35446447058082431:0.37794512283844378] [-0.41242098991554926:0.50825335953706996] [0.00635793565954968:0.13006682264568145] [0.0097229650294710888:0.9999999966963149] [0.010329067001504646:0.090198843563025932] [-2.9872308009998876:2.8929934471180712] [-0.99147537125329377:0.99936651225910555] [-0.056121826171875:0.10186767578125] [-0.0096417411286378457:0.013809126640657499] [0.006436872901033514:0.044019517293848974] [-0.095465950428715807:-0.010359936113219947] [0.011139174367260862:0.11961636568500011] [-0.045564743978841984:0.07282909982392935] [0.011545588275577818:0.1171270784147722] [-0.20700495603634109:0.001630859600554313] [0.027083912280290612:0.27840825655726581] [-0.19237376096903366:0.27196367107383107] [0.013527124279289303:0.25249653625528523] [-0.41242098991554926:0.1269186907725961] [-0.03598752911671077:0.50825335953706996] [-0.049948952118257749:0.06136643135257748] [0.0081828357467604255:0.088037560131669343] [-0.18136769331023839:0.0064321624170207148] [0.013519388405113908:0.18890739327257886] [-0.11046219325887685:0.1222286000975434] [0.0076470682273801034:0.14829233659898058] [-0.30449213287789428:0.02549132889284933] [-0.0014874510356709392:0.28637386876059512] [-0.2328213469575259:0.28766562130135026] [0:0.20305979784545278] [-0.33842932392022068:0.25452117433643007] [-0.1069532668485137:0.40115576345866644] [-0.051060640217635532:0.05721480362671124] [0.0065784147444784297:0.078889747321619255] [-0.15103511714406415:0.0099647318086935055] [0.01242262321908072:0.15857552123693477] [-0.10740604754316969:0.11049473611362415] [0.0071248782009120295:0.12704279582478184] [-0.24744601117782769:0.030926766573809106] [-0.0068130208889870536:0.23830292161636238] none none none none [4.580845819183712:5] [0:1.3331516943118387] [0:5] none [-2.0429929906673028:2.3341844722376854] [0:1.9691730935417975] [-3.5186543304782654:2.3255559168565694] [-1.2869957026164467:3.2396777801215442] [-2.2894323094010494:2.6980511482819391] [0:2.021519431804192] [-3.6733536358556265:2.6980511482819391] [-1.7026427967177824:3.1365907327699385] [-1.2529794825937319:1.9001884290209603] [0:1.7338004893565877] [-3.2189466866713641:1.8701519206216941] [-1.2529794825937319:3.0689927142219768] [0.17316522004632909:0.92430428205912474] [0.089508382826849059:0.41540750245498531] [-0.2830727151194451:0.72448252612345787] [0.49515827053857514:1.2603800721297664] [0.046325768103572286:0.4462164592085367] [0.0092561833062196792:0.31444862718607702] [0.027963578859353275:0.25677245695971707] [0.068192338499733662:0.87561775362770355] [-0.61112739039745989:0.80725944052213983] [0:1.1619576175764896] [-0.6996040517836698:0.37382196877480856] [-0.61001994448316443:2.6822924324338229] [-0.45601588924306868:0.81893876245351083] [0:0.82573639508872521] [-0.57633321313086106:0.33122369396472573] [-0.45432811720046673:1.683348607392817] [-0.43623726840545018:0.17350338194158865] [0.13981086642836563:0.7982579337536807] [-1.313400940314666:-0.2894125870115975] [0.11239819015522425:1.4682869433008536] [-3.0295593346691954:1.7334806105691229] [0.027699016276897293:4.1165975960016175] [-5:0.22738710190919731] [-0.059075799436610343:5] [-0.045564743978841984:0.07282909982392935] [0.011545588275577818:0.1171270784147722] [-0.20700495603634109:0.001630859600554313] [0.027083912280290612:0.27840825655726581] [-0.11138225452487571:0.13864532021063081] [0.014342792463713535:0.18501990259110132] [-0.35446447058082431:0.021834219765775931] [0.01336629260151101:0.37794512283844378] [-0.19237376096903366:0.27196367107383107] [0.013527124279289303:0.25249653625528523] [-0.41242098991554926:0.1269186907725961] [-0.03598752911671077:0.50825335953706996] [0.011419317910288471:0.056105885964789624] [0.0035685036508791286:0.026381602874077995] [0.00635793565954968:0.025806458716233292] [0.020600097696861056:0.13006682264568145] [0.39674640377081943:0.69550515902418175] [0.21728089304694145:0.34643726348641041] [0.0097229650294710888:0.1612896162975381] [0.88994669514148406:0.9999999966963149] [0.012004642259114446:0.061161982671904647] [0.00057139963494927176:0.025321780371102127] [0.010329067001504646:0.043402702885125176] [0.013969257805816614:0.090198843563025932] [-2.0371341410872383:1.4606517248115907] [0:1.7018498665945527] [-2.9872308009998876:1.4219291031717771] [-2.0370096849060753:2.8929934471180712] [-0.69589493696124405:0.85062746581925985] [0.14831686246035405:0.779407805033282] [-0.99147537125329377:0.36254167728382525] [0.15838095558814147:0.99936651225910555]
tree_sizes=4375

Tree=0
num_leaves=49
num_cat=0
split_feature=196 49 185 219 291 126 284 253 55 136 192 329 82 273 261 82 179 326 339 238 99 361 52 213 27 255 260 271 26 135 374 366 51 218 360 248 315 294 375 113 94 169 158 49 274 239 338 203
split_gain=6.09618 5.43723 5.42517 5.33619 4.96851 5.10266 4.30095 4.74146 4.16316 4.16233 4.13176 4.47052 4.22975 4.04575 3.99715 3.92165 3.8867 3.88142 3.84197 4.84903 4.41145 4.74356 4.44773 4.14739 4.14919 4.02195 4.60358 3.77274 4.08167 3.44185 3.27169 3.20376 3.11662 3.04512 3.0266 2.77799 3.43765 2.76412 2.67761 2.6755 2.47668 2.42823 2.26712 2.23917 1.91287 1.75612 1.73683 1.54092
threshold=0.014416233647107981 0.053593211031682783 0.20580764114858816 -0.00070995819986374709 -0.017682890606245366 0.008065161642195064 0.02903935241910895 1.3509892300990376 0.074286920672346449 0.10585129399925843 0.017248190600396732 0.071412414856322048 -0.05013177596432588 -0.037696745673351066 0.025090594849109808 -0.016812027595032749 -0.71833609076520355 1.0532297277719158 -0.10152333514426555 0.011253765321004602 0.040891557457965695 0.011831381459806606 -0.5307873093129446 0.017143354766539224 0.007189780229410748 -1.6614428981322635 0.48219096452643478 -4.6193144298141581e-05 -0.094327982388688961 0.0033562069804141674 1.563768182276245 0.97548947909940809 0.02627122011851139 0.014117889400671492 0.014200108874423417 1.0000000180025095e-35 -0.86356005239060096 0.064734168063106293 0.059055207700392062 0.040367884105440906 0.79977067757596776 0.036553456832015947 0.6101367945673396 0.019422512245833457 0.02361249209684602 0.30696699394610533 0.49823061111617223 0.072927158827206684
decision_type=2 2 2 2 2 2 2 2 2 2 2 2 2 2 2 2 2 2 2 2 2 2 2 2 2 2 2 2 2 2 2 2 2 2 2 2 2 2 2 2 2 2 2 2 2 2 2 2
left_child=1 16 3 41 31 10 27 8 -8 33 11 15 -12 -9 34 -6 30 -14 20 29 25 22 -22 44 -25 -18 -27 -7 -29 43 -1 32 -4 -5 -3 45 -37 -35 -38 -39 -13 -2 -23 -20 -21 -33 -36 -31
right_child=2 14 4 9 5 6 7 13 -10 -11 12 40 17 -15 -16 -17 18 -19 19 23 21 42 -24 24 -26 26 -28 28 -30 47 -32 35 -34 37 46 36 38 39 -40 -41 -42 -43 -44 -45 -46 -47 -48 -49
leaf_value=0.040282317978311964 0.023367970854887003 0.046777936862506635 0.034521659948255116 0.067915324886156092 0.01479315350075219 0.05792996414569701 0.049568853927588891 0.033397300577771398 0.03414538886037044 0.027045520352609823 0.058988648501163789 0.010221831387746863 0.044924511132028895 0.047338793719570255 0.03459726757981358 0.038280969557020386 0.061942474344284806 0.031393285661652309 0.050991118316133122 0.038494750877401333 0.058204742371575288 0.064404516375483334 0.039587766619657849 0.042585672781906725 0.036208904049036594 0.041525408112540629 0.017870076441474605 0.023500036821340883 0.037476066900380516 0.047462836584737822 0.017178548226056981 0.055342899563973064 0.010033639791111711 0.031216136472031218 0.077187700410673313 0.017582816361367652 0.027940444938500279 0.066198999562137609 0.047411106429929704 0.047633127691093603 0.030683198871931397 0.044795635595492544 0.0480981557838049 0.070666282565518823 0.027366009097161838 0.034546879505582204 0.05735312544818108 0.028377725377550254
leaf_weight=32 37 36 22 22 22 20 263 168 52 21 21 43 77 75 23 94 22 167 58 67 44 63 116 771 381 295 22 59 468 22 30 20 34 21 21 39 42 23 30 135 24 20 34 20 95 20 27 20
leaf_count=32 37 36 22 22 22 20 263 168 52 21 21 43 77 75 23 94 22 167 58 67 44 63 116 771 381 295 22 59 468 22 30 20 34 21 21 39 42 23 30 135 24 20 34 20 95 20 27 20
internal_value=0.0400655 0.0418902 0.0380952 0.0445642 0.0370667 0.038041 0.039871 0.0429541 0.0470058 0.04808 0.0335398 0.0277559 0.037556 0.0377219 0.0528826 0.0337652 0.041325 0.035684 0.0417041 0.0402982 0.0450778 0.0500193 0.0446842 0.0394228 0.0404722 0.0413151 0.0398929 0.0367168 0.035899 0.0499185 0.0290122 0.0297854 0.0195374 0.050308 0.0579496 0.0336302 0.0295481 0.0481018 0.0361212 0.0503821 0.0174515 0.0309688 0.0587543 0.0561325 0.0319338 0.0448318 0.0661934 0.0384868
internal_weight=4238 2199 2039 279 1760 1553 1105 558 315 222 448 183 265 243 107 116 2092 244 2030 1434 596 257 160 1314 1152 339 317 547 527 120 62 207 56 201 84 151 111 179 72 158 67 57 97 78 162 40 48 42
internal_count=4238 2199 2039 279 1760 1553 1105 558 315 222 448 183 265 243 107 116 2092 244 2030 1434 596 257 160 1314 1152 339 317 547 527 120 62 207 56 201 84 151 111 179 72 158 67 57 97 78 162 40 48 42
is_linear=0
shrinkage=1


end of trees

feature_importances:
Column_49=2
Column_82=2
Column_26=1
Column_27=1
Column_51=1
Column_52=1
Column_55=1
Column_94=1
Column_99=1
Column_113=1
Column_126=1
Column_135=1
Column_136=1
Column_158=1
Column_169=1
Column_179=1
Column_185=1
Column_192=1
Column_196=1
Column_203=1
Column_213=1
Column_218=1
Column_219=1
Column_238=1
Column_239=1
Column_248=1
Column_253=1
Column_255=1
Column_260=1
Column_261=1
Column_271=1
Column_273=1
Column_274=1
Column_284=1
Column_291=1
Column_294=1
Column_315=1
Column_326=1
Column_329=1
Column_338=1
Column_339=1
Column_360=1
Column_361=1
Column_366=1
Column_374=1
Column_375=1

parameters:
[boosting: gbdt]
[objective: regression]
[metric: rmse]
[tree_learner: serial]
[device_type: cpu]
[data_sample_strategy: bagging]
[data: ]
[valid: ]
[num_iterations: 2000]
[learning_rate: 0.05]
[num_leaves: 63]
[num_threads: -1]
[seed: 42]
[deterministic: 0]
[force_col_wise: 0]
[force_row_wise: 0]
[histogram_pool_size: -1]
[max_depth: 7]
[min_data_in_leaf: 20]
[min_sum_hessian_in_leaf: 0.001]
[bagging_fraction: 0.8]
[pos_bagging_fraction: 1]
[neg_bagging_fraction: 1]
[bagging_freq: 5]
[bagging_seed: 400]
[bagging_by_query: 0]
[feature_fraction: 0.8]
[feature_fraction_bynode: 1]
[feature_fraction_seed: 30056]
[extra_trees: 0]
[extra_seed: 12879]
[early_stopping_round: 0]
[early_stopping_min_delta: 0]
[first_metric_only: 0]
[max_delta_step: 0]
[lambda_l1: 0.1]
[lambda_l2: 0.1]
[linear_lambda: 0]
[min_gain_to_split: 0]
[drop_rate: 0.1]
[max_drop: 50]
[skip_drop: 0.5]
[xgboost_dart_mode: 0]
[uniform_drop: 0]
[drop_seed: 17869]
[top_rate: 0.2]
[other_rate: 0.1]
[min_data_per_group: 100]
[max_cat_threshold: 32]
[cat_l2: 10]
[cat_smooth: 10]
[max_cat_to_onehot: 4]
[top_k: 20]
[monotone_constraints: ]
[monotone_constraints_method: basic]
[monotone_penalty: 0]
[feature_contri: ]
[forcedsplits_filename: ]
[refit_decay_rate: 0.9]
[cegb_tradeoff: 1]
[cegb_penalty_split: 0]
[cegb_penalty_feature_lazy: ]
[cegb_penalty_feature_coupled: ]
[path_smooth: 0]
[interaction_constraints: ]
[verbosity: -1]
[saved_feature_importance_type: 0]
[use_quantized_grad: 0]
[num_grad_quant_bins: 4]
[quant_train_renew_leaf: 0]
[stochastic_rounding: 1]
[linear_tree: 0]
[max_bin: 255]
[max_bin_by_feature: ]
[min_data_in_bin: 3]
[bin_construct_sample_cnt: 200000]
[data_random_seed: 175]
[is_enable_sparse: 1]
[enable_bundle: 1]
[use_missing: 1]
[zero_as_missing: 0]
[feature_pre_filter: 1]
[pre_partition: 0]
[two_round: 0]
[header: 0]
[label_column: ]
[weight_column: ]
[group_column: ]
[ignore_column: ]
[categorical_feature: ]
[forcedbins_filename: ]
[precise_float_parser: 0]
[parser_config_file: ]
[objective_seed: 16083]
[num_class: 1]
[is_unbalance: 0]
[scale_pos_weight: 1]
[sigmoid: 1]
[boost_from_average: 1]
[reg_sqrt: 0]
[alpha: 0.9]
[fair_c: 1]
[poisson_max_delta_step: 0.7]
[tweedie_variance_power: 1.5]
[lambdarank_truncation_level: 30]
[lambdarank_norm: 1]
[label_gain: ]
[lambdarank_position_bias_regularization: 0]
[eval_at: ]
[multi_error_top_k: 1]
[auc_mu_weights: ]
[num_machines: 1]
[local_listen_port: 12400]
[time_out: 120]
[machine_list_filename: ]
[machines: ]
[gpu_platform_id: -1]
[gpu_device_id: -1]
[gpu_use_dp: 0]
[num_gpu: 1]

end of parameters

pandas_categorical:null
