tree
version=v4
num_class=3
num_tree_per_iteration=3
label_index=0
max_feature_idx=17
objective=multiclass num_class:3
feature_names=ts_gru VIX Treasury_10Y Fed_Funds CPI VIX_Spike fb_pos fb_neg ml_pos ml_neg senti_mean senti_std senti_z Momentum_ZScore Volume_ZScore regime_bull regime_bear regime_volatile
feature_infos=[-0.3694516122341156:0.51187717914581299] [10:43.99413779331104] [1.8722889561033393:2.9830636729661486] [1.25:2] [250.57184106808987:251.50323543918938] [0:1] [0.025037229061126709:0.95745009183883667] [0.04254990816116333:0.97496277093887329] [0:1.5] [0:1.5] [-1.5:1.5] [0:1.5] [-2.3763309516183884:2.4545814949763227] [-4.4064807772762817:4.0231407051788173] [-2.6962238242558421:4.6412392885501239] [0:1] [0:1] [0:1]
tree_sizes=3292 3316 3271 3371 3457 3395 3388 3431 3406 3394 3437 3412 3448 3460 3438 3410 3424 3423 3439 3432 3414 3400 3437 3424 3399 3431 3411 3409 3440 3434 3424 3442 3412 3407 3458 3422 3427 3442 3451 3445 3431 3453 3386 3435 3402 3377 3445 3405 3416 3432 3400 3402 3446 3395 3406 3428 3421 3412 3435 3410 3462 3451 3417 3427 3449 3412 3419 3449 3405 3427 3440 3438 3425 3457 3424 3418 3460 3403 3429 3432 3451 3441 3449 3414 3416 3453 3400 3440 3469 3423 3418 3479 3400 3398 3443 3434 3418 3452 3402 3439 3477 3408 3442 3442 3413 3475 3436 3422 3415 3418 3440 3416 3437 3406 3421 3456 3421 3401 3419 3406 3405 3447 3416 3448 3442 3441 3415 3448 3436 3452 3424 3432 3445 3428 3424 3437 3420 3405 3444 3444 3392 3406 3441 3439 3393 3439 3399 3425 3444 3398 3405 3447 3424 3426 3441 3382 3418 3462 3427 3427 3435 3429 3424 3447 3438 3430 3446 3438 3409 3427 3424 3431 3391 3437 3425 3413 3437 3399 3407 3445 3392 3440 3434 3437 3452 3426 3422 3440 3408 3425 3464 3444 3452 3435 3399 3421 3431 3428 3413 3433 3418 3400 3442 3406 3410 3411 3465 3438 3431 3442 3423 3415 3409 3434 3434 3416 3465 3441 3432 3432 3430 3446 3449 3426 3441 3417 3445 3408 3444 3433 3427 3450 3438 3433 3439 3434 3435 3424 3416 3423 3407 3424 3415 3402 3409 3394 3438 3430 3428 3442 3423 3441 3411 3455 3419 3404 3420 3441 3455 3450 3408 3431 3411 3396 3446 3424 3447 3423 3398 3415 3415 3431 3409 3399 3439 3400 3413 3406 3443 3440 3411 3422 3413 3408 3398 3427 3418 3441 3392 3438 3413 3451 3412 3401 3486 3422 3424 3434 3428 3431

Tree=0
num_leaves=31
num_cat=0
split_feature=1 2 1 1 2 1 1 3 2 0 2 2 2 2 1 2 13 1 2 13 14 2 2 0 2 2 2 2 13 8
split_gain=23.8191 20.4705 19.1927 18.8181 20.0301 26.999 20.1894 18.1072 13.5664 13.3516 11.9775 11.2166 21.3249 11.8379 16.2861 11.626 13.5362 10.7284 12.8651 10.6174 10.2179 10.292 9.71581 9.52991 14.7432 8.92213 15.5148 12.4176 10.1248 8.85612
threshold=14.970053913827931 2.8430545238559457 15.597444286994097 17.417296613024885 2.4699589335590457 23.21014623897792 25.852827226735876 1.6250000000000002 2.1867692239597045 -0.13090652227401731 2.2071642737618657 2.3993702913259569 2.3452591184601035 1.957098175885887 22.876096374657667 2.4595313138699031 0.7089543174192251 37.594888289763844 2.4713568341179868 -0.72603481579725526 1.9420874919850324 2.225386222827765 2.528077981328233 0.0073318239301443109 1.9380683755366135 2.4356035099451918 2.4562793247648798 2.4633351792926441 1.4360826998259104 0.35589830080668139
decision_type=2 2 2 2 2 2 2 2 2 2 2 2 2 2 2 2 2 2 2 2 2 2 2 2 2 2 2 2 2 2
left_child=19 2 23 29 5 11 -7 8 -8 -9 -10 12 13 -5 -15 16 -13 18 -6 -1 21 -11 -19 24 -2 28 -27 -28 -23 -4
right_child=1 -3 3 4 17 6 7 9 10 20 -12 15 -14 14 -16 -17 -18 22 -20 -21 -22 25 -24 -25 -26 26 27 -29 -30 -31
leaf_value=-1.0925861131554895 -1.0996486562296834 -1.0502583223005773 -1.0612383378184442 -1.0941942956266153 -1.1385997051917605 -1.11133248265385 -1.0386822819450732 -1.0398336536248363 -1.1433854447440246 -1.0448001560524576 -1.0969142859030168 -1.0383241312728384 -1.1250854227864133 -1.0453812770678481 -1.1355640860381142 -1.1026605985769653 -1.0862705787017848 -1.1024935290873881 -1.0964042000523713 -1.1081103696480294 -1.0434462279648893 -1.0911679888284715 -1.121751778789478 -1.0850454947726356 -1.0243615981222514 -1.0551138063646357 -1.1260732569489604 -1.0751287663487807 -1.1323934603159356 -1.1084446211187109
leaf_weight=130.50842551887035 9.8544646501541155 24.151903435587883 10.195124685764311 36.14903037250042 18.534783259034157 152.32848665118217 9.7914048284292203 17.060417830944061 14.20216381549835 13.943755537271498 585.12297530472279 50.144193530082703 25.241741478443146 41.707203611731529 5.6890907287597647 13.731271386146544 20.83783657848835 202.80854114890099 711.63875482976437 705.63230521976948 14.117170184850691 211.92890927195549 96.726878613233566 58.389261826872826 19.118086487054825 46.445599287748337 19.761022284626961 30.305717334151268 16.019245386123657 389.9412407130003
leaf_count=422 31 84 37 110 53 435 35 70 45 47 1837 185 81 156 19 37 56 552 2191 1910 58 695 254 161 78 171 63 95 37 1150
internal_value=-1.09826 -1.0961 -1.09649 -1.09722 -1.09551 -1.09145 -1.0944 -1.09176 -1.09706 -1.08303 -1.09802 -1.07419 -1.08481 -1.07264 -1.05621 -1.06055 -1.0524 -1.10074 -1.09748 -1.10569 -1.08512 -1.08686 -1.10871 -1.07341 -1.04997 -1.08867 -1.07593 -1.09524 -1.09407 -1.10724
internal_weight=3702.03 2865.89 2841.73 2754.37 2354.24 1324.53 1131.03 978.698 609.117 369.582 599.325 193.5 108.787 83.5453 47.3963 84.7133 70.982 1029.71 730.174 836.141 352.521 338.404 299.535 87.3618 28.9726 324.46 96.5123 50.0667 227.948 400.136
internal_count=11155 8823 8739 8469 7282 4232 3588 3153 1917 1236 1882 644 366 285 175 278 241 3050 2244 2332 1166 1108 806 270 109 1061 329 158 732 1187
is_linear=0
shrinkage=1


Tree=1
num_leaves=31
num_cat=0
split_feature=4 2 13 0 4 12 0 0 1 0 13 1 2 0 0 4 2 1 4 0 4 0 13 2 2 13 4 8 13 2
split_gain=67.1881 36.881 25.8367 19.5815 20.8939 15.2062 15.9429 20.7924 16.8568 14.1521 12.8218 12.7827 24.031 14.8127 19.705 15.7871 13.345 24.8859 12.6461 14.1253 13.9711 13.0135 12.3829 13.0123 11.736 18.6315 16.5291 11.6751 11.6118 11.4966
threshold=251.19815557960789 2.7718741674210263 -1.6491239166738836 0.26495337486267095 250.65305027304282 -0.43390949454141792 0.14677539467811587 -0.13090652227401731 28.972248660589276 -0.11533207446336745 0.16523509634165415 13.359879252466898 2.3297082366728215 -0.045681267976760857 0.15479654073715213 251.3522071657342 2.3756702126913072 24.884777513289901 251.28916803198945 0.25609430670738226 251.33205188636757 -0.082219582051038728 1.8059121755387573 2.2121155697086281 2.5042361007936775 0.76377762694396611 251.2800531206299 0.94669595360755932 -1.5492839267693268 2.2743982524924133
decision_type=2 2 2 2 2 2 2 2 2 2 2 2 2 2 2 2 2 2 2 2 2 2 2 2 2 2 2 2 2 2
left_child=1 5 -2 4 -3 -1 7 -7 9 -9 -5 18 -13 15 16 -14 17 -15 19 29 21 -20 23 -10 -16 26 -26 -25 -18 -4
right_child=2 3 11 10 -6 6 -8 8 22 -11 -12 12 13 14 24 -17 28 -19 20 -21 -22 -23 -24 27 25 -27 -28 -29 -30 -31
leaf_value=-1.1422949494491912 -1.1259660744055291 -1.0882361297231924 -1.1037449939401949 -1.046056632443384 -1.1306542712091303 -1.142122333130934 -1.1140510110014972 -1.0588578009443348 -1.1364482823843649 -1.1142953177649533 -1.0931003690348973 -1.1046586274554271 -1.0823210480791188 -1.0333891600480445 -1.0935989254607004 -1.0314869990186819 -1.0308417201440561 -1.1032010850157634 -1.0369548193298241 -1.0302267687394369 -1.0925221194523576 -1.0743353373972644 -1.1486123175681024 -1.0940939276584194 -1.1195627065900073 -1.1238833657630767 -1.0642016553051934 -1.0391149180238708 -1.1038734635673972 -1.0840551911785234
leaf_weight=34.275057166814804 57.367966562509537 147.03900009393692 139.95299789309502 38.003809899091721 36.172334522008896 33.363431841135025 695.42003521323204 12.062242746353148 17.800684571266174 252.38587832450867 23.403410524129868 403.95490196347237 186.17994254827499 20.671275973320007 165.30852025747299 16.638190656900406 5.5156760215759268 33.377140164375305 31.027476966381073 9.1450415849685651 73.346770972013474 93.284633994102478 10.861364990472792 413.05196270346642 14.907473534345625 17.512117385864258 141.08464640378952 9.8873651027679426 411.38499078154564 157.64058563113213
leaf_count=137 209 405 438 68 135 133 2329 25 69 846 67 1268 489 31 478 24 8 104 49 13 210 228 45 1196 52 63 312 16 1287 421
internal_value=-1.09919 -1.10641 -1.0929 -1.08842 -1.09661 -1.10938 -1.1086 -1.10354 -1.10174 -1.11177 -1.06399 -1.09191 -1.09435 -1.09023 -1.09326 -1.07815 -1.09988 -1.0765 -1.08508 -1.09143 -1.07522 -1.06501 -1.09587 -1.09457 -1.08407 -1.07498 -1.06949 -1.09281 -1.10291 -1.09331
internal_weight=3702.03 1723.73 1978.3 244.619 183.211 1479.11 1444.83 749.413 716.049 264.448 61.4072 1920.93 1416.53 1012.58 809.762 202.818 470.949 54.0484 504.398 306.739 197.659 124.312 451.601 440.74 338.813 173.504 155.992 422.939 416.901 297.594
internal_count=11155 5471 5684 675 540 4796 4659 2330 2197 871 135 5475 4116 2848 2335 513 1430 135 1359 872 487 277 1326 1281 905 427 364 1212 1295 859
is_linear=0
shrinkage=1


Tree=2
num_leaves=31
num_cat=0
split_feature=1 1 2 2 2 1 4 1 1 2 1 2 2 1 1 6 9 2 2 14 1 2 1 11 1 2 2 1 1 1
split_gain=16.2423 14.3883 14.472 15.5262 33.636 33.0656 14.2643 18.2197 15.2139 11.8106 10.6179 27.2014 9.90495 12.8485 12.1369 9.10952 8.89909 8.82487 11.0975 7.58964 7.21513 6.6892 6.6769 25.5938 23.2255 24.2415 17.4278 22.658 9.81703 30.7964
threshold=42.339351222696763 40.349925567379238 2.7263247724705946 2.6273767594511628 2.6680946523950735 14.712979822278648 250.62240974048427 19.14714964507727 18.618498409107676 2.5795940129637134 41.301378166298385 2.3736659098712649 2.8925766376287574 14.846824360680477 17.340199887349918 0.053440958261489875 0.96956863999366771 2.7906780512211471 2.778546215950894 -1.544363953601662 34.026274623733691 2.5270367053052643 37.780240246599156 0.41922734194172878 38.499971677928123 2.2121155697086281 2.5088939827905832 37.914269417244647 30.9147736245875 28.854304152676601
decision_type=2 2 2 2 2 2 2 2 2 2 2 2 2 2 2 2 2 2 2 2 2 2 2 2 2 2 2 2 2 2
left_child=1 2 3 9 -5 -6 -7 8 -8 15 21 -12 14 -14 17 16 -1 18 -4 20 -17 -3 28 24 26 -26 27 -24 29 -21
right_child=-2 10 12 4 5 6 7 -9 -10 -11 11 -13 13 -15 -16 19 -18 -19 -20 22 -22 -23 23 -25 25 -27 -28 -29 -30 -31
leaf_value=-1.0247590580980641 -1.0715880848030577 -1.1218955065597445 -1.1183352989075843 -1.0179829491075376 -0.99861226975729711 -1.1127759260561816 -1.0484439401525822 -1.0035516110346123 -1.1312772836987153 -1.1298672931649709 -1.1050985978229693 -1.0081760278769496 -1.049890618515648 -1.1299492403378382 -1.0927735264734426 -1.0881814143131059 -1.1001245557284975 -1.1255545724631302 -1.0786883498750668 -1.098727361953473 -1.042666965609917 -1.0836219069865607 -1.0859711742891049 -1.0104379955703697 -1.0129338774074399 -1.1023468500236302 -1.0968534057754886 -1.0167170324919905 -1.10444667007991 -1.0722845632950966
leaf_weight=8.517185837030409 55.694827169179916 138.19349460303783 48.777440637350082 18.842542916536331 8.907882481813429 63.778133437037468 10.180045232176786 7.5143979340791693 12.170541316270826 28.137693718075752 107.47514735162258 7.7618391066789618 14.959566920995714 7.5363314747810355 66.75016924738884 42.476258918642998 7.2518770396709433 125.04895314574242 27.657891228795052 1756.5519778132439 10.952527925372122 12.444029048085211 23.014770790934563 9.4157880395650846 7.7748623192310324 303.2484086304903 35.326511204242706 24.260202422738075 593.93215355277061 117.47355432808399
leaf_count=36 188 390 151 75 38 208 33 32 35 71 306 33 53 21 198 132 25 326 76 5224 46 37 71 40 33 855 102 98 1816 406
internal_value=-1.09839 -1.09879 -1.09791 -1.09691 -1.07938 -1.09067 -1.09942 -1.0709 -1.09355 -1.09763 -1.10999 -1.09857 -1.10858 -1.07671 -1.11125 -1.09732 -1.05942 -1.11737 -1.10399 -1.09752 -1.07885 -1.11873 -1.09787 -1.0919 -1.09385 -1.10011 -1.07029 -1.05043 -1.09885 -1.09707
internal_weight=3702.03 3646.33 3380.46 3089.73 121.394 102.551 93.6431 29.865 22.3506 2968.33 265.875 115.237 290.73 22.4959 268.234 2940.2 15.7691 201.484 76.4353 2924.43 53.4288 150.638 2871 403.041 393.625 311.023 82.6015 47.275 2467.96 1874.03
internal_count=11155 10967 10201 9376 421 346 308 100 68 8955 766 339 825 74 751 8884 61 553 227 8823 178 427 8645 1199 1159 888 271 169 7446 5630
is_linear=0
shrinkage=1


Tree=3
num_leaves=31
num_cat=0
split_feature=4 1 1 1 4 4 3 4 2 1 4 2 2 2 4 4 1 13 4 1 2 2 1 1 2 2 2 0 4 1
split_gain=66.9126 16.8083 13.1045 16.6424 13.4352 18.5937 12.2808 31.5358 27.3595 16.205 19.8799 21.1106 24.4815 18.0921 25.8915 16.975 24.3762 16.9746 13.3856 11.5059 10.1004 9.9628 25.6026 32.7035 15.2045 12.1936 17.5103 10.2624 9.12632 18.6971
threshold=251.19815557960789 13.160323484801717 41.393200168613667 40.21579082811288 251.01534050598482 251.00490940684514 1.6250000000000002 251.15807412767143 2.4676674919042059 22.876096374657667 250.7077850158401 2.330918827083162 2.3993702913259569 2.4356035099451918 250.9818945007855 251.011431713897 34.378477400822796 -0.0081583154464527612 250.69264139409947 27.141622058233146 2.4595313138699031 2.4801994106321117 28.415904018951704 26.776103115656696 2.4686181505683042 2.495983901299144 2.4933872436763824 0.080849409103393569 251.01756323717646 33.884368513609829
decision_type=2 2 2 2 2 2 2 2 2 2 2 2 2 2 2 2 2 2 2 2 2 2 2 2 2 2 2 2 2 2
left_child=1 -1 3 6 5 -4 7 -3 9 10 11 18 -13 14 19 17 28 -16 -8 -11 -15 22 23 -10 -25 26 -23 -27 -17 -30
right_child=-2 2 4 -5 -6 -7 8 -9 21 13 -12 12 -14 20 15 16 -18 -19 -20 -21 -22 25 -24 24 -26 27 -28 -29 29 -31
leaf_value=0.055131506213859552 -0.0059568395696230928 -0.0083082988322959218 -0.0061813954290821475 0.028869555323207431 -0.01874595441983706 0.053756912782938385 0.010110319575181624 0.069118058139649538 -0.03665901027384421 -0.030658224219267002 0.081623213707875619 -0.025105904186380746 0.040291197545881868 0.051063727617929294 0.080643311038321244 0.068611212453821693 -0.018713372070250082 0.018551983969150247 0.096022297353159869 0.020046164962350885 0.016823270428389273 0.011695356774995988 -0.03358193482746042 0.0035876273971799295 0.096046235517574963 0.015101999664595462 0.076388987646323667 -0.00036575286500882168 0.023929079418716206 -0.043693985778866039
leaf_weight=18.33775968849659 1973.96810336411 214.39849697053432 44.910785377025604 93.31174410879612 93.928472116589546 18.175261348485947 6.6756054461002359 14.010617032647131 13.927679985761641 51.816479101777077 19.591048747301102 26.901530250906944 30.576303422451019 42.955104529857635 18.113564133644104 9.3710563927888852 55.287805736064911 28.056787565350533 14.131811022758484 14.269649580121039 43.196727693080902 43.2602898478508 55.058511644601822 6.8476489037275341 12.680555105209349 138.93540981411934 13.79479596018791 469.97040937840939 104.43131007254124 11.33078610897064
leaf_count=70 5684 679 132 292 278 69 17 52 54 168 73 83 109 153 73 33 165 75 56 54 138 139 178 18 51 470 51 1360 333 48
internal_value=0.000332809 0.00751669 0.00700605 0.00839789 -0.00675953 0.011087 0.00708914 -0.00355897 0.00906457 0.0184415 0.036578 0.0253053 0.00968319 0.0137557 0.00782737 0.0158587 0.00893575 0.0429117 0.0684593 -0.0197099 0.0338955 0.00313988 -0.0126201 0.0218769 0.0636252 0.00523458 0.027337 0.00316356 0.021152 0.0173101
internal_weight=3702.22 1728.25 1709.92 1552.9 157.015 63.086 1459.59 228.409 1231.18 476.706 97.8763 78.2853 57.4778 378.829 292.677 226.591 180.421 46.1704 20.8074 66.0861 86.1518 754.475 88.5144 33.4559 19.5282 665.961 57.0551 608.906 125.133 115.762
internal_count=11155 5471 5401 4922 479 201 4630 731 3899 1578 338 265 192 1240 949 727 579 148 73 222 291 2321 301 123 69 2020 190 1830 414 381
is_linear=0
shrinkage=0.05


Tree=4
num_leaves=31
num_cat=0
split_feature=4 2 13 0 14 12 0 1 0 0 14 13 14 0 1 2 14 14 0 0 14 4 1 4 14 10 0 0 2 1
split_gain=61.4364 33.7273 24.112 18.2185 16.3089 17.6339 16.7123 16.9281 21.1382 15.2571 17.7152 11.6688 15.2832 25.5461 11.6281 22.2906 19.6975 18.8982 13.7676 18.1567 22.1059 14.0348 13.6601 13.2623 12.4959 21.7638 17.5191 12.8442 12.3516 22.4723
threshold=251.19815557960789 2.7718741674210263 -1.6491239166738836 0.083675909787416472 -0.5956957674732315 -0.43390949454141792 -0.13090652227401731 30.081440583777134 -0.11533207446336745 0.11734285205602647 -0.90675289807725712 1.2970761429675071 1.3608954480882967 0.076346255838871016 13.359879252466898 2.3297082366728215 -0.63851128648030653 2.2237789888623096 -0.045681267976760857 0.15479654073715213 -0.87001575709129975 251.3522071657342 15.20030831350735 251.34940185545605 -0.56784116417162378 -0.3156042496363321 0.15356649458408358 0.10152885317802431 2.3756702126913072 24.884777513289901
decision_type=2 2 2 2 2 2 2 2 2 2 2 2 2 2 2 2 2 2 2 2 2 2 2 2 2 2 2 2 2 2
left_child=1 4 -2 -3 9 -6 -7 8 -8 10 -1 12 -9 -14 17 16 -16 24 21 28 -21 -17 -22 -24 -4 -26 27 -27 29 -20
right_child=2 3 14 -5 5 6 7 11 -10 -11 -12 -13 13 -15 15 18 -18 -19 19 20 22 -23 23 -25 25 26 -28 -29 -30 -31
leaf_value=0.0059399193778644048 -0.026658186465272283 -0.015350503038447594 0.026087779993854244 0.017082956349650218 -0.049155285801140501 -0.04903860674154107 0.050052316173277468 0.0042193601741679979 -0.014874719965689939 -0.029269727149925137 -0.026712578378023589 -0.025057343612551793 0.024912266202124635 -0.049757527843194309 -0.028144445043722894 0.015668848366818297 -0.00039131667461095527 -0.050203683568870616 0.061455050810060856 -0.024511582404276398 0.074389620269415618 0.063068304417497986 0.0088739582343887752 0.031530563469932334 0.068874379383935203 0.0045594633296179698 0.03198221302514781 -0.032992693240209314 -0.0041905178613829549 -0.0044494719073638906
leaf_weight=93.184636101126671 56.807564839720726 56.11123263835907 155.89421661198139 189.60550557076931 24.659027978777885 22.50224182009697 12.913034185767172 528.34743492305279 429.26673029363155 190.96805214881897 74.948525831103325 43.848094746470451 17.33807447552681 33.754594013094902 79.678507059812546 187.16752125322819 323.53377425670624 11.596397981047629 21.13924115896225 33.759815901517868 10.417777270078657 17.038754105567932 201.45378234982491 95.073275566101074 14.523297965526579 244.88690647482872 55.196509122848511 25.105205357074738 416.42842338979244 33.326829895377159
leaf_count=269 209 187 370 488 104 95 23 1538 1448 707 272 158 42 140 291 489 977 48 31 120 13 24 560 212 20 704 123 94 1295 104
internal_value=-0.00054883 -0.00747155 0.00544675 0.00967654 -0.0103346 -0.00734435 -0.0063967 -0.00549612 -0.0129786 -0.0195993 -0.00861555 -0.000187783 0.00169418 -0.0244187 0.00639358 0.00407102 -0.00587559 0.0128915 0.00801921 0.00509938 0.0138914 0.0196238 0.0181152 0.0161382 0.0143678 0.00898954 0.00631502 0.00106768 -0.00126191 0.0211292
internal_weight=3700.47 1717.45 1983.03 245.717 1471.73 1112.63 1087.97 1065.47 442.18 359.101 168.133 623.288 579.44 51.0927 1926.22 1419.02 403.212 507.203 1015.81 811.599 340.705 204.206 306.945 296.527 495.606 339.712 325.189 269.992 470.894 54.4661
internal_count=11155 5471 5684 675 4796 3548 3444 3349 1471 1248 541 1878 1720 182 5475 4116 1268 1359 2848 2335 905 513 785 772 1311 941 921 798 1430 135
is_linear=0
shrinkage=0.05


Tree=5
num_leaves=31
num_cat=0
split_feature=1 1 2 2 2 1 2 1 2 2 1 1 1 2 2 1 11 1 2 2 1 1 1 1 2 1 13 1 2 12
split_gain=14.8965 13.5158 13.2885 13.8687 30.2137 29.6518 11.0715 10.0144 24.6743 9.125 11.9501 11.5492 8.18931 19.5109 17.3519 7.20331 25.5276 20.7705 21.8812 16.1995 20.0099 7.68054 28.7635 15.6745 14.1415 30.6156 11.2214 10.8904 11.4218 10.8859
threshold=42.339351222696763 40.349925567379238 2.7263247724705946 2.6273767594511628 2.6680946523950735 14.712979822278648 2.5795940129637134 41.301378166298385 2.3736659098712649 2.8925766376287574 14.846824360680477 16.452382915753443 18.047043924446651 2.7048724077431912 2.6869956845217255 37.780240246599156 0.41922734194172878 38.499971677928123 2.2121155697086281 2.5088939827905832 37.914269417244647 30.9147736245875 28.116141730074393 33.811718005492189 2.2977254528093973 35.723111882722399 0.37089175948610348 30.795380407982517 2.4801994106321117 0.115942815294631
decision_type=2 2 2 2 2 2 2 2 2 2 2 2 2 2 2 2 2 2 2 2 2 2 2 2 2 2 2 2 2 2
left_child=1 2 3 6 -5 -6 15 -3 -9 11 -11 -4 -7 14 -14 21 17 19 -19 20 -17 22 -1 -23 25 26 -25 28 -24 -26
right_child=-2 7 9 4 5 12 -8 8 -10 10 -12 -13 13 -15 -16 16 -18 18 -20 -21 -22 23 27 24 29 -27 -28 -29 -30 -31
leaf_value=-8.1790136697772216e-05 0.025750617752257444 -0.019588484442929651 -0.021128907634946459 0.075391853300618331 0.092903618324202117 -0.018219068040689634 -0.030452418903932854 -0.0062926668899616362 0.084781942227188489 0.046343398839962885 -0.03085145141245901 -8.9955913542352241e-05 0.027035089090476069 0.085230818296648234 -0.034568268786341172 0.012923258894042383 0.083788077266025149 0.079667420857168436 -0.0026820805278620231 0.0019108359132241671 0.077186219686367213 -0.016909874348528385 0.031510138399890496 0.10012640555566583 -0.0049308013420978928 -0.0027995291738321486 0.027521919191716829 0.079089707192392222 0.0046256123981938983 0.04069854459783806
leaf_weight=1756.0420508831739 56.248222529888153 149.60822750627995 153.02166827023029 19.384932622313499 9.222076013684271 39.926709875464439 27.800742730498314 107.24980352818966 7.9909854531288138 15.196689277887346 7.4816708266735068 113.69513596594334 25.44443641602993 7.7203520089387885 20.754905447363853 23.37111721932888 10.650139898061751 8.2835785597562772 307.94605334103107 35.853600189089775 25.147220298647881 182.39587780833244 83.695262178778648 12.884505495429041 347.88718803226948 41.753822028636932 9.0667137056589109 7.8671857863664618 74.827287316322327 13.581496477127073
leaf_count=5232 188 427 422 75 38 120 71 306 33 53 21 329 81 32 75 72 44 34 876 104 99 545 283 55 1055 138 28 33 234 52
internal_value=0.000215775 -0.000178188 0.000673893 0.00163297 0.0181232 0.0073522 0.000952857 -0.0110553 2.2596e-05 -0.00957156 0.0208765 -0.0121605 -0.00105475 0.0116552 -0.000640021 0.0012497 0.00738698 0.00535583 -0.00052495 0.0273973 0.046231 0.000252084 0.00180082 -0.00464833 0.000611764 0.022333 0.0701379 0.0216695 0.0188199 -0.00321637
internal_weight=3702 3645.75 3380.9 3091.51 122.453 103.068 2969.05 264.849 115.241 289.395 22.6784 266.717 93.8464 53.9197 46.1993 2941.25 411.252 400.602 316.23 84.3719 48.5183 2530 1922.43 607.57 425.174 63.705 21.9512 166.39 158.523 361.469
internal_count=11155 10967 10201 9376 421 346 8955 766 339 825 74 751 308 188 156 8884 1229 1185 910 275 171 7655 5782 1873 1328 221 83 550 517 1107
is_linear=0
shrinkage=0.05


Tree=6
num_leaves=31
num_cat=0
split_feature=4 4 2 4 2 2 2 4 4 0 4 2 4 2 2 4 2 4 8 0 0 2 0 4 2 14 3 4 2 4
split_gain=60.6932 11.104 19.4416 17.4934 23.5052 19.0814 17.3432 14.5095 14.353 18.9905 15.643 16.5031 15.5219 15.0451 12.5595 12.3518 17.2148 11.8287 11.6492 11.5015 11.4237 9.90072 9.38538 9.04368 8.90876 8.72871 8.12301 8.08659 7.62108 7.57442
threshold=251.19815557960789 251.15807412767143 2.4034886345830611 251.01534050598482 2.4699589335590457 2.4356035099451918 2.4595313138699031 251.02672233334096 251.00490940684514 0.073661454021930708 250.71190391932669 2.330918827083162 250.68840044577462 2.366588993096904 2.4713568341179868 251.02983785469141 2.2944311295892921 250.69264139409947 0.54278007646401727 0.043383678421378143 -0.050116140395402901 2.2342696173119259 0.052715189754962928 251.19514213977826 2.3452591184601035 2.3608875001354304 1.6250000000000002 250.72269943160282 2.4633351792926441 251.20099524489873
decision_type=2 2 2 2 2 2 2 2 2 2 2 2 2 2 2 2 2 2 2 2 2 2 2 2 2 2 2 2 2 2
left_child=1 3 -3 4 5 8 -7 -5 10 19 11 17 -13 -11 -6 16 26 -1 -16 -10 -17 -22 -23 -4 -14 27 -9 -12 -8 -2
right_child=29 2 23 7 14 6 28 15 9 13 25 12 24 -15 18 20 -18 -19 -20 -21 21 22 -24 -25 -26 -27 -28 -29 -30 -31
leaf_value=0.0095445120418327922 -0.038757580350873053 0.043266807534935642 0.013693191515133188 -0.023808931273044683 -0.038343915584368865 0.056813273341312233 -0.012270117651779119 -0.034371363450652587 0.024769540833763773 0.057934111660851322 -0.042421177468640443 0.037902234946903673 0.026697941410367909 -0.0032759601084482344 0.0028275426764830577 0.04783594997702021 0.088633929907581233 0.089799479322663078 0.040413400390724427 -0.036669040487158869 0.042926235889123851 -0.024865726542952375 -0.00094514860071033156 -0.030975690235770098 -0.032408671900511762 0.057074241214926581 0.035033283931938976 0.0019105470713619973 0.02862302269576146 -0.0054017119045772733
leaf_weight=6.7070993483066568 17.169205844402313 55.9647186845541 43.860050156712532 72.158375024795532 17.993905782699585 50.791759461164474 16.480874553322792 7.6086088269948986 17.162949413061146 49.421819567680359 10.732033774256704 30.80023580789566 9.4723118245601672 12.597966924309729 686.224952891469 10.969474151730536 9.3026025295257551 14.554240167140961 21.25376096367836 13.696483254432676 10.58884187042713 53.483881205320358 175.76570138335228 15.278304457664488 19.496921539306641 6.8947245031595221 9.4542182832956332 247.89947788417339 36.909525543451309 1951.0518112927675
leaf_count=17 53 196 124 212 53 175 48 33 65 189 36 109 33 37 2096 45 37 56 82 27 32 129 565 54 68 28 33 767 125 5631
internal_value=0.0003158 0.00713775 0.0221431 0.00607056 0.00879786 0.0166587 0.0358976 -0.0038375 0.0120975 0.0295526 0.00741947 0.0266491 0.013191 0.0455006 0.0029075 0.0013618 0.0339164 0.0644823 0.00395668 -0.00249903 -0.00206041 -0.00434251 -0.00652581 0.00215305 -0.0130821 0.00155114 0.00408455 7.09817e-05 0.0159999 -0.00569268
internal_weight=3701.75 1733.53 115.103 1618.42 1269.09 543.618 104.182 349.332 439.436 92.8792 346.557 81.0308 59.7695 62.0198 725.473 277.173 26.3654 21.2613 707.479 30.8594 250.808 239.838 229.25 59.1384 28.9692 265.526 17.0628 258.632 53.3904 1968.22
internal_count=11155 5471 374 5097 4011 1780 348 1086 1432 318 1114 283 210 226 2231 874 103 73 2178 92 771 726 694 178 101 831 66 803 173 5684
is_linear=0
shrinkage=0.05


Tree=7
num_leaves=31
num_cat=0
split_feature=4 13 1 1 14 14 1 7 1 14 14 1 14 14 4 1 13 14 10 14 9 14 14 4 14 14 14 14 1 13
split_gain=55.1639 22.0031 15.1172 26.736 13.0824 14.118 14.1091 12.3433 10.808 17.6862 17.5013 13.8248 15.078 15.7634 16.9778 18.3372 15.2906 11.256 17.5898 10.5784 9.92789 9.78123 9.68774 9.40872 9.79816 9.76818 13.5437 9.21068 9.01968 8.58342
threshold=251.20099524489873 -1.6491239166738836 15.888118936704071 13.868153607721439 -0.5956957674732315 1.5372892986151376 41.940315953352425 0.50225485861301433 13.359879252466898 -0.63851128648030653 2.2237789888623096 39.278929817525402 -0.47401140412369763 2.2237789888623096 251.36527654943521 40.127360594482987 0.28130365402265128 -0.56784116417162378 -0.3156042496363321 1.0793191363155759 0.49967813491821295 -0.78884133438530257 -1.1734889684071452 250.62045948331158 0.16341300060350974 0.076132329688460107 -0.094908165032958527 -0.69305347374823534 37.594888289763844 1.8059121755387573
decision_type=2 2 2 2 2 2 2 2 2 2 2 2 2 2 2 2 2 2 2 2 2 2 2 2 2 2 2 2 2 2
left_child=2 28 3 19 27 7 -7 -6 10 20 17 -11 -13 14 15 16 -14 -3 -19 -1 -10 22 -22 24 -5 26 -25 -4 -2 -20
right_child=1 8 4 23 5 6 -8 -9 9 11 -12 12 13 -15 -16 -17 -18 18 29 -21 21 -23 -24 25 -26 -27 -28 -29 -30 -31
leaf_value=-0.029770837543368973 -0.035017490931490459 0.02501477388011851 -0.013163420581407652 -0.048719561946168444 -0.0036201348193666974 -0.031397657860129623 0.028751120269556382 -0.039760444684124763 -0.049777028596375054 0.0043809431849247465 -0.04942360298664164 0.047891470568161981 0.029924091423235044 0.059076281967078773 0.06456049967722377 -0.025432725364350869 -0.024759620110540715 0.065959405646813601 0.0041237987781227352 0.022152158451714105 -0.015985075788949393 -0.020658642485013722 0.007150228001320748 0.022266167006666407 0.017702845778218641 0.0031570235887778369 0.070495651816162713 -0.033485672454549816 0.018165251606842178 0.036207818788818659
leaf_weight=53.728893890976906 45.999598771333694 154.21488045156002 304.5098075568676 9.7216754108667391 1033.9999979287386 84.837075442075729 11.015526860952376 24.178351357579231 12.863653674721716 935.66273267567158 11.180408999323843 37.282344967126846 51.064694732427597 15.793354183435438 11.24118736386299 43.119492322206497 17.05233433842659 12.882508903741835 297.71847425401211 12.000274002552031 63.877039819955826 73.658154606819153 155.16642853617668 56.415642365813255 12.945007681846617 36.208834886550903 19.618281647562981 68.252573400735855 9.6438344120979291 22.41552896797657
leaf_count=198 180 362 1025 42 3222 322 26 98 54 2696 47 68 115 25 16 152 61 17 854 30 216 256 439 136 35 103 25 262 26 47
internal_value=-0.000522579 0.00519449 -0.00704522 0.0058577 -0.00874081 -0.00611035 -0.0244853 -0.00444591 0.006095 0.00386718 0.0124278 0.00679665 0.0196719 0.012063 0.00600065 8.27882e-05 0.0162346 0.0138471 0.00867546 -0.0202912 -0.0067861 -0.00489673 0.000403555 0.0185977 -0.0107855 0.0245314 0.0347103 -0.0168844 -0.0258001 0.0063703
internal_weight=3698.27 1970.84 1727.43 200.639 1526.79 1154.03 95.8526 1058.18 1915.19 1416.78 498.412 1111.22 175.553 138.271 122.478 111.237 68.117 487.231 333.017 65.7292 305.565 292.702 219.043 134.909 22.6667 112.243 76.0339 372.762 55.6434 320.134
internal_count=11155 5631 5524 569 4955 3668 348 3320 5425 4098 1327 3133 437 369 344 328 176 1280 918 228 965 911 655 341 77 264 161 1287 206 901
is_linear=0
shrinkage=0.05


Tree=8
num_leaves=31
num_cat=0
split_feature=1 1 2 2 2 1 4 1 1 2 1 2 2 1 1 2 2 6 10 0 7 2 2 4 4 4 4 4 4 4
split_gain=13.507 12.471 11.9946 12.5551 27.4116 26.9198 12.1266 15.5713 13.4002 10.491 10.1806 22.4396 8.58469 11.0698 10.922 8.08358 10.8641 7.81855 7.95551 7.61395 6.96008 6.84032 6.66714 11.0546 10.4813 23.8492 13.0523 16.8091 17.5917 11.8318
threshold=42.339351222696763 40.409352260348697 2.7263247724705946 2.6273767594511628 2.6680946523950735 14.712979822278648 250.62240974048427 19.14714964507727 18.618498409107676 2.5795940129637134 41.301378166298385 2.3736659098712649 2.8925766376287574 14.846824360680477 17.340199887349918 2.7906780512211471 2.778546215950894 0.053440958261489875 -0.94228333234786976 0.23977085202932361 0.045544356107711799 2.5270367053052643 1.9128265078228397 251.43632159658378 251.27592593407113 251.27508636700654 251.27825112677647 251.28560149820376 251.30280906499721 251.24647025790932
decision_type=2 2 2 2 2 2 2 2 2 2 2 2 2 2 2 2 2 2 2 2 2 2 2 2 2 2 2 2 2 2
left_child=1 2 3 9 -5 -6 -7 8 -8 17 21 -12 14 -14 15 16 -4 18 -1 -18 -19 -3 23 -22 25 29 -26 -28 -29 -24
right_child=-2 10 12 4 5 6 7 -9 -10 -11 11 -13 13 -15 -16 -17 19 20 -20 -21 22 -23 24 -25 26 -27 27 28 -30 -31
leaf_value=-0.0045175939058344642 0.024394858046567703 -0.024057541647541425 -0.01902234725765312 0.071023083598711942 0.087212195610456067 -0.013716283971980398 0.044785560977758258 0.085119139072397099 -0.03232949163010345 -0.029841540058877538 -0.0062136160432742322 0.079638538273624715 0.044483548883325431 -0.029999033989843844 0.0058216081335004163 -0.025503289608372243 0.043663104454914239 0.096464396075668091 0.066162773532179683 -0.0092588905164679991 0.035025407308163156 0.014860271881595073 0.00052051074317985041 0.00062786912561370453 -0.024685615659542956 0.090029672413877937 0.022454222558136675 -0.017218799700667677 -5.8370997212622304e-05 0.011265322041650209
leaf_weight=6.9862042516469982 56.827525019645691 120.5628899037838 48.33890026807785 19.823656156659126 9.465046823024748 63.437778875231743 10.536584839224821 7.8909173160791388 12.105832502245901 27.534680753946304 107.15127256512642 8.1931722015142423 15.379318162798883 7.3834014683961859 66.757370218634605 122.49910806119442 15.402676552534105 1.907000496983527 9.255534812808035 12.163476645946501 37.582452118396759 12.457291096448897 1551.839139059186 61.71076363325119 69.096147119998932 7.7782152891159049 64.520203217864037 194.30206677317619 645.46736125648022 306.87444725632668
leaf_count=24 188 351 151 75 38 208 33 32 35 71 306 33 53 21 198 326 50 8 38 26 137 37 4818 186 170 33 229 515 1821 944
internal_value=0.000206317 -0.000170857 0.000620123 0.00152454 0.0171626 0.00684013 -0.00125518 0.0246347 0.00355578 0.000878764 -0.0109864 -0.000115347 -0.00914294 0.0203241 -0.0116725 -0.0175588 -0.00473764 0.00116479 0.0357604 0.0203114 0.000973741 -0.0204129 0.000911785 0.0136473 0.0004665 0.0026601 -0.00373979 -0.00213933 -0.00402887 0.00229448
internal_weight=3701.23 3644.4 3396.04 3108.11 123.26 103.436 93.9711 30.5333 22.6424 2984.85 248.365 115.344 287.924 22.7627 265.162 198.404 75.9051 2957.32 16.2417 27.5662 2941.08 133.02 2939.17 99.2932 2839.88 1866.49 973.386 904.29 839.769 1858.71
internal_count=11155 10967 10240 9415 421 346 308 100 68 8994 727 339 825 74 751 553 227 8923 62 76 8861 388 8853 323 8530 5795 2735 2565 2336 5762
is_linear=0
shrinkage=0.05


Tree=9
num_leaves=31
num_cat=0
split_feature=4 1 1 2 2 1 1 3 4 2 4 2 1 4 2 2 2 4 4 1 13 0 4 4 2 1 4 4 4 1
split_gain=54.717 14.3339 16.7264 13.6278 13.5043 13.2456 12.3391 13.8613 27.2667 16.2723 18.1715 24.1214 13.7524 17.2499 17.5156 21.7552 15.0535 23.4134 15.3489 21.4255 14.8702 13.6694 12.5481 24.1971 19.1006 12.7033 11.6208 16.0157 11.5911 10.8209
threshold=251.19815557960789 13.802666792137581 14.846824360680477 2.8430545238559457 2.8304521391687731 41.393200168613667 40.21579082811288 1.6250000000000002 251.15807412767143 2.4676674919042059 250.63071007546367 2.6869956845217255 22.876096374657667 250.7077850158401 2.330918827083162 2.3993702913259569 2.4356035099451918 250.9818945007855 251.011431713897 34.378477400822796 -0.0081583154464527612 0.30630286037921911 250.75939336404687 250.7818935365386 2.4801994106321117 28.415904018951704 251.01534050598482 251.00490940684514 250.62125109812902 27.141622058233146
decision_type=2 2 2 2 2 2 2 2 2 2 2 2 2 2 2 2 2 2 2 2 2 2 2 2 2 2 2 2 2 2
left_child=1 -1 -3 4 5 6 7 8 -4 12 11 -11 13 14 -9 -16 17 29 20 -20 -19 28 -12 -24 25 -25 27 -7 -13 -14
right_child=-2 2 3 -5 -6 26 -8 9 -10 10 22 21 16 -15 15 -17 -18 18 19 -21 -22 -23 23 24 -26 -27 -28 -29 -30 -31
leaf_value=0.036014624957527074 -0.0054225388651135452 -0.013331826011913718 -0.008113732850091605 0.039440512131084356 -0.028223757628140812 -0.0062509469312640913 0.026219490493879602 0.06118033569386605 0.062657780570134491 -0.0066869202894093809 -0.012062698627566757 0.037899360188605652 -0.030046622284965369 0.07436988364532543 -0.024680789274045514 0.036740977395366907 0.030550323843795371 0.074626190821978855 0.019249232927404318 -0.018138761275741485 0.017185757869146383 -0.0078765393842378517 0.067633743160864165 0.013666554475640842 0.0091805222895629413 -0.036997676091198271 -0.017796875911546894 0.048776639780322047 0.092582746544843234 0.019015380648923684
leaf_weight=40.883708745241165 1962.3202471286058 104.42039933800697 213.87636643648148 32.361150994896889 27.260507479310036 44.935396119952202 95.132027983665466 21.611352324485779 14.53481639921665 47.810281097888947 152.82113187015057 51.432034954428673 51.336800992488861 20.319303542375565 26.729855820536613 31.295289918780327 88.141199022531509 18.692641139030457 126.95393016934395 54.883977010846138 28.364661157131195 13.115256667137144 14.922323778271673 17.31462174654007 218.27670904994011 43.34594090282917 92.773449033498764 18.736219584941864 11.940509110689161 14.388621702790259
leaf_count=140 5684 286 679 105 69 132 292 73 52 149 464 173 168 73 83 109 291 73 414 165 75 29 54 56 676 142 278 69 48 54
internal_value=0.00030004 0.00675895 0.00605443 0.00732495 0.00665914 0.00727916 0.00884524 0.00755608 -0.00361023 0.00997661 0.00426349 0.0211727 0.0167343 0.0332491 0.0227571 0.00844643 0.0124216 0.00699807 0.0145511 0.00796445 0.0400029 0.0385869 -0.000441829 0.00560158 0.00228304 -0.0225364 -0.00650757 0.00994165 0.0482027 -0.019306
internal_weight=3700.93 1738.61 1697.73 1593.31 1560.95 1533.68 1377.24 1282.11 228.411 1053.7 570.979 124.298 482.718 99.9558 79.6365 58.0251 382.762 294.621 228.895 181.838 47.0573 76.4878 446.681 293.86 278.937 60.6606 156.445 63.6716 63.3725 65.7254
internal_count=11155 5471 5331 5045 4940 4871 4392 4100 731 3369 1791 399 1578 338 265 192 1240 949 727 579 148 250 1392 928 874 198 479 201 221 222
is_linear=0
shrinkage=0.05


Tree=10
num_leaves=31
num_cat=0
split_feature=4 2 0 4 0 12 8 12 2 1 2 0 0 4 4 0 1 0 12 4 0 0 0 1 0 2 4 4 4 1
split_gain=50.0489 28.1694 17.093 19.1404 14.8345 16.4296 14.5771 15.583 11.0201 11.5802 19.3023 16.9849 16.6956 14.1422 20.7662 13.9532 13.8644 16.6288 11.3371 11.1937 11.7199 10.9164 10.5744 10.5064 10.1768 10.0525 14.4179 14.9321 9.97888 9.77784
threshold=251.20349336086215 2.7718741674210263 0.26495337486267095 250.65305027304282 0.14677539467811587 -0.14280664056562642 0.94669595360755932 0.022910676257642256 1.9223679505723825 14.970053913827931 2.3297082366728215 -0.021553472615778443 0.15356649458408358 251.28916803198945 251.26880893426105 -0.1956534460186958 15.700720016304212 -0.045681267976760857 0.75723959176064337 251.21045199708419 -0.074312515556812272 0.15853069722652438 0.20470493286848071 15.743718643456466 -0.18625096976757047 2.5450688297258983 251.34940185545605 251.36291416233161 251.32282940586859 15.888118936704071
decision_type=2 2 2 2 2 2 2 2 2 2 2 2 2 2 2 2 2 2 2 2 2 2 2 2 2 2 2 2 2 2
left_child=1 4 3 29 5 -1 7 24 -2 12 11 -11 13 14 -10 -15 -12 19 22 -18 -21 -14 23 -19 -7 26 -24 -28 -17 -3
right_child=8 2 -4 -5 -6 6 -8 -9 9 10 16 -13 21 15 -16 28 17 18 -20 20 -22 -23 25 -25 -26 -27 27 -29 -30 -31
leaf_value=-0.048145788360920469 -0.0080697936737326639 0.019709553061747733 0.031493495141487589 -0.031505252261951784 -0.014524218416918033 -0.048251662321150308 0.048997099649591078 -0.048880147132544099 0.0081981392547267069 -0.030616860087400194 -0.027570691323539499 -0.0011692567148384315 0.072204067274452013 0.074171614727696025 -0.02377637444665244 0.02325974229530639 -0.011782022469060056 0.050238810022227048 -0.049916437506220546 0.016338632950073453 0.045541662629410576 0.024141250294587566 0.00028285039288237465 6.7337570366750753e-06 -0.0023162506937107609 0.043877995402951599 0.046117946968138639 -0.0015040289555349219 0.00095186484089733762 -0.0064641738510963975
leaf_weight=21.019080221652985 149.33939261734486 88.890888541936874 62.787008613348007 35.845130160450935 705.90555463731289 12.262884244322775 13.078314766287802 19.060144439339638 224.61939391493797 67.618464514613152 29.075571417808533 177.52460573613644 14.029780700802801 10.422939568758009 65.612702712416649 134.25578197836876 22.37038654088974 10.626733943819998 9.5377335697412473 103.23589864373207 51.492850631475449 74.805936679244041 128.21874283254147 509.2958749383688 719.83107629418373 25.054808586835861 44.321147173643112 26.185888007283211 80.00439815223217 59.611009284853935
leaf_count=91 476 218 135 135 2417 53 24 81 621 252 106 537 17 13 232 318 72 18 40 263 95 175 380 1525 2236 47 79 77 235 187
internal_value=-0.000498501 -0.00667313 0.00896168 0.00128754 -0.00926434 -0.00453594 -0.00333652 -0.0042477 0.00498425 0.00606232 0.00322958 -0.00929187 0.011714 0.00826043 0.000969668 0.0176782 0.00642897 0.00749155 0.00425024 0.0212775 0.0260572 0.0317318 0.0049449 0.00103343 -0.00308569 0.0140327 0.0102698 0.0284314 0.01493 0.00920301
internal_weight=3695.94 1738.29 247.134 184.347 1491.16 785.251 764.232 751.154 1957.65 1808.31 1204.56 245.143 603.751 514.915 290.232 224.683 959.416 930.34 753.241 177.099 154.729 88.8357 743.703 519.923 732.094 223.781 198.726 70.507 214.26 148.502
internal_count=11155 5577 675 540 4902 2485 2394 2370 5578 5102 3491 789 1611 1419 853 566 2702 2596 2166 430 358 192 2126 1543 2289 583 536 156 553 405
is_linear=0
shrinkage=0.05


Tree=11
num_leaves=31
num_cat=0
split_feature=1 1 2 2 2 1 2 2 1 1 1 2 1 2 2 1 11 1 2 2 1 2 2 1 1 2 2 2 1 2
split_gain=12.4745 11.764 11.1207 11.473 25.0102 24.5005 9.98637 7.96633 10.1298 9.99761 7.92233 20.5359 7.27868 16.3707 15.7589 7.20954 22.489 18.6299 19.4849 14.5575 18.0533 7.1199 8.98604 13.477 19.537 12.5968 10.8978 9.81687 12.0222 12.3704
threshold=42.339351222696763 40.21579082811288 2.7263247724705946 2.6273767594511628 2.6680946523950735 14.712979822278648 2.5795940129637134 2.8925766376287574 16.452382915753443 14.846824360680477 41.301378166298385 2.3736659098712649 18.047043924446651 2.7048724077431912 2.6869956845217255 37.780240246599156 0.41922734194172878 38.499971677928123 2.2121155697086281 2.5088939827905832 37.914269417244647 1.9223679505723825 2.330918827083162 30.9147736245875 28.116141730074393 2.31964318830298 2.4478694931806353 2.4762327799345596 14.846824360680477 2.4783956479334424
decision_type=2 2 2 2 2 2 2 2 2 2 2 2 2 2 2 2 2 2 2 2 2 2 2 2 2 2 2 2 2 2
left_child=1 2 3 6 -5 -6 15 8 -4 -9 -3 -12 -7 14 -14 21 17 19 -19 20 -17 -1 25 24 26 -23 -24 -28 -29 -30
right_child=-2 10 7 4 5 12 -8 9 -10 -11 11 -13 13 -15 -16 16 -18 18 -20 -21 -22 22 23 -25 -26 -27 27 28 29 -31
leaf_value=0.010758387687408499 0.023353723786646102 -0.017458155794558807 -0.019757400894586215 0.067368777371858798 0.082347437567418191 -0.017584754403289656 -0.029229141121741131 0.042071579582801832 3.4970376587966349e-05 -0.028956584221822474 -0.0060998661853269107 0.075297533090242424 0.025140717684211833 0.076402876832078595 -0.033639933438161622 0.012097003626927845 0.078068468942509961 0.074281697926604814 -0.0024771850397172783 0.0018696812710221633 0.072690161776032824 -0.0022583726372664382 0.006867320285885394 -0.0059085284157559944 0.020458578412109761 -0.020538390749373692 -0.015876459561256773 0.044832588284798823 0.055236429839630875 -0.0033525692544732915
leaf_weight=149.81891423463821 57.262111112475395 157.23398740589619 150.14315266907215 20.171927690505981 9.6572811603546125 39.609619274735451 27.260420471429825 15.609961643815042 113.52708983421326 7.2576054930686942 107.00925099849701 8.3536585569381696 25.782932907342911 8.0510623157024366 20.443577766418457 23.537084475159645 10.949557155370711 8.5040751993656141 297.34756417572498 35.866742968559265 25.731569841504097 777.1168714761734 504.8267879486084 404.96843633055687 167.9421834051609 107.24853347241879 123.54193116724491 14.797475844621657 9.3186305314302427 271.42991602420807
leaf_count=476 188 464 422 75 38 120 71 53 329 21 306 33 81 32 75 72 44 34 839 104 99 2299 1556 1237 550 262 375 52 34 814
internal_value=0.000197822 -0.000166146 0.000641891 0.00151734 0.0164351 0.00651249 0.000893879 -0.0087803 -0.0112355 0.019529 -0.0101569 -0.000205718 -0.00128793 0.0106048 -0.000854902 0.00117386 0.00739457 0.00541535 -0.000342937 0.0261022 0.043743 0.00018598 -0.000479211 0.00188174 0.00477114 -0.00447522 0.0019196 -0.00404034 0.000907302 -0.00140788
internal_weight=3700.32 3643.06 3370.46 3083.92 123.716 103.544 2960.21 286.538 263.67 22.8676 272.597 115.363 93.8872 54.2776 46.2265 2932.95 401.937 390.987 305.852 85.1354 49.2687 2531.01 2381.19 1496.83 1091.86 884.365 923.915 419.088 295.546 280.749
internal_count=11155 10967 10164 9339 421 346 8918 825 751 74 803 339 308 188 156 8847 1192 1148 873 275 171 7655 7179 4618 3381 2561 2831 1275 900 848
is_linear=0
shrinkage=0.05


Tree=12
num_leaves=31
num_cat=0
split_feature=13 9 14 14 0 2 14 13 2 0 2 0 13 13 2 0 14 8 2 13 0 11 2 14 14 13 2 13 2 0
split_gain=11.0279 6.74822 6.20042 6.16472 9.53798 7.33319 6.8102 5.40131 5.46984 7.70254 9.48519 8.46512 8.06324 6.70479 6.69778 6.15998 6.03421 6.23769 5.45703 6.18666 5.36695 5.34592 5.31819 5.61855 6.05008 5.27743 5.25584 5.7168 6.10219 5.56846
threshold=-1.4270327689708173 0.39470352232456213 1.3608954480882967 -0.63851128648030653 0.097652133554220213 2.4595313138699031 0.12277468768605836 0.9957625429825695 2.4258931404465494 0.13510213792324069 2.7718741674210263 0.12164726108312608 0.13528607825608358 -0.095148156623685143 2.6869956845217255 0.069124005734920516 0.076132329688460107 0.33404584974050527 2.3181979794791587 0.29916310574779942 0.19820022583007815 0.018351793289184574 2.4356035099451918 -1.6180302646898121 -1.3513897307212641 -1.5140246504631234 2.5795940129637134 0.45550958926118718 2.778546215950894 -0.088104054331779466
decision_type=2 2 2 2 2 2 2 2 2 2 2 2 2 2 2 2 2 2 2 2 2 2 2 2 2 2 2 2 2 2
left_child=1 -1 25 4 26 22 7 8 15 11 12 -10 14 -13 -11 18 17 -17 19 -5 -4 -20 23 -6 -25 -3 29 28 -28 -2
right_child=3 2 20 6 5 -7 -8 -9 9 10 -12 13 -14 -15 -16 16 -18 -19 21 -21 -22 -23 -24 24 -26 -27 27 -29 -30 -31
leaf_value=0.056903595938425824 0.0094410297737283367 0.00085009924699350279 0.016261151470800855 -0.011365374561232475 -0.019741911780135176 0.0029270273421545408 0.0014581319689294749 0.0054757181839581717 0.0030456110838027028 -0.011927172906089798 -0.023995388404199163 0.0082538647980634518 0.010759533438063117 0.072224938822232285 0.017839337608136212 0.036734029622226418 -0.026507777164671561 -0.0023735892076393273 -0.019804886111535008 0.0067877792708413154 0.05591860251974036 0.021078432332346728 0.053454209438533962 0.050811654819078914 0.014314401713015372 0.02868204970655952 0.038976873004302304 0.057629700734345493 -0.014883180872711661 -0.005844016519429519
leaf_weight=7.9129939526319495 72.655133485794067 125.65328013896942 37.731349900364876 173.48673363029957 10.973572775721548 206.73062381148338 1117.6576002985239 146.98029561340809 254.89330680668354 150.11762318015099 60.542287841439247 8.2220286428928393 83.530698031187057 8.1621056199073774 21.619622468948364 10.478948473930357 25.325749009847641 377.96576488018036 174.85956437885761 64.341123476624489 11.023955225944517 8.3791035264730436 9.4163917005062086 12.373163059353827 137.96650667488575 19.70316581428051 8.6546787619590813 7.1748248338699332 13.402943313121794 331.24548318982124
leaf_count=32 223 388 130 504 36 647 3397 471 784 410 139 29 277 33 63 37 56 1097 414 209 44 30 37 50 494 71 30 29 35 959
internal_value=0.000284801 0.0116432 0.00979819 -0.000371357 0.00345043 0.00926037 -0.00152447 -0.00364922 -0.00459244 -0.000894426 -0.00620241 0.00528491 -0.00198242 0.0401224 -0.00817993 -0.00719301 -0.00286036 -0.0013186 -0.0114506 -0.00645428 0.025228 -0.0179354 0.0169292 0.0147971 0.0173182 0.00462274 -0.00161273 0.0188604 0.00624972 -0.00309449
internal_weight=3699.18 202.025 194.112 3497.16 810.593 377.46 2686.56 1568.9 1421.92 587.088 315.81 271.277 255.268 16.3841 171.737 834.837 413.77 388.445 421.067 237.828 48.7553 183.239 170.73 161.313 150.34 145.356 433.133 29.2324 22.0576 403.901
internal_count=11155 665 633 10490 2540 1264 7950 4553 4082 1735 889 846 750 62 473 2347 1190 1134 1157 713 174 444 617 580 544 459 1276 94 65 1182
is_linear=0
shrinkage=0.05


Tree=13
num_leaves=31
num_cat=0
split_feature=4 2 13 14 12 5 14 13 14 12 12 2 2 14 14 4 4 13 13 14 13 2 14 13 4 4 14 16 13 14
split_gain=45.0517 26.1619 20.8822 14.6677 16.0488 13.92 12.1393 11.8658 14.5666 9.18384 8.84594 10.2615 8.82249 12.4215 14.0106 9.02382 17.474 13.5275 15.5915 10.9598 9.99546 17.9885 15.3392 10.5389 9.70709 13.3039 12.1684 9.3027 18.519 14.8135
threshold=251.19815557960789 2.7718741674210263 -1.6491239166738836 -0.5956957674732315 -0.43390949454141792 1.0000000180025095e-35 -0.69305347374823534 1.2970761429675071 1.3608954480882967 -0.11606392682636697 -0.28791728808980283 2.825111135246607 1.9063515921314218 0.22640080585891534 0.11241600309281169 251.28560149820376 251.2800531206299 1.1625940639498156 1.3992744043269767 0.90549595771802494 0.7089543174192251 2.5170775616816639 0.42895284157206831 -1.2614907862203499 251.28703875740402 251.28916803198945 -1.3932690104732475 1.0000000180025095e-35 0.015899352945548145 -0.63132256360939965
decision_type=2 2 2 2 2 2 2 2 2 2 2 2 2 2 2 2 2 2 2 2 2 2 2 2 2 2 2 2 2 2
left_child=1 3 -2 6 -5 -6 -1 8 9 -7 -3 -12 13 14 -4 16 20 24 -19 -18 21 22 27 -24 -17 -26 -27 -14 29 -29
right_child=2 10 12 4 5 7 -8 -9 -10 -11 11 -13 15 -15 -16 17 19 18 -20 -21 -22 -23 23 -25 25 26 -28 28 -30 -31
leaf_value=-0.013614776190049672 -0.02552962060161313 0.048671213096238682 -0.009749531708844501 -0.047171618836689008 -0.01217890039543329 0.048963896118615048 -0.037954701293645914 -0.025175512555267905 -0.023963251355270193 0.0027989169999085785 0.018125772766537429 -0.0029326352392079029 0.0099790168192914475 -0.049809358592038819 0.062322885410986066 0.038831549534679079 -0.038793404053195667 -0.050320587879947448 0.0021255698747030594 0.023225969785156227 0.013561555209923738 -0.027957048186757861 0.026566357363535287 -0.019875756825809859 -0.050370562330222871 -0.034770814341468718 0.012005848484778188 -0.036231824785115822 -0.049918167245348415 0.01948386176233902
leaf_weight=288.64917622506618 55.846394225955009 13.012492686510084 53.890169933438301 23.3810725659132 436.37204413115978 10.997076168656347 62.279231756925583 45.562984257936478 52.025215044617653 528.86568877100945 103.18351224064827 131.67024722695351 439.07918320596218 16.305321231484413 7.7075060606002799 31.414153352379799 37.831457182765007 18.420685917139053 61.425318241119385 8.775879964232443 219.35279858112335 48.815624639391899 14.075492113828657 92.441929548978806 8.8770729005336744 14.153618112206457 785.94798454642296 16.060414880514145 20.202220678329468 46.388829231262207
leaf_count=995 209 23 175 104 1488 21 253 169 191 1575 256 396 1193 68 12 64 147 76 177 21 578 177 33 318 36 54 2084 62 84 116
internal_value=-0.000474844 -0.00646741 0.00461445 -0.0090366 -0.00619074 -0.00529844 -0.0179344 -0.000588365 0.00130433 0.0037393 0.00854281 0.00631942 0.00548168 -0.0110035 -0.000731357 0.00617093 0.00273363 0.00969333 -0.0099739 -0.0271155 0.00428558 0.00128038 0.00355216 -0.0137388 0.0115619 0.010503 0.0111784 0.00708231 -0.00830623 0.00515515
internal_weight=3693.01 1696 1997.01 1448.13 1097.2 1073.82 350.928 637.451 591.888 539.863 247.866 234.854 1941.17 77.903 61.5977 1863.26 943.024 920.239 79.846 46.6073 896.416 677.064 628.248 106.517 840.393 808.979 800.102 521.731 82.6515 62.4492
internal_count=11155 5471 5684 4796 3548 3444 1248 1956 1787 1596 675 652 5475 255 187 5220 2729 2491 253 168 2561 1983 1806 351 2238 2174 2138 1455 262 178
is_linear=0
shrinkage=0.05


Tree=14
num_leaves=31
num_cat=0
split_feature=14 4 4 4 4 4 4 4 4 4 14 14 3 4 4 4 0 4 0 4 14 14 11 0 4 15 4 6 15 4
split_gain=7.25895 4.78542 22.3487 14.5324 20.1944 11.4893 9.51675 13.3806 9.21991 8.49147 7.52113 6.34885 6.26397 5.91199 5.81044 6.72466 8.51058 7.37555 6.9757 6.70385 5.19328 5.17136 5.40772 5.44846 5.13379 8.85776 7.32553 4.92896 4.8766 14.3827
threshold=-1.544363953601662 251.27592593407113 251.27508636700654 251.227454312015 251.21715946549384 251.30280906499721 251.29023261813268 251.27825112677647 251.28560149820376 251.23543837273243 -1.281913300172637 -1.119246613682972 1.6250000000000002 251.21516313290746 251.23952253539366 251.24159287465559 0.19993156194686892 251.24647025790932 0.15356649458408358 251.2531044839034 0.3899216714043362 -1.1030443154866163 0.96659054666613275 -0.20952473580837247 251.28351342347221 1.0000000180025095e-35 251.28283234038236 0.90856155753135692 1.0000000180025095e-35 250.73148625249891
decision_type=2 2 2 2 2 2 2 2 2 2 2 2 2 2 2 2 2 2 2 2 2 2 2 2 2 2 2 2 2 2
left_child=-1 2 3 4 13 6 7 -3 24 -5 -11 -12 -8 21 -13 16 20 -17 -19 -20 -16 -2 23 -23 26 -26 -9 -7 29 -25
right_child=1 5 -4 9 -6 27 12 8 -10 10 11 14 -14 -15 15 17 -18 18 19 -21 -22 22 -24 28 25 -27 -28 -29 -30 -31
leaf_value=0.01640055448234452 0.011483336131172859 -0.0221306586578475 0.084553618031762576 0.024621302279642175 -0.023808506040756169 0.00011253914416115018 0.0058414106110332223 0.019712986783697997 -0.0079725303968245492 -0.028893769775128086 0.051274016666881597 -0.01009762057784897 -0.025533133124312258 0.030626286170992546 0.033026275612409721 -0.0096690775910852483 -0.015041182591121013 0.013809273692199123 0.034137468967161369 -0.011054125079714219 0.091111122694793475 0.036425725538938393 0.048104417279898226 0.020325959290975373 0.08488011338490091 0.0074580545156867108 -0.026068036918177204 0.044601264920954398 -0.0051956466289506962 -0.00095744542622386265
leaf_weight=67.786989733576775 89.347029879689217 67.533401280641556 7.9994902759790412 68.824311494827271 93.471893474459648 796.4427879601717 18.534870475530624 44.625021994113922 69.22301909327507 15.123893052339552 7.9394991546869269 48.779688194394112 112.27949237823486 15.632444843649862 20.730499431490902 60.698104500770569 8.097698047757147 220.3898766040802 9.5722620040178281 57.508900687098503 4.7253481596708289 9.6690684258937818 5.6238458752632132 85.390898644924164 6.9737153649330121 7.8560638278722763 10.865467086434363 6.2748576104640952 533.34046585857868 1127.2178556025028
leaf_count=221 311 171 33 233 248 2256 54 145 180 28 33 119 297 55 67 159 14 694 30 153 20 35 23 308 29 32 36 26 1635 3510
internal_value=0.000189287 -0.000113386 0.00111518 0.000846262 -0.00112904 -0.00279548 -0.0105302 -0.00386074 0.00498117 0.00825641 0.00577319 0.00696901 -0.0210877 6.88778e-06 0.00615192 0.00822842 0.0296059 0.00616824 0.00951222 -0.00460543 0.0438085 -0.000251763 -0.000847079 -0.00100389 0.0177328 0.0438658 0.0107487 0.000460308 -0.00121117 0.000541314
internal_weight=3698.48 3630.69 2490.08 2482.08 1959.69 1140.61 337.891 207.077 139.543 522.39 453.566 438.442 130.814 1866.22 430.502 381.723 33.5535 348.169 287.471 67.0812 25.4558 1850.59 1761.24 1755.62 70.3203 14.8298 55.4905 802.718 1745.95 1212.61
internal_count=11155 10934 7708 7675 6125 3226 944 593 422 1550 1317 1289 351 5877 1256 1137 101 1036 877 183 87 5822 5511 5488 242 61 181 2282 5453 3818
is_linear=0
shrinkage=0.05


Tree=15
num_leaves=31
num_cat=0
split_feature=4 2 2 4 1 4 4 0 2 2 4 4 1 1 1 4 1 2 4 2 4 2 4 4 1 4 2 0 2 2
split_gain=39.3348 15.0055 24.069 16.0114 15.3632 13.7186 12.7521 16.0022 13.4358 11.945 11.1814 10.8256 25.4482 24.6386 13.6865 10.6416 16.8141 27.9981 23.467 10.4796 15.3662 9.77777 15.4631 19.0129 14.0668 20.3571 13.0281 11.8798 9.7017 9.69036
threshold=251.01534050598482 2.4595313138699031 2.4356035099451918 250.63071007546367 19.904005816123238 251.02672233334096 251.00490940684514 0.077817127108573927 2.366588993096904 2.6763299643683625 250.62437934659175 250.62240974048427 18.98621732368294 16.383314657346371 16.583233162643261 251.19815557960789 33.416772859932856 2.4034886345830611 251.15807412767143 2.2030497990646718 251.30291716900726 2.4381870967937433 251.29457084257055 251.29060919423773 26.463472614541413 251.23386439441649 2.4992153825370012 0.086832761764526381 2.3577411791956604 2.3993702913259569
decision_type=2 2 2 2 2 2 2 2 2 2 2 2 2 2 2 2 2 2 2 2 2 2 2 2 2 2 2 2 2 2
left_child=1 2 4 9 28 -2 -6 -8 -9 10 -3 13 -13 -11 -15 16 17 -7 -18 20 -17 24 23 -23 -21 -26 -24 -25 -1 -30
right_child=5 3 -4 -5 6 15 7 8 -10 11 -12 12 -14 14 -16 19 18 -19 -20 21 -22 22 26 27 25 -27 -28 -29 29 -31
leaf_value=0.080790893678776482 -0.025927530490348967 -0.026343110592574277 0.044890583872324114 -0.0018175252408777409 0.0014310328572755453 0.040020679557987542 -0.0040510482207047321 0.050833813341212009 -0.0052205014383117469 -0.01097185498888438 0.028247529695269148 0.077569235212030671 -0.042930919851660525 0.086146332232439046 0.025030240304472019 0.015108686293342583 -0.0070618053763252522 -0.0056592294226614284 0.057157066929088056 -0.015751442402999478 -0.0040803841699931483 0.00034588675089590833 0.0043699897156704555 0.067092392247312366 0.024141147168880855 -0.016379776734116492 -0.016571926938282796 0.0020568165736871195 -0.020108864736738244 0.040575014245895352
leaf_weight=9.9839874207973462 71.462630584836006 28.890662088990211 53.472683593630791 608.4342088252306 310.17810942232609 70.024531871080399 36.226613074541092 46.590613186359406 13.873439654707907 52.167059391736984 13.889402270317076 19.880152165889744 5.6201502680778495 10.741655632853506 62.232897892594337 135.82237477600574 255.89979596436024 64.388939321041107 15.062998056411741 516.93376603722572 449.91795419156551 321.40789417922497 102.783826649189 18.314108535647396 59.37153784930706 64.851688578724861 267.66333669424057 11.388081192970274 8.8980521708726865 25.237262055277824
leaf_count=37 211 93 175 1827 959 237 103 173 37 153 35 74 19 42 193 416 784 182 53 1403 1341 981 312 64 194 204 693 27 33 88
internal_value=-0.000578093 0.00641659 0.0131728 0.00216613 0.00941213 -0.00434559 0.00637324 0.0222275 0.0379722 0.0146972 -0.00861917 0.0213188 0.0510116 0.0152682 0.0340264 -0.00369036 0.00368023 0.0181383 -0.00349184 -0.00522381 0.000369207 -0.00762787 -0.00363547 0.00388292 -0.0121209 0.00298689 -0.0107614 0.0421572 0.0374369 0.0247565
internal_weight=3731.61 1306.32 504.461 801.856 450.988 2425.29 406.869 96.6907 60.4641 193.422 42.7801 150.642 25.5003 125.142 72.9746 2353.83 405.376 134.413 270.963 1948.45 585.74 1362.71 721.557 351.11 641.157 124.223 370.447 29.7022 44.1193 34.1353
internal_count=11143 4041 1605 2436 1430 7102 1272 313 210 609 128 481 93 388 235 6891 1256 419 837 5635 1757 3878 2077 1072 1801 398 1005 91 158 121
is_linear=0
shrinkage=0.05


Tree=16
num_leaves=31
num_cat=0
split_feature=4 14 13 12 14 10 10 0 2 0 1 0 8 0 4 2 2 1 14 4 0 14 4 14 4 14 1 0 1 1
split_gain=31.4545 32.2839 18.232 16.9719 13.7372 12.9084 11.9774 10.9012 18.5056 10.4396 10.3153 10.0333 9.44336 9.0748 13.2091 11.7419 13.9955 12.4242 19.7318 14.852 12.575 10.5884 14.001 10.2792 11.7668 11.9363 10.2385 10.0332 8.96576 12.6091
threshold=251.19815557960789 -0.56130511900508118 -1.6491239166738836 1.0000000180025095e-35 2.7436127315896361 0.89339190721511852 -0.36721554398536677 0.25398191809654241 2.5145091787905991 -0.14750479161739347 39.79946804101418 0.24359075725078586 0.9395750860373181 -0.040957920253276818 251.46831738161617 2.3220914809251147 2.5335892560534052 15.427283186689172 -0.37033714842268678 251.38795715149814 -0.10861964151263236 0.37305303252363403 251.26035914404801 -0.16385849690165491 251.32147405639031 -1.281913300172637 11.073347261392529 -0.090626016259193407 17.417296613024885 16.674547685369589
decision_type=2 2 2 2 2 2 2 2 2 2 2 2 2 2 2 2 2 2 2 2 2 2 2 2 2 2 2 2 2 2
left_child=1 5 -2 4 6 -1 -3 11 10 -8 -9 12 13 15 -15 17 21 26 -19 20 -20 23 27 24 25 -17 -4 -23 29 -27
right_child=2 3 7 -5 -6 -7 9 8 -10 -11 -12 -13 -14 14 -16 16 -18 18 19 -21 -22 22 -24 -25 -26 28 -28 -29 -30 -31
leaf_value=-0.016781952842731495 -0.022379240761322194 -0.046651709999065587 -0.011957898070968188 -0.029935761606989089 -0.03315329874865499 0.056675802446354166 -0.035361333224596649 0.009434073566412314 0.040050706596523294 0.0029344919320013403 -0.050559644763686344 -0.036266403856712301 -0.035055154537514607 0.0039777234903822251 -0.038184031424698159 0.053359725548090264 -0.025429533242377234 -0.049297275577495671 -0.049713369093071585 0.05988176765983251 0.014111526889109969 -0.015350890284857022 -0.037996972107431887 0.0397681873163373 0.057531900683794657 0.0053589668687798299 0.017181480553603995 0.042877135086527227 -0.014898728167905627 0.064572249396862388
leaf_weight=432.86467875540257 58.317057475447655 12.597212404012678 39.248418033123016 45.85581961274147 28.695219933986664 6.0642686039209357 18.067945599555969 68.368540599942207 61.185615077614784 1181.8883110135794 8.0036492496728879 14.640134960412977 14.38257387280464 1238.7963651865721 18.85985703766346 14.503558427095411 17.080483630299568 25.838446021080017 12.437460243701929 9.8593535721302015 20.335291668772701 12.328494518995287 16.04998616874218 83.284043371677399 15.666551202535627 46.076044291257858 129.96758237481117 18.498543754220009 36.126982927322388 11.170078441500662
leaf_count=1531 217 57 126 176 114 10 75 186 116 3545 33 55 55 3547 74 24 60 109 52 16 55 41 60 164 22 128 326 36 118 15
internal_value=0.000882685 -0.0040573 0.00516519 -6.40325e-05 0.00103953 -0.0157671 0.0018487 0.00599631 0.0195617 0.00235787 0.00314685 0.00495683 0.00529579 0.00562439 0.00334546 0.0112611 0.0183797 0.00315117 -0.0148197 0.00607639 -0.0101104 0.0213292 -0.000126708 0.0261921 0.0170401 0.0111596 0.0104228 0.0195903 0.00460466 0.0169129
internal_weight=3717.06 1726.03 1991.03 1287.1 1241.25 438.929 1212.55 1932.71 137.558 1199.96 76.3722 1795.15 1780.51 1766.13 1257.66 508.471 270.785 237.687 68.4706 42.6321 32.7728 253.704 46.877 206.827 123.543 107.877 169.216 30.827 93.3731 57.2461
internal_count=11143 5508 5635 3967 3791 1541 3677 5418 335 3620 219 5083 5028 4973 3621 1352 668 684 232 123 107 608 137 471 307 285 452 77 261 143
is_linear=0
shrinkage=0.05


Tree=17
num_leaves=31
num_cat=0
split_feature=2 2 2 2 2 2 2 2 2 4 4 4 4 7 6 8 2 4 2 4 4 2 4 4 4 14 13 2 4 4
split_gain=10.5405 6.57999 10.7295 9.90247 9.4964 7.70809 12.8589 24.544 9.98389 9.40188 24.799 6.53085 6.47658 5.87198 5.85703 7.82944 5.81684 5.75063 10.6943 13.1466 10.53 9.92446 6.63346 18.404 12.5537 11.5258 10.7802 8.14639 7.42342 7.10772
threshold=1.9128265078228397 2.8925766376287574 2.9443740911451242 2.7906780512211471 2.778546215950894 2.7263247724705946 2.6273767594511628 2.6680946523950735 2.5795940129637134 250.62240974048427 250.6502784007067 250.62749436191993 251.43632159658378 0.045544356107711799 0.053440958261489875 0.033877149224281318 2.6815708626560828 251.28560149820376 2.5433766133757274 251.34940185545605 251.28351342347221 2.4043639213810271 251.227454312015 251.21715946549384 251.23738737302673 -0.57348164263559298 0.95253778917232468 2.3159997093163454 251.23952253539366 251.011431713897
decision_type=2 2 2 2 2 2 2 2 2 2 2 2 2 2 2 2 2 2 2 2 2 2 2 2 2 2 2 2 2 2
left_child=12 3 -3 4 5 6 8 -8 13 16 -11 -5 -1 -2 15 -15 -9 20 -19 -20 22 -22 23 25 26 29 27 -24 -26 -16
right_child=1 2 -4 11 -6 -7 7 9 -10 10 -12 -13 -14 14 17 -17 -18 18 19 -21 21 -23 24 -25 28 -27 -28 -29 -30 -31
leaf_value=0.031201305345545823 0.07693969499985498 0.048801294611880382 -0.030055893985961771 -0.028003236431887169 0.031436766164659881 -0.018181151933738211 0.064225131373401564 -0.034290348396034044 -0.030536002949944116 0.055944596740346755 -0.030584868007802704 -0.0064612686068044036 0.0050549654886918082 -0.00036227160467263651 0.0011937764494642834 0.068108353125016993 0.0020244672664408501 -0.0053467263783420283 0.0074465162957502318 0.083572325142732815 0.003110810540926533 0.07404903691593416 0.082489759607573154 -0.022599382513670281 -0.018602479386175711 -0.0026588178029164303 -0.015729131243408367 0.025793680614349387 0.0034887254988814143 0.014990998414859631
leaf_weight=40.526465713977814 2.440880373120307 15.500656589865686 5.9768536835908881 49.083224952220917 23.391339674592018 60.752587959170341 21.26747390627861 13.374077856540678 28.062762066721916 24.265335440635681 12.569508969783781 124.2414813041687 56.991521120071411 9.8951239436864871 206.73286603391171 7.2224140912294379 62.835276737809181 848.5890529602766 28.284767776727676 7.0937704741954795 10.363806799054148 9.4045204073190671 7.1388232707977286 97.209065049886703 40.954340815544128 1143.1815942674875 14.413664907217024 56.32241427898407 532.23333223164082 170.18695014715195
leaf_count=141 10 57 16 151 69 184 78 35 71 92 22 354 175 36 686 29 216 2349 74 30 37 38 30 262 87 3431 35 189 1561 598
internal_value=-0.000301239 -0.000736678 0.0268566 -0.000900774 -0.000312929 -0.000530414 -0.000210702 0.0149472 -0.000843019 0.0056764 0.0264173 -0.0125617 0.0159208 -0.000581943 -0.000641275 0.0285276 -0.00434847 -0.000798677 -0.00422381 0.0227105 0.000524537 0.0368587 0.000207894 -0.00150763 0.00446945 -0.000158836 0.0233057 0.0321715 0.00191031 0.0074235
internal_weight=3730.51 3632.99 21.4775 3611.51 3438.19 3414.79 3354.04 134.312 3219.73 113.044 36.8348 173.325 97.518 3191.67 3189.23 17.1175 76.2094 3172.11 883.968 35.3785 2288.14 19.7683 2268.37 1617.31 651.063 1520.1 77.8749 63.4612 573.188 376.92
internal_count=11143 10827 73 10754 10249 10180 9996 443 9553 365 114 505 316 9482 9472 65 251 9407 2453 104 6954 75 6879 4977 1902 4715 254 219 1648 1284
is_linear=0
shrinkage=0.05


Tree=18
num_leaves=31
num_cat=0
split_feature=13 1 2 14 2 14 1 13 14 2 1 1 1 2 2 2 1 1 1 1 1 2 2 2 2 13 2 2 1 1
split_gain=11.2425 10.9169 13.9328 12.3306 8.50986 11.2875 8.14299 12.5336 11.7683 7.88593 11.7865 15.9659 17.0841 10.1928 11.8399 18.4039 10.4009 14.4509 9.07709 7.63673 14.4329 7.60189 6.68263 8.73689 22.7984 6.6643 6.49465 12.8461 11.2385 19.8782
threshold=-1.4270327689708173 14.970053913827931 2.8430545238559457 -0.63851128648030653 2.330918827083162 -0.66157368028603469 15.597444286994097 -0.6168037176482043 -0.36374543177509899 2.4997993097201321 17.417296613024885 23.21014623897792 24.37647517507607 2.5101811870902422 2.5189983274394803 2.5188020292308773 16.452382915753443 16.383314657346371 30.969908647291032 41.393200168613667 41.202535354072332 1.9380683755366135 2.7718741674210263 2.6869956845217255 2.7009194496012561 1.2970761429675071 2.7358012805093668 2.778546215950894 14.216561897256186 13.802666792137581
decision_type=2 2 2 2 2 2 2 2 2 2 2 2 2 2 2 2 2 2 2 2 2 2 2 2 2 2 2 2 2 2
left_child=-1 26 3 4 -3 -6 7 -5 -9 10 -8 -12 -13 -11 15 18 17 -16 -15 20 -14 -10 23 -18 -25 -23 28 -28 29 -2
right_child=1 2 -4 6 5 -7 9 8 21 13 11 12 19 14 16 -17 22 -19 -20 -21 -22 25 -24 24 -26 -27 27 -29 -30 -31
leaf_value=0.010998745374304659 -0.0087955763118616106 0.015501039831355182 0.038487361942407511 -0.017913675487097644 0.00089296608933776974 0.044125893280104148 -0.011288336688152836 -0.0029586610221925898 0.0096675047878095662 -0.023693376961522145 0.016275077440186542 -0.027527860241584719 0.0014492091677535135 0.036036356356624992 -0.0044581324304654342 0.092908081660634328 -0.010575092315147609 0.078731225442315825 -0.0056445318448840043 -0.011452695034945207 0.051414071100986072 0.079039743121578243 -0.02689085714526673 0.057591583437182362 -0.0097524101986213689 0.013926532172346054 0.049225843635080896 -0.0018096568394228266 -0.025979289175970838 0.023344259129410752
leaf_weight=199.44990552961826 534.59060947597027 175.40943031013012 23.643551632761955 20.602410450577736 418.62326756119728 15.662498474121092 213.90569971501827 18.619346678256989 9.3656262606382388 81.586863026022911 157.86550202965736 56.43981409072876 897.72822220623493 18.145904093980789 14.63422966003418 6.7295756191015235 312.36537656188011 8.1151899546384811 46.623153656721115 114.36423587799072 14.689658582210539 16.538348644971851 48.794486939907074 17.866818711161613 42.370913788676262 5.1544070690870276 14.233445584774016 92.208303764462471 79.094959303736687 52.867013439536095
leaf_count=661 1489 633 78 40 1293 64 626 41 29 209 495 140 2723 65 41 27 863 31 116 321 53 66 136 65 119 16 51 258 219 175
internal_value=-0.00055027 -0.00120302 0.000269852 -6.08691e-05 0.00620633 0.00245216 -0.00186114 0.0148742 0.028472 -0.00243425 -0.000448498 0.00141979 -0.00074518 -0.00727199 -0.00467376 0.0142098 -0.00771362 0.0252172 0.00603292 0.000727002 0.00225363 0.0473145 -0.00949141 -0.00721286 0.0102222 0.0635682 -0.00645404 0.00501484 -0.0082855 -0.00590322
internal_weight=3728.29 3528.84 2755.84 2732.2 609.695 434.286 2122.51 70.2801 49.6777 2052.23 1454.99 1241.09 1083.22 597.233 515.646 71.4986 444.147 22.7494 64.7691 1026.78 912.418 31.0584 421.398 372.603 60.2377 21.6928 772.994 106.442 666.553 587.458
internal_count=11143 10482 8290 8212 1990 1357 6222 192 152 6030 4358 3732 3237 1672 1463 208 1255 72 181 3097 2776 111 1183 1047 184 82 2192 309 1883 1664
is_linear=0
shrinkage=0.05


Tree=19
num_leaves=31
num_cat=0
split_feature=4 14 6 13 6 13 10 13 0 1 0 1 14 0 14 4 0 8 0 4 14 4 14 1 14 1 0 14 14 14
split_gain=28.2948 30.0642 19.9776 17.0113 14.3504 13.969 11.1366 10.5441 12.8346 11.3846 10.033 12.0176 12.1708 12.2979 9.9556 9.57955 9.47977 8.84441 8.41138 12.4167 9.36863 14.9648 14.9608 11.159 13.7146 14.9503 10.0464 10.126 9.90442 9.75062
threshold=251.19815557960789 -0.56130511900508118 0.54139381647109996 -1.6491239166738836 0.94669595360755932 -1.7963463457975835 -0.36721554398536677 1.2970761429675071 -0.14750479161739347 13.259450579278317 0.25398191809654241 40.127360594482987 -0.61680919639637466 0.28812707960605627 0.37305303252363403 251.04879792883756 0.24359075725078586 0.9395750860373181 -0.040957920253276818 251.46831738161617 1.0487304282678496 251.26229344976699 -0.11521540740376617 25.311965188056654 -1.0487627492652283 14.970053913827931 -0.062966167926788316 -0.24131691445735903 -0.06363230442209869 -0.51223440317344593
decision_type=2 2 2 2 2 2 2 2 2 2 2 2 2 2 2 2 2 2 2 2 2 2 2 2 2 2 2 2 2 2
left_child=1 4 5 -2 -1 14 -7 8 -8 -10 16 12 13 -12 -3 -9 17 18 20 -20 22 -22 23 24 -5 26 27 -26 -24 -25
right_child=3 2 -4 10 -6 6 7 15 9 -11 11 -13 -14 -15 -16 -17 -18 -19 19 -21 21 -23 28 29 25 -27 -28 -29 -30 -31
leaf_value=-0.016251676201344996 -0.02183466971564783 0.0015894288105577786 -0.048478175062453881 0.025882898686060543 0.064153309944109657 -0.046022357529745123 -0.046830215034313248 -0.020367083823064812 -0.04792182434352165 0.0047253741447617625 -0.050719917250840275 -0.03148050262349622 0.03069517227976706 0.020349185147120939 -0.048196346959959065 0.018691944930074537 -0.035582373121033378 -0.034275106290563274 0.0037451534917416146 -0.03740649294803719 0.017691996627173003 -0.040664956628780335 0.053002314962411569 0.0029030019464555746 0.0042488421844144092 -0.021969035533288883 0.03246619674523623 -0.050709011378387986 0.019175549903607869 0.050810319733880928
leaf_weight=429.90765650570393 57.824460700154305 17.041242748498917 20.918374463915825 44.912250220775604 5.6218551099300376 12.076819390058516 12.448277935385702 83.87435944378376 10.366551384329794 1085.4992485493422 10.124436125159265 11.00149744749069 102.03295423090458 15.26446810364723 24.446311950683594 19.312435418367386 14.495749637484549 14.208730056881903 1241.334982663393 18.605132892727852 22.094240680336952 21.849718883633614 24.884191051125526 19.614088639616966 73.988176122307777 76.088580742478371 28.369373366236687 9.452232822775839 165.96047402918339 23.16496530175209
leaf_count=1533 217 52 90 103 8 56 56 304 45 3205 42 40 215 38 106 53 55 55 3547 74 56 85 41 54 206 265 60 39 405 38
internal_value=0.000836807 -0.00385982 -1.45134e-05 0.00488904 -0.0152138 0.000786853 0.00175433 0.00223059 0.00365388 0.00422735 0.00568663 0.0186579 0.0229869 -0.00799133 -0.0277466 -0.0130568 0.00468857 0.00501569 0.00533104 0.00313748 0.0107461 -0.0113241 0.0128254 0.00537365 0.00106079 -0.0048723 0.00676235 -0.00197685 0.0235862 0.0288449
internal_weight=3716.78 1721.51 1285.98 1995.27 435.53 1265.07 1223.58 1211.5 1108.31 1095.87 1937.45 138.423 127.422 25.3889 41.4876 103.187 1799.02 1784.53 1770.32 1259.94 510.378 43.944 466.434 275.59 232.811 187.898 111.81 83.4404 190.845 42.7791
internal_count=11143 5508 3967 5635 1541 3877 3719 3663 3306 3250 5418 335 295 80 158 357 5083 5028 4973 3621 1352 141 1211 765 673 570 305 245 446 92
is_linear=0
shrinkage=0.05


Tree=20
num_leaves=31
num_cat=0
split_feature=2 1 2 1 6 8 2 1 2 1 2 0 2 2 2 1 4 4 2 4 2 2 2 4 4 1 1 6 4 1
split_gain=9.65026 7.91571 8.1463 7.60518 6.2302 6.22587 6.16546 9.89836 9.05642 16.8427 8.82243 9.24671 6.91519 11.6426 21.6837 18.5854 15.9643 22.7728 9.02167 6.0031 5.64422 27.0603 11.8354 15.073 9.92616 7.58389 7.93974 7.4894 7.23504 10.0836
threshold=1.9128265078228397 42.339351222696763 2.2441838587716014 42.004142009413833 0.053440958261489875 0.033877149224281318 2.8925766376287574 14.846824360680477 2.7906780512211471 17.340199887349918 2.778546215950894 0.19399851560592654 2.7263247724705946 2.6273767594511628 2.6680946523950735 14.712979822278648 250.62240974048427 250.6502784007067 2.5795940129637134 251.43632159658378 2.5029318266441307 2.5009350380413466 2.5399800919911244 251.34940185545605 250.87759394958746 31.244279441627395 29.485989570560175 0.58496317267417919 250.68840044577462 18.444262045484379
decision_type=2 2 2 2 2 2 2 2 2 2 2 2 2 2 2 2 2 2 2 2 2 2 2 2 2 2 2 2 2 2
left_child=19 3 -3 4 5 -2 8 -8 10 -10 12 -12 13 18 -15 -16 -17 -18 20 -1 21 28 24 25 -22 26 -24 -26 29 -6
right_child=1 2 -4 -5 6 -7 7 -9 9 -11 11 -13 -14 14 15 16 17 -19 -20 -21 22 -23 23 -25 27 -27 -28 -29 -30 -31
leaf_value=0.029812680192358134 0.00098644955462208039 0.050285711934246524 0.0069021875027992664 -0.023461706866941337 0.031008220488403557 0.057744492131423714 0.046476149113132831 -0.029450563999991561 -0.023141849512627384 0.010394021336725128 0.066960617897235133 0.0035458084908149921 -0.017531956375480478 0.060675731177834952 0.070002030812494107 -0.01585021565860649 0.053088131287314516 -0.029906047531868197 -0.029587806686634244 0.0047260930555654661 0.044618505193563002 0.086533552141131911 0.0082218257282231835 0.07856173666521088 -0.010817411414591839 -0.0085563023844775748 0.056798458792570984 0.041732114910116858 0.00026532520496112127 -0.033385102060535077
leaf_weight=40.918167680501938 10.348827511072161 14.343260183930395 44.058126881718636 37.293295234441757 7.4924659579992285 9.0625394880771619 15.694331526756288 5.9085839539766303 115.81840978562832 55.323969006538391 9.8397454768419284 13.824881866574286 60.085478827357292 21.002817660570145 10.116261839866636 65.593845024704933 24.603237673640251 12.446773946285246 27.420952513813972 57.15879037976265 8.4791255444288236 9.0512202233076078 42.564699366688728 7.2838575243949881 434.41778212785721 56.0276750177145 10.483684048056601 6.8878073990344992 2462.3970076739788 32.240142330527306
leaf_count=141 38 48 137 90 32 36 57 16 334 166 36 33 183 76 39 211 92 22 70 175 35 37 131 30 1145 153 34 24 7419 103
internal_value=-0.000283963 -0.000702096 0.0175571 -0.00100065 -0.000763656 0.0274849 -0.000919657 0.0257095 -0.00108433 -0.0123009 -0.000506519 0.0299137 -0.000724758 -0.000412926 0.0140304 0.00534221 -0.00103046 0.0252066 -0.00103519 0.0151923 -0.000780772 0.000235968 -0.00529061 0.00892283 -0.00896764 0.00427249 0.0178218 -0.00999723 -7.62057e-05 -0.0212423
internal_weight=3728.19 3630.11 58.4014 3571.71 3534.42 19.4114 3515 21.6029 3493.4 171.142 3322.26 23.6646 3298.59 3238.51 133.763 112.76 102.644 37.05 3104.75 98.077 3077.33 2511.18 566.145 116.36 449.785 109.076 53.0484 441.306 2502.13 39.7326
internal_count=11143 10827 185 10642 10552 74 10478 73 10405 500 9905 69 9836 9653 440 364 325 114 9213 316 9143 7591 1552 348 1204 318 165 1169 7554 135
is_linear=0
shrinkage=0.05


Tree=21
num_leaves=31
num_cat=0
split_feature=4 2 2 4 4 1 13 2 4 1 1 1 0 1 1 14 14 4 4 2 1 1 2 4 4 1 1 4 1 4
split_gain=33.8941 13.5938 22.3281 14.0754 13.3758 13.0585 11.5253 10.0399 10.1864 22.7977 21.1656 11.2968 9.946 9.47159 9.46344 9.19318 9.18546 9.16156 17.766 12.338 11.0619 18.5512 13.3597 13.3463 10.9001 12.0435 15.3244 14.1665 13.9533 12.872
threshold=251.01534050598482 2.4595313138699031 2.4381870967937433 250.63071007546367 251.02672233334096 19.904005816123238 0.17183395445444402 2.6763299643683625 250.62240974048427 18.98621732368294 16.383314657346371 16.583233162643261 0.24547132849693301 36.320102756051561 13.802666792137581 0.093637923940847648 1.4511328133715486 251.23331934433131 251.24238597133657 2.5264097099203329 41.393200168613667 26.463472614541413 2.5433766133757274 251.19228641891308 251.21715946549384 33.416772859932856 36.116856576839524 251.05456275970079 32.375155106100571 251.03611478220071
decision_type=2 2 2 2 2 2 2 2 2 2 2 2 2 2 2 2 2 2 2 2 2 2 2 2 2 2 2 2 2 2
left_child=1 2 5 7 -2 15 16 12 10 -10 -9 -12 -3 14 -5 -1 -7 20 -19 -20 21 22 23 -6 25 27 -27 28 -23 -28
right_child=4 3 -4 13 17 6 -8 8 9 -11 11 -13 -14 -15 -16 -17 -18 18 19 -21 -22 24 -24 -25 -26 26 29 -29 -30 -31
leaf_value=0.052960791549640035 -0.025425265663574309 -0.020237023032260614 0.047697559640698897 0.029288389419070256 0.031043416482148079 0.011234693320246188 -0.0025529061722204894 -0.010754022542274986 0.072534988133814288 -0.042012729502325631 0.077144320838900368 0.022639776339917577 0.039861295773834515 0.044299230793435569 -0.0039240974815099236 0.0063780903250705845 0.04940221294387187 -0.021621600863900726 -0.002062407506097306 -0.016014892703108102 -0.016193750726189959 -0.0053904997528002492 0.048351550300114607 -0.011000765054619719 0.034736047952193344 -0.018374763038214243 0.048158442938458786 0.01114530662010868 0.077251930733354068 0.0044285407632379146
leaf_weight=27.39878611266613 70.944382041692734 33.646238759160042 41.082850113511086 22.279121458530426 20.353561297059059 213.15236014127731 191.16894221305847 51.948304504156113 20.401776462793354 5.5186272710561743 11.189099401235579 63.227872863411903 8.6553319841623289 10.92266909778118 574.92305256426334 17.265927091240883 17.022396489977837 154.12478683888912 1288.7727923095226 180.65594857931137 80.294274434447289 7.0626874268054989 10.949469611048697 259.85362707078457 43.307507202029228 68.013885453343391 19.585316747426987 73.702647253870964 18.449909374117851 119.52287474274635
leaf_count=105 211 92 141 79 65 676 563 153 74 19 42 193 36 34 1714 53 67 416 3815 490 228 18 40 719 140 202 73 226 71 388
internal_value=-0.000524084 0.00595262 0.0123614 0.00190407 -0.00403594 0.00924617 0.00652106 0.0136088 0.0195946 0.048147 0.0137378 0.0308349 -0.0079403 -0.00184118 -0.00268508 0.0349534 0.0140573 -0.00338874 -0.00547169 -0.00377777 0.00130104 0.00349319 -0.00582958 -0.00794678 0.0112565 0.0079371 0.00107556 0.0222613 0.0543739 0.0105854
internal_weight=3725.4 1309.8 507.091 802.712 2415.59 466.008 421.344 194.587 152.286 25.9204 126.365 74.417 42.3016 608.125 597.202 44.6647 230.175 2344.65 1623.55 1469.43 721.096 640.801 291.157 280.207 349.645 306.337 207.122 99.2152 25.5126 139.108
internal_count=11143 4041 1605 2436 7102 1464 1306 609 481 93 388 235 128 1827 1793 158 743 6891 4721 4305 2170 1942 824 784 1118 978 663 315 89 461
is_linear=0
shrinkage=0.05


Tree=22
num_leaves=31
num_cat=0
split_feature=4 13 1 1 0 11 4 0 1 1 0 0 0 13 13 0 4 4 13 4 0 1 0 1 4 0 4 0 0 0
split_gain=25.8599 15.6949 9.6203 21.2394 12.9755 11.7191 9.25483 9.20748 11.1907 9.7544 8.92873 8.74873 10.4008 9.91638 9.42691 8.60773 17.0773 10.221 18.7311 13.1567 14.4609 21.3093 18.3477 17.2544 18.4614 17.267 13.9551 13.0066 10.9742 9.81823
threshold=251.19815557960789 -1.6491239166738836 13.868153607721439 14.404032136681664 0.17650949954986575 0.75034662562933641 251.19514213977826 0.25398191809654241 40.127360594482987 38.499971677928123 0.24359075725078586 0.16588065028190616 0.32629022002220159 -0.51874347251139896 -1.8606913845006994 -0.13090652227401731 250.7077850158401 250.98371733205948 1.4708492783391967 250.98892584776411 0.077817127108573927 32.375155106100571 0.10681643337011339 41.565634483366217 251.01225158769958 0.043383678421378143 251.11205975622082 0.16013224422931674 -0.11533207446336745 -0.074312515556812272
decision_type=2 2 2 2 2 2 2 2 2 2 2 2 2 2 2 2 2 2 2 2 2 2 2 2 2 2 2 2 2 2
left_child=2 -2 4 -4 -1 6 11 10 9 -9 -3 14 -13 -14 -5 16 -16 18 27 -19 23 -22 -23 24 25 -21 -26 28 -17 -28
right_child=1 7 3 5 -6 -7 -8 8 -10 -11 -12 12 13 -15 15 17 -18 19 -20 20 21 22 -24 -25 26 -27 29 -29 -30 -31
leaf_value=-0.047897538514526571 -0.021153573748169337 0.0047782146467543283 0.031284933706052002 -0.035798165398287188 0.0013140572615243679 -0.047253963603943322 -0.032413159236936884 0.0094900257396936475 -0.030828432378257865 0.037204577447574584 -0.034845379388327283 -0.0094116742030713324 0.035836096597309498 -0.0036240479117102134 0.041737691949735853 0.054066705063047983 -0.046639030689881011 0.042456159163774737 -0.048204729449771888 -0.011514761770349118 0.044254220580644758 -0.043173155643549482 -0.0017358937798058053 0.040633566592612795 -0.019132252473194555 0.063167040130543445 0.049374238730810725 0.033254293369525921 -0.0040843643843420747 0.0013172651026605218
leaf_weight=28.212046146392822 57.201033905148506 1787.8523893207312 43.894316226243973 17.844701364636421 25.503081068396568 15.483950331807135 27.292734056711197 70.669459119439125 10.900423988699911 57.646682694554329 14.33142179250717 608.8209370970726 25.53188867866993 42.296513915061951 7.1922703832387951 8.2733559012413007 22.776482120156288 25.785125508904457 21.898330643773079 11.67009326815605 18.603678956627846 36.428148582577705 100.17727150022984 47.714369088411331 63.908266991376877 22.981089860200882 15.388865828514097 26.32105128467083 419.32731536030769 34.355828553438187
leaf_count=123 217 5028 90 73 77 69 109 186 40 109 55 2045 59 133 16 14 103 52 95 40 39 150 313 99 224 36 30 62 1352 105
internal_value=0.000792927 0.0046596 -0.00370613 -0.00303382 -0.0245327 -0.00396365 -0.00354591 0.00542016 0.0178092 0.0219409 0.00446312 -0.0030464 -0.00734257 0.0112295 0.000181279 0.000908557 -0.0254293 0.00183408 -0.00303831 0.00798341 0.00545262 -0.0059489 -0.0127858 0.0144804 0.00606611 0.0380151 -0.00367469 -0.000859365 -0.00295924 0.016184
internal_weight=3716.28 1998.6 1717.68 1663.97 53.7151 1620.07 1604.59 1941.4 139.217 128.316 1802.18 1577.3 676.649 67.8284 900.646 882.802 29.9688 852.833 475.82 377.013 351.228 155.209 136.605 196.019 148.304 34.6512 113.653 453.922 427.601 49.7447
internal_count=11143 5635 5508 5308 200 5218 5149 5418 335 295 5083 5040 2237 192 2803 2730 119 2611 1523 1088 1036 502 463 534 435 76 359 1428 1366 135
is_linear=0
shrinkage=0.05


Tree=23
num_leaves=31
num_cat=0
split_feature=2 1 2 1 2 1 2 1 2 0 11 2 2 2 1 4 4 2 14 14 2 4 4 1 1 2 1 4 4 13
split_gain=8.86748 7.23833 7.46609 7.24273 5.58375 9.10859 8.66038 14.8136 7.99358 8.33685 7.10444 6.05582 11.0184 19.3426 17.3057 14.6608 21.1489 8.70483 6.01384 6.07906 10.4048 5.54999 5.41789 12.5447 18.7929 7.77693 8.96338 9.49037 6.00329 5.52529
threshold=1.9128265078228397 42.339351222696763 2.2441838587716014 42.004142009413833 2.8925766376287574 14.846824360680477 2.7906780512211471 17.104898820955405 2.778546215950894 0.19399851560592654 0.84635284543037426 2.7263247724705946 2.6273767594511628 2.6680946523950735 14.712979822278648 250.62240974048427 250.6502784007067 2.5795940129637134 -0.87001575709129975 -0.2847150095938345 2.8267168081362604 251.43632159658378 251.36055418335607 38.499971677928123 37.914269417244647 2.471849254473804 35.545695710778681 251.36291416233161 251.42447761848408 3.0366613386695556
decision_type=2 2 2 2 2 2 2 2 2 2 2 2 2 2 2 2 2 2 2 2 2 2 2 2 2 2 2 2 2 2
left_child=21 3 -3 4 6 -6 8 -8 10 -10 11 12 17 -14 -15 -16 -17 22 -9 20 -20 -1 29 24 25 26 27 -24 -29 -2
right_child=1 2 -4 -5 5 -7 7 18 9 -11 -12 -13 13 14 15 16 -18 -19 19 -21 -22 -23 23 -25 -26 -27 -28 28 -30 -31
leaf_value=0.02850772871383694 -1.5506060875785922e-05 0.04782049281451943 0.0065155977906098828 -0.022951554262595836 0.044193771753757188 -0.028844878314198449 -0.022808602493794662 -0.023798545804071078 0.063163520572576931 0.003340906149003653 0.028451096353715972 -0.016598532663780235 0.057794274809183692 0.066628948079973133 -0.015190753523292253 0.050762189097251255 -0.029322717708486226 -0.029123520212579763 0.092059968743729514 0.0046098221860211312 0.0048877883203127265 0.0044595534532420704 0.021118444738198461 -0.027320559480462539 0.073634954081129342 -0.028989143846022958 0.043209637083339698 -0.021913201484846972 0.001806823533201018 -0.034436040615900304
leaf_weight=41.277996405959129 2815.7229741662741 14.540035799145697 44.190475389361382 37.036054477095604 15.873717218637468 5.8386843204498282 110.12917073071003 12.060540959239004 10.049160659313204 13.851084202527998 21.018151521682739 58.906434208154678 20.920390397310257 10.478821754455565 64.876849830150604 24.843920484185219 12.337749660015104 27.324652582406998 6.1659170836210233 35.434149131178856 7.6951393932104111 57.292156249284744 30.128132805228233 62.118794426321983 7.9961834400892249 27.833121299743652 11.01581598818302 56.181276768445969 50.789134055376053 11.707445800304411
leaf_count=141 8451 48 137 90 57 16 319 30 36 33 81 180 75 40 210 92 22 71 26 103 27 175 91 139 32 67 37 147 146 24
internal_value=-0.000266886 -0.000669014 0.0167415 -0.000955571 -0.000724879 0.0245529 -0.000881263 -0.0118397 -0.000318307 0.0284941 -0.000526087 -0.000711029 -0.000421667 0.0136455 0.00543837 -0.000844347 0.0241881 -0.00102711 0.00784879 0.0155916 0.0436652 0.0145302 -0.000777322 -0.00789343 -0.00133278 -0.00473979 -0.000182939 -0.00366952 -0.010651 -0.00015803
internal_weight=3725.63 3627.06 58.7305 3568.33 3531.3 21.7124 3509.59 171.485 3338.1 23.9002 3314.2 3293.18 3234.28 133.458 112.537 102.059 37.1817 3100.82 61.3557 49.2952 13.8611 98.5702 3073.49 246.062 183.944 175.947 148.114 137.099 106.97 2827.43
internal_count=11143 10827 185 10642 10552 73 10479 505 9974 69 9905 9824 9644 439 364 324 114 9205 186 156 53 316 9134 659 520 488 421 384 293 8475
is_linear=0
shrinkage=0.05


Tree=24
num_leaves=31
num_cat=0
split_feature=4 4 4 0 4 4 1 1 4 4 1 1 4 1 4 1 13 1 1 1 1 1 1 1 4 4 1 4 14 0
split_gain=31.0676 12.846 9.62061 14.25 8.36909 16.7931 10.1848 17.0069 10.8828 10.3398 18.8956 18.3682 13.5325 9.78002 8.43438 12.44 8.20252 7.33973 7.26576 7.08163 7.18035 6.9818 6.51184 23.779 13.2349 18.0127 11.7631 7.15186 7.04859 8.74959
threshold=251.01534050598482 251.02672233334096 251.00490940684514 0.077817127108573927 251.23331934433131 251.24238597133657 41.393200168613667 26.463472614541413 251.19228641891308 251.15807412767143 33.416772859932856 40.646248646162945 251.03611478220071 11.073347261392529 251.05456275970079 32.375155106100571 -2.5780322805529488 11.973494994861619 42.401285821328756 13.802666792137581 14.404032136681664 25.76861206819682 16.452382915753443 16.274073986208386 250.62240974048427 250.6473226434972 16.498695615921328 250.65528456512448 1.4036303441599829 0.16588065028190616
decision_type=2 2 2 2 2 2 2 2 2 2 2 2 2 2 2 2 2 2 2 2 2 2 2 2 2 2 2 2 2 2
left_child=2 -2 16 -4 6 -6 7 8 -3 10 14 -12 -13 -7 15 -9 -1 -15 19 -18 -21 -10 23 24 -22 -26 -24 -27 -28 -30
right_child=1 4 3 -5 5 13 -8 9 21 -11 11 12 -14 17 -16 -17 18 -19 -20 20 22 -23 26 -25 25 27 28 -29 29 -31
leaf_value=0.05289112114857384 -0.024911169006753789 0.029468120859309246 -0.00407449043181724 0.035482879704970972 -0.021008579333946963 0.015080331655023621 -0.015616402002798929 -0.004927921884353233 -0.0062517389472913146 0.021187067979802656 -0.012411031114702396 0.062411249123134997 0.0047326194816698971 -0.020442723395551518 -0.006726915709313816 0.073015390185416792 0.029172304648345609 -0.0036594657657561588 -0.043576912895562786 -0.013406398583805258 -0.0099327058660779472 -0.040117191550575221 -0.041107870574360328 0.074191829791297029 0.07119348935770263 -0.028317952492981791 0.0029629707749760292 0.027380952933287295 0.0058584572938542691 0.041484041337176203
leaf_weight=8.6870294362306577 70.413854762911797 20.542898178100586 36.204212680459023 61.339985549449921 152.74723319709301 66.954614907503128 79.658846855163574 7.0340818762779262 253.56472827494144 141.5070689022541 130.49467055499554 15.526762112975119 29.471833482384682 68.495999291539192 8.0820029973983747 18.804864585399628 28.27464659512043 1330.7600540220737 7.9282860159873954 57.334611743688583 51.031975641846657 16.191071674227715 14.562016278505324 15.306279852986334 15.215654313564299 10.894163981080057 918.43501411378384 12.236671641469 46.717103779315948 27.309674322605133
leaf_count=34 211 65 103 210 416 212 228 18 720 456 419 54 83 180 17 71 96 3913 30 146 150 39 38 57 54 32 2810 34 143 104
internal_value=-0.000499454 -0.00386923 0.00569356 0.0208009 -0.003236 -0.0052314 0.00124528 0.00334001 -0.00561284 0.0107462 0.00369108 -0.00291208 0.0246346 -0.00358776 0.0378531 0.051797 0.00447963 -0.00448104 0.0041307 0.0044466 0.00384858 -0.00828438 0.00473848 0.0166072 0.00674571 0.0289415 0.00350467 0.00114788 0.00415926 0.0190013
internal_weight=3721.73 2410.25 1311.48 97.5442 2339.84 1618.96 720.879 641.22 290.299 350.921 209.414 175.493 44.9986 1466.21 33.9209 25.8389 1213.93 1399.26 1205.25 1197.32 1169.04 269.756 1111.71 104.685 89.3785 38.3465 1007.02 23.1308 992.462 74.0268
internal_count=11143 7102 4041 313 6891 4721 2170 1942 824 1118 662 556 137 4305 106 89 3728 4093 3694 3664 3568 759 3422 327 270 120 3095 66 3057 247
is_linear=0
shrinkage=0.05


Tree=25
num_leaves=31
num_cat=0
split_feature=4 14 13 14 10 10 10 7 0 0 2 1 0 4 2 2 1 14 4 14 4 1 14 2 4 13 13 2 0 13
split_gain=23.2356 27.8969 14.6742 13.3885 11.4416 10.8726 10.6428 9.99865 8.87506 8.43141 15.5354 8.87362 8.44986 11.1345 9.99206 12.5875 11.5797 17.9394 12.6427 9.7129 12.5724 9.57408 9.05273 10.8003 8.98516 8.89514 17.7919 15.256 8.71415 8.28662
threshold=251.19815557960789 -0.56130511900508118 -1.6491239166738836 2.7436127315896361 0.26742992798487347 0.89339190721511852 -0.36721554398536677 0.49891982972621923 -0.14750479161739347 0.25398191809654241 2.5145091787905991 39.79946804101418 -0.040957920253276818 251.46831738161617 2.3220914809251147 2.5335892560534052 15.427283186689172 -0.37033714842268678 251.34777649863557 0.37305303252363403 251.26035914404801 11.073347261392529 -0.16385849690165491 2.5156624018358693 251.21516313290746 -0.15960155831046499 -0.76656544760495671 2.0450658656902525 -0.090626016259193407 1.5719562216313236
decision_type=2 2 2 2 2 2 2 2 2 2 2 2 2 2 2 2 2 2 2 2 2 2 2 2 2 2 2 2 2 2
left_child=1 5 -2 4 6 -1 -3 -6 -8 12 11 -11 14 -14 16 19 21 -18 -19 22 28 -4 23 24 -16 26 -23 -27 -21 -10
right_child=2 3 9 -5 7 -7 8 -9 29 10 -12 -13 13 -15 15 -17 17 18 -20 20 -22 25 -24 -25 -26 27 -28 -29 -30 -31
leaf_value=-0.015494650190927162 -0.020656923621681891 -0.045227635406948914 -0.012453287308037957 -0.032877850190858045 -0.047615129977981625 0.050807257213258156 -0.033406118021281787 0.010982779575783716 0.0036398707881598897 0.0075765160110142912 0.03540631897885229 -0.048935183868217248 0.0026154731958238095 -0.036627261058423767 -0.032586622242084341 -0.025487847536010758 -0.04839103681825585 -0.021278413767507155 0.032538912931916422 -0.015876148622627803 -0.037462046694215191 -0.014737312848009608 0.036013920030273087 0.046972381032028838 0.013521787223607815 -0.017642135230881522 0.043594164446915717 0.032159577315502452 0.03789686866645571 -0.016411288576237883
leaf_weight=424.68826623260975 56.738908216357231 11.938348978757857 39.446724534034729 29.921383365988731 21.930285349488258 6.2746775448322287 17.237122029066086 10.897038996219633 1136.0087070763111 69.39426788687706 62.875371679663658 7.7191729545593253 1270.891963750124 18.336331009864807 11.929395377635954 17.063081786036491 25.522442743182182 22.909676551818848 20.839434653520584 12.398260369896891 16.119473040103912 17.722496435046196 85.408140450716019 21.764389142394066 92.440714403986931 38.436019062995911 49.822179183363914 25.633201956748962 19.204197436571121 53.975691959261894
leaf_count=1531 217 57 126 123 97 10 75 32 3390 186 116 33 3642 74 44 60 110 81 46 41 61 57 165 37 232 126 91 53 37 193
internal_value=0.000751167 -0.00352422 0.00440798 0.000175567 0.000965515 -0.0145293 0.00174985 -0.0281635 0.00221441 0.00513883 0.01696 0.00191961 0.00422248 0.00205733 0.00962519 0.0161099 0.00216927 -0.0150776 0.00435691 0.0188476 -0.00152815 0.00915344 0.0234441 0.0149329 0.00825164 0.0156293 0.028289 0.00228284 0.0168007 0.00273038
internal_weight=3715.49 1712.87 2002.62 1281.91 1251.99 430.963 1219.16 32.8273 1207.22 1945.88 139.989 77.1134 1805.89 1289.23 516.66 276.328 240.332 69.2716 43.7491 259.265 47.7219 171.061 211.543 126.134 104.37 131.614 67.5447 64.0692 31.6025 1189.98
internal_count=11143 5508 5635 3967 3844 1541 3715 129 3658 5418 335 219 5083 3716 1367 677 690 237 127 617 139 453 478 313 276 327 148 179 78 3583
is_linear=0
shrinkage=0.05


Tree=26
num_leaves=31
num_cat=0
split_feature=1 1 1 1 4 12 1 9 1 1 4 0 1 1 0 0 0 1 4 1 1 1 4 11 4 1 1 1 1 1
split_gain=6.35484 7.1618 12.915 10.6547 6.9683 6.38991 9.63351 7.27844 6.13315 7.76744 14.6823 6.33175 6.02653 7.56029 4.73206 4.14484 5.07274 4.14114 7.47534 7.62477 5.69967 13.8821 12.8904 11.0018 8.04758 7.47364 16.5923 14.6782 15.8364 14.2586
threshold=42.339351222696763 40.646248646162945 40.482318758357103 40.85983834447125 251.011431713897 0.32044613665605254 35.987338559524154 0.075678840279579176 42.004142009413833 41.393200168613667 250.98892584776411 0.061835516244173057 41.868982845799962 41.810059155251771 0.044775135815143592 0.085180871188640608 0.1824874430894852 40.21579082811288 250.98371733205948 40.409352260348697 37.780240246599156 38.499971677928123 251.3522071657342 0.35441173969235246 251.37219636847877 30.969908647291032 28.854304152676601 33.811718005492189 33.997022401260729 28.972248660589276
decision_type=2 2 2 2 2 2 2 2 2 2 2 2 2 2 2 2 2 2 2 2 2 2 2 2 2 2 2 2 2 2
left_child=1 2 5 -3 -2 17 7 -7 9 14 -11 -12 13 -13 -5 -10 -17 20 -19 -20 25 24 23 -23 -22 26 -1 -27 -29 -28
right_child=4 3 -4 8 -6 6 -8 -9 15 10 11 12 -14 -15 -16 16 -18 18 19 -21 21 22 -24 -25 -26 27 29 28 -30 -31
leaf_value=-0.00078164776745584985 0.057002910757502835 -0.033346996633641116 0.058495865143692066 0.01606318333343066 0.0088224331881496861 -0.010657851234815646 0.046314447402470836 0.020324699611571781 -0.044041031341098907 -0.03446559205176522 -0.0014344513104322513 0.040197488860866742 0.063602772406525149 -0.014270312602235513 -0.018135840965839724 0.019341096157365331 -0.028606427763040516 -0.044301158983564341 0.030474417255184655 -0.019264695645133549 0.018940164903133744 0.0039931237139177282 -0.020360784087457229 0.074756684040008292 0.073849642740635615 -0.01837839027385527 0.081190336284091724 0.046147339468962309 -0.0030157191926552772 0.013192703882751913
leaf_weight=2170.9859381616116 8.8244441449642164 38.144229307770729 9.4222451597452146 12.447609633207319 50.173334375023842 37.30701057612896 17.422219350934029 38.536471411585808 13.775091826915739 13.787934884428976 18.368758216500282 18.396884754300117 12.041571855545042 9.7458836734294909 53.975341439247131 9.2197146266698855 13.733139157295225 15.009316816926001 11.829394295811651 22.098804086446762 72.60718934237957 244.03294242918491 59.223033085465431 5.6191560178995124 7.3481633067131034 171.0466160774231 8.2147150635719282 17.049858435988426 417.02095408737659 125.36410795152187
leaf_count=6440 30 104 35 48 155 105 66 154 23 37 41 71 44 30 169 34 33 38 35 61 226 728 137 22 29 515 34 61 1243 395
internal_value=-0.000250383 -0.000512528 3.75647e-05 -0.00939631 0.0160289 -0.000122521 0.0127864 0.00508455 -0.00419048 0.000618393 0.0119538 0.0228845 0.034001 0.0213352 -0.011727 -0.0223592 -0.00934684 -0.000482185 -0.0149203 -0.00192267 -0.000267977 0.00541765 0.000610913 0.00558587 0.0239865 -0.00102777 0.000270724 -0.00597301 -0.00108464 0.0173744
internal_weight=3722.77 3663.77 3450.14 213.636 58.9978 3440.72 93.2657 75.8435 175.492 138.764 72.341 58.5531 40.1843 28.1428 66.423 36.7279 22.9529 3347.45 48.9375 33.9282 3298.51 388.83 308.875 249.652 79.9554 2909.68 2304.56 605.117 434.071 133.579
internal_count=11143 10958 10324 634 185 10289 325 259 530 440 223 186 145 101 217 90 67 9964 134 96 9830 1142 887 750 255 8688 6869 1819 1304 429
is_linear=0
shrinkage=0.05


Tree=27
num_leaves=31
num_cat=0
split_feature=4 2 2 4 4 2 4 2 2 0 2 4 2 2 4 14 2 4 2 4 2 4 4 2 0 4 2 14 4 14
split_gain=28.3563 12.6133 20.7517 12.5519 12.1822 9.54511 12.5508 8.88442 9.43947 11.5619 8.62314 8.52472 16.9356 8.34765 21.996 8.18229 8.14508 10.2059 9.56254 11.5973 10.3037 12.7762 17.4854 11.631 10.5204 8.98713 9.8766 8.25751 7.90452 7.59458
threshold=251.01534050598482 2.4595313138699031 2.4356035099451918 250.63071007546367 251.02672233334096 2.4174878442372676 250.9818945007855 2.6763299643683625 2.6273767594511628 0.22357372194528582 2.4096982179146713 250.62240974048427 2.8336705516408887 2.31964318830298 251.03611478220071 -0.26564461395664213 2.3915514468851526 251.23386439441649 2.4034886345830611 251.20349336086215 2.4381870967937433 251.29457084257055 251.29060919423773 2.4992153825370012 0.086832761764526381 251.09043446336759 2.3822478035187893 -0.36374543177509899 250.57762088298293 0.19430472154450967
decision_type=2 2 2 2 2 2 2 2 2 2 2 2 2 2 2 2 2 2 2 2 2 2 2 2 2 2 2 2 2 2
left_child=1 2 5 7 -2 10 -7 8 9 -3 -1 28 -13 -6 15 -15 17 25 19 -18 -20 22 -22 27 -24 -16 -27 -23 -9 -12
right_child=4 3 -4 -5 13 6 -8 11 -10 -11 29 12 -14 14 16 -17 18 -19 20 -21 21 23 24 -25 -26 26 -28 -29 -30 -31
leaf_value=0.0081091844199519692 -0.024292181275665799 -0.0079008812718924012 0.040729938607963277 -0.0020094599993523794 0.00045314177813209869 -0.045443874713183723 0.038130740519534613 0.052004386983129536 -0.031773332390880607 0.073238285364832165 0.064575896193630494 0.078355875008269515 -0.0025390713851667227 0.015086137818906099 -0.024506800331850716 0.086699558682535594 0.046259686051236294 -0.024215508146336343 -0.017790222488601504 0.0015517270390806718 0.00022411189449573831 -0.010021458911588088 0.062896391433249918 -0.015293931337105104 0.0019786154361901174 0.0032548054522421065 -0.026833935037031988 0.01836549817168534 0.0087888383898099155 0.0056892812467635584
leaf_weight=409.39482475817204 69.765703216195107 15.185278192162516 54.542329043149948 608.63216768205166 971.37886622548103 16.926477029919628 6.1152098327875128 11.650585785508154 20.781403318047523 6.1761201024055472 13.069986671209337 15.211511820554735 11.258401647210119 7.5985070914030066 55.577812552452087 8.3958389461040479 19.65900020301342 125.05991365015507 139.69217097759247 55.332069277763367 359.40646369755268 49.876389801502228 18.749776244163517 262.9098402261734 11.394393995404242 164.2866325378418 32.702374711632729 52.673360913991928 115.27978377044201 9.4227428734302503
leaf_count=1282 211 31 175 1827 2964 57 19 39 73 24 50 57 36 20 160 32 66 334 408 146 1091 130 64 693 27 479 95 182 349 22
internal_value=-0.000476529 0.00543096 0.0115864 0.00153128 -0.00370402 0.00809235 -0.0232634 0.0125519 -0.00778171 0.0155585 0.00976521 0.0181381 0.043949 -0.0030888 -0.00561247 0.0526778 -0.00630445 -0.0125342 -0.00387842 0.013272 -0.00531591 -0.00300791 0.00329196 -0.00972306 0.0398697 -0.00675008 -0.00174026 0.00455914 0.0127555 0.0399069
internal_weight=3718.11 1313.65 509.472 804.175 2404.46 454.929 23.0417 195.543 42.1428 21.3614 431.888 153.4 26.4699 2334.69 1363.31 15.9943 1347.32 377.627 969.693 74.9911 894.702 755.01 389.551 365.46 30.1442 252.567 196.989 102.55 126.93 22.4927
internal_count=11143 4041 1605 2436 7102 1430 76 609 128 55 1354 481 93 6891 3927 52 3875 1068 2807 212 2595 2187 1182 1005 91 734 574 312 388 72
is_linear=0
shrinkage=0.05


Tree=28
num_leaves=31
num_cat=0
split_feature=4 14 12 13 13 13 0 2 14 14 12 2 4 14 4 0 0 2 12 2 13 4 14 8 2 1 0 1 14 14
split_gain=20.8765 26.2855 14.2308 13.7563 11.8809 10.0338 11.2685 10.0771 21.6728 16.478 13.1984 13.7979 13.1191 16.3233 12.7174 10.9286 13.8311 15.7258 10.9083 9.8888 12.5265 9.51568 9.48845 9.42575 9.0213 10.5614 12.4474 12.2355 9.1887 9.21855
threshold=251.19815557960789 -0.56130511900508118 1.0000000180025095e-35 -1.6491239166738836 -1.7963463457975835 1.2970761429675071 -0.14750479161739347 2.495983901299144 -0.39487318634784407 -0.3216572872913504 -1.0000000180025095e-35 2.4852622636592234 250.63844174467371 -0.38215881540739721 250.88005597486833 0.11892895400524141 0.064613856375217452 2.6815708626560828 -1.0000000180025095e-35 2.3426258811149725 0.21063304452046303 251.15807412767143 0.37305303252363403 0.94669595360755932 2.4801994106321117 34.378477400822796 0.18568663299083712 33.722102952209461 -0.23475973729274843 -0.29021833157289995
decision_type=2 2 2 2 2 2 2 2 2 2 2 2 2 2 2 2 2 2 2 2 2 2 2 2 2 2 2 2 2 2
left_child=1 23 4 -2 22 6 -6 8 14 -10 -11 24 13 -9 -8 16 17 -15 -16 -20 -21 -7 -3 -1 25 27 28 -12 29 -27
right_child=3 2 -4 -5 5 21 7 12 9 10 11 -13 -14 15 18 -17 -18 -19 19 20 -22 -23 -24 -25 -26 26 -28 -29 -30 -31
leaf_value=-0.015001958513135414 -0.020193486766149224 0.0027632742096070405 -0.02771636158558928 0.0048754936268100117 -0.045234713205545646 -0.018565939635646504 -0.01263817240476576 -0.04946778885168629 -0.036727356192054854 -0.046255538326702997 -0.0046116234869245359 -0.049003632167917532 0.01719471537568263 0.045358758513056097 0.076695568472280179 -0.008639754911101442 0.046834627028955259 -0.028104020711706791 0.0085789708365217546 0.0037449672043528533 0.067949630186245336 0.030942045027456316 -0.046921284372342997 0.045323075192507362 0.052165838067912397 0.017805446967274898 -0.0092146505886527199 -0.049159594602784309 0.017251668178596406 -0.049563855983103394
