tree
version=v4
num_class=1
num_tree_per_iteration=1
label_index=0
max_feature_idx=49
objective=regression
feature_names=Column_0 Column_1 Column_2 Column_3 Column_4 Column_5 Column_6 Column_7 Column_8 Column_9 Column_10 Column_11 Column_12 Column_13 Column_14 Column_15 Column_16 Column_17 Column_18 Column_19 Column_20 Column_21 Column_22 Column_23 Column_24 Column_25 Column_26 Column_27 Column_28 Column_29 Column_30 Column_31 Column_32 Column_33 Column_34 Column_35 Column_36 Column_37 Column_38 Column_39 Column_40 Column_41 Column_42 Column_43 Column_44 Column_45 Column_46 Column_47 Column_48 Column_49
feature_infos=[-0.26058514559856982:0.1281210258681611] [-0.37831929026626254:0.22401460359694125] [-0.45195109948543155:0.29358377833713423] [-0.30521005880458407:0.14682940309573245] [-0.36388616134483898:0.17392051433737099] [6.8457488985232686:96.540749826434876] [0:0.069277287110260571] [0:5.2455623685594706] [-0.37831929026626254:0.22401460359694125] [-0.36933890438332267:1.4396714665801482] [-0.26058514559856982:0.21919035070290427] [-0.37831929026626254:0.22401460359694125] [-0.45195109948543155:0.29358377833713423] [-0.30521005880458407:0.16786230333169749] [-0.36388616134483898:0.17392051433737099] [6.8457488985232686:96.540749826434876] [0:0.069277287110260571] [0:5.2455623685594706] [-0.37831929026626254:0.22401460359694125] [-0.36933890438332267:1.4396714665801482] [-0.26058514559856982:0.21919035070290427] [-0.37831929026626254:0.22401460359694125] [-0.45195109948543155:0.29358377833713423] [-0.30521005880458407:0.17973170025816154] [-0.36388616134483898:0.17392051433737099] [6.8457488985232686:96.540749826434876] [0:0.069277287110260571] [0:5.2455623685594706] [-0.37831929026626254:0.22401460359694125] [-0.36933890438332267:1.4396714665801482] [-0.26058514559856982:0.21919035070290427] [-0.37831929026626254:0.22401460359694125] [-0.45195109948543155:0.29358377833713423] [-0.30521005880458407:0.17973170025816154] [-0.36388616134483898:0.17392051433737099] [6.8457488985232686:96.540749826434876] [0:0.069277287110260571] [0:5.2455623685594706] [-0.37831929026626254:0.22401460359694125] [-0.36933890438332267:1.4396714665801482] [-0.26058514559856982:0.21919035070290427] [-0.37831929026626254:0.22401460359694125] [-0.45195109948543155:0.29358377833713423] [-0.30521005880458407:0.17973170025816154] [-0.36388616134483898:0.17392051433737099] [6.8457488985232686:96.540749826434876] [0:0.069277287110260571] [0.35783937767064755:5.2455623685594706] [-0.37831929026626254:0.22401460359694125] [-0.36933890438332267:1.4396714665801482]
tree_sizes=2486 2729

Tree=0
num_leaves=28
num_cat=0
split_feature=2 31 10 9 49 7 39 15 27 26 26 1 0 25 24 5 2 40 42 32 33 5 15 37 2 20 0
split_gain=2.10289 3.47663 4.87803 3.27465 5.56235 2.81812 2.38358 2.0947 3.85483 3.82524 3.36855 4.06171 2.74571 1.93456 3.06704 1.99319 1.7754 1.85382 1.66562 1.83492 1.44892 3.31206 2.04848 1.23641 1.15063 1.10095 0.917112
threshold=-0.051537260152869961 -0.048272949818906778 -0.016465927433560675 0.77963683806970796 0.5967798906702354 1.2274198810972068 0.75771758216616447 49.684837318905956 1.2613925487673832 0.012135430916734196 0.014014075326792311 -0.0037098655375752405 -0.0015444972741019967 59.898991506259236 0.018488880013290635 67.073781363810767 -0.17448552880235227 0.010600729533808197 -0.033042209290012774 0.0039518699235266972 0.019953940062380941 69.962858312016309 61.515259598006708 0.74618276081893165 -0.094840557930568156 -0.011227986216562623 0.00085836105168413124
decision_type=2 2 2 2 2 2 2 2 2 2 2 2 2 2 2 2 2 2 2 2 2 2 2 2 2 2 2
left_child=1 -1 -3 5 -5 7 -6 8 10 -9 18 12 -12 14 23 26 -4 24 -2 -20 -8 22 -22 -11 -18 -25 -15
right_child=3 2 16 4 6 -7 20 9 -10 13 11 -13 -14 15 -16 -17 17 -19 19 -21 21 -23 -24 25 -26 -27 -28
leaf_value=0.022119945584282298 0.09774957719181257 0.10571783078820457 0.076816243054848743 0.017771081131980872 0.086344171780362994 0.098416243587474569 0.036364961283874481 0.03574957579587644 0.10008290991836984 0.059628364694300259 0.039844814512816698 0.019954703814029695 0.084130528695919193 0.049788792725827244 0.1167495768536406 0.094527354321422161 0.040082909231422423 0.026416242555132086 0.050638465709698752 0.088416243893248606 0.068416242800690807 0.085082909937716222 0.025082909132081346 0.10508291012017025 0.068511481840866528 0.072701957823813002 0.075992001437238915
leaf_weight=27 20 21 25 31 37 38 26 20 24 22 28 39 28 34 32 24 24 30 36 20 20 38 24 21 35 21 22
leaf_count=27 20 21 25 31 37 38 26 20 24 22 28 39 28 34 32 24 24 30 36 20 20 38 24 21 35 21 22
internal_value=0.064996 0.0548771 0.0614286 0.0677055 0.0562193 0.0724178 0.0644392 0.0698911 0.062553 0.0771918 0.0572856 0.044732 0.0619877 0.0819011 0.0914718 0.0704162 0.05327 0.0466559 0.0729776 0.0641305 0.0569348 0.0634569 0.0447799 0.0788329 0.0569473 0.0888924 0.0600829
internal_weight=767 162 135 605 176 429 145 391 195 196 171 95 56 176 96 80 114 89 76 56 108 82 44 64 59 42 56
internal_count=767 162 135 605 176 429 145 391 195 196 171 95 56 176 96 80 114 89 76 56 108 82 44 64 59 42 56
is_linear=0
shrinkage=1


Tree=1
num_leaves=30
num_cat=0
split_feature=10 26 2 35 16 3 19 11 19 15 30 33 6 10 8 2 10 11 48 25 7 3 8 40 36 16 43 29 31
split_gain=1.87438 2.32457 3.78058 3.37208 2.5798 3.06178 2.5154 2.27944 2.35013 3.02473 3.69255 2.55093 2.3232 1.68597 2.231 2.4246 1.96358 1.88911 1.78589 1.54939 1.49308 1.374 2.13517 1.34369 1.32881 1.71104 0.92388 0.775771 0.696347
threshold=0.037893972189479659 0.024799433451416521 -0.094840557930568156 75.996012054873702 0.022965816587299698 0.041051846733443205 0.87789376559505772 -0.083845317487849055 0.16426456133988879 48.257603506327762 -0.022259625144601055 0.03707911588305824 0.04121758050382298 0.011053080700573871 -0.029322361645287339 -0.041955221928917368 -0.01691539114050877 -0.035060122430826506 0.018517060510939824 55.393560932967574 0.76719207979146686 0.026479472926072115 0.01607236874923124 0.0098638761477465326 0.010815163487423408 0.014812215585475205 -0.010221560895398883 0.73713330646658559 0.0039144608696150005
decision_type=2 2 2 2 2 2 2 2 2 2 2 2 2 2 2 2 2 2 2 2 2 2 2 2 2 2 2 2 2
left_child=1 2 -1 7 5 6 13 -3 -9 11 -11 -10 19 14 17 -16 -17 -4 -15 -12 -21 22 24 -2 -18 28 -27 -24 -26
right_child=23 3 4 -5 -6 -7 -8 8 9 10 12 -13 -14 18 15 16 21 -19 -20 20 -22 -23 27 -25 25 26 -28 -29 -30
leaf_value=-0.044303757484470102 -0.033820744790136817 -0.012244200930581428 0.00022114046732895078 -0.029309834788242978 -0.028713799162857958 0.033752947907756875 -0.031754953123629096 0.046572602378285449 -0.020792299642776832 -0.015874504014140086 0.062372264079749586 0.02179410274733197 0.00017884887754917147 0.032422889006556946 -0.03587160452827811 -0.024640932141670159 0.027744619566060249 0.037793686601292828 -4.5127318137221865e-05 0.045470697766747975 0.012468981205557401 0.024659536965191367 -0.034292174541306772 0.00037726336158812047 -0.0031550541391660429 0.028601533961905675 0.00023085161422689758 -0.0070798870921134948 -0.027409812659025191
leaf_weight=21 27 32 32 21 31 27 25 23 39 21 20 22 20 32 25 35 21 23 36 29 26 22 22 20 29 22 24 20 20
leaf_count=21 27 32 32 21 31 27 25 23 39 21 20 22 20 32 25 35 21 23 36 29 26 22 22 20 29 22 24 20 20
internal_value=8.01488e-05 0.00134318 -0.00283904 0.00906293 -0.000886666 0.00119199 -0.00107385 0.0125363 0.0165012 0.0125936 0.0220733 -0.00543327 0.0304617 0.00103917 -0.00223284 -0.00639592 -0.00296851 0.0159333 0.0152339 0.0385372 0.0298699 0.00124557 -0.0020146 -0.0192684 0.00498033 -5.17751e-05 0.0137994 -0.0213339 -0.013055
internal_weight=767 720 467 253 446 415 388 232 200 177 116 61 95 363 295 240 215 55 68 75 55 180 158 47 116 95 46 42 49
internal_count=767 720 467 253 446 415 388 232 200 177 116 61 95 363 295 240 215 55 68 75 55 180 158 47 116 95 46 42 49
is_linear=0
shrinkage=0.1


end of trees

feature_importances:
Column_2=5
Column_10=4
Column_15=3
Column_26=3
Column_0=2
Column_3=2
Column_5=2
Column_7=2
Column_8=2
Column_11=2
Column_16=2
Column_19=2
Column_25=2
Column_31=2
Column_33=2
Column_40=2
Column_1=1
Column_6=1
Column_9=1
Column_20=1
Column_24=1
Column_27=1
Column_29=1
Column_30=1
Column_32=1
Column_35=1
Column_36=1
Column_37=1
Column_39=1
Column_42=1
Column_43=1
Column_48=1
Column_49=1

parameters:
[boosting: gbdt]
[objective: regression]
[metric: rmse]
[tree_learner: serial]
[device_type: cpu]
[data_sample_strategy: bagging]
[data: ]
[valid: ]
[num_iterations: 500]
[learning_rate: 0.1]
[num_leaves: 31]
[num_threads: 0]
[seed: 42]
[deterministic: 0]
[force_col_wise: 0]
[force_row_wise: 0]
[histogram_pool_size: -1]
[max_depth: -1]
[min_data_in_leaf: 20]
[min_sum_hessian_in_leaf: 0.001]
[bagging_fraction: 0.8]
[pos_bagging_fraction: 1]
[neg_bagging_fraction: 1]
[bagging_freq: 5]
[bagging_seed: 400]
[bagging_by_query: 0]
[feature_fraction: 0.8]
[feature_fraction_bynode: 1]
[feature_fraction_seed: 30056]
[extra_trees: 0]
[extra_seed: 12879]
[early_stopping_round: 0]
[early_stopping_min_delta: 0]
[first_metric_only: 0]
[max_delta_step: 0]
[lambda_l1: 0]
[lambda_l2: 0]
[linear_lambda: 0]
[min_gain_to_split: 0]
[drop_rate: 0.1]
[max_drop: 50]
[skip_drop: 0.5]
[xgboost_dart_mode: 0]
[uniform_drop: 0]
[drop_seed: 17869]
[top_rate: 0.2]
[other_rate: 0.1]
[min_data_per_group: 100]
[max_cat_threshold: 32]
[cat_l2: 10]
[cat_smooth: 10]
[max_cat_to_onehot: 4]
[top_k: 20]
[monotone_constraints: ]
[monotone_constraints_method: basic]
[monotone_penalty: 0]
[feature_contri: ]
[forcedsplits_filename: ]
[refit_decay_rate: 0.9]
[cegb_tradeoff: 1]
[cegb_penalty_split: 0]
[cegb_penalty_feature_lazy: ]
[cegb_penalty_feature_coupled: ]
[path_smooth: 0]
[interaction_constraints: ]
[verbosity: -1]
[saved_feature_importance_type: 0]
[use_quantized_grad: 0]
[num_grad_quant_bins: 4]
[quant_train_renew_leaf: 0]
[stochastic_rounding: 1]
[linear_tree: 0]
[max_bin: 255]
[max_bin_by_feature: ]
[min_data_in_bin: 3]
[bin_construct_sample_cnt: 200000]
[data_random_seed: 175]
[is_enable_sparse: 1]
[enable_bundle: 1]
[use_missing: 1]
[zero_as_missing: 0]
[feature_pre_filter: 1]
[pre_partition: 0]
[two_round: 0]
[header: 0]
[label_column: ]
[weight_column: ]
[group_column: ]
[ignore_column: ]
[categorical_feature: ]
[forcedbins_filename: ]
[precise_float_parser: 0]
[parser_config_file: ]
[objective_seed: 16083]
[num_class: 1]
[is_unbalance: 0]
[scale_pos_weight: 1]
[sigmoid: 1]
[boost_from_average: 1]
[reg_sqrt: 0]
[alpha: 0.9]
[fair_c: 1]
[poisson_max_delta_step: 0.7]
[tweedie_variance_power: 1.5]
[lambdarank_truncation_level: 30]
[lambdarank_norm: 1]
[label_gain: ]
[lambdarank_position_bias_regularization: 0]
[eval_at: ]
[multi_error_top_k: 1]
[auc_mu_weights: ]
[num_machines: 1]
[local_listen_port: 12400]
[time_out: 120]
[machine_list_filename: ]
[machines: ]
[gpu_platform_id: -1]
[gpu_device_id: -1]
[gpu_use_dp: 0]
[num_gpu: 1]

end of parameters

pandas_categorical:null
