tree
version=v4
num_class=1
num_tree_per_iteration=1
label_index=0
max_feature_idx=49
objective=regression
feature_names=Column_0 Column_1 Column_2 Column_3 Column_4 Column_5 Column_6 Column_7 Column_8 Column_9 Column_10 Column_11 Column_12 Column_13 Column_14 Column_15 Column_16 Column_17 Column_18 Column_19 Column_20 Column_21 Column_22 Column_23 Column_24 Column_25 Column_26 Column_27 Column_28 Column_29 Column_30 Column_31 Column_32 Column_33 Column_34 Column_35 Column_36 Column_37 Column_38 Column_39 Column_40 Column_41 Column_42 Column_43 Column_44 Column_45 Column_46 Column_47 Column_48 Column_49
feature_infos=[-0.26058514559856982:0.24432643883758876] [-0.37831929026626254:0.4412782296084603] [-0.45195109948543155:0.60088934495834301] [-0.30521005880458407:0.3311183120206862] [-0.36388616134483898:0.42110852340341309] [6.8457488985232686:96.540749826434876] [0:0.069277287110260571] [0:5.2455623685594706] [-0.37831929026626254:0.4412782296084603] [-0.36933890438332267:1.4396714665801482] [-0.26058514559856982:0.24432643883758876] [-0.37831929026626254:0.4412782296084603] [-0.45195109948543155:0.60088934495834301] [-0.30521005880458407:0.3311183120206862] [-0.36388616134483898:0.42110852340341309] [6.8457488985232686:96.540749826434876] [0:0.069277287110260571] [0:5.2455623685594706] [-0.37831929026626254:0.4412782296084603] [-0.36933890438332267:1.4396714665801482] [-0.26058514559856982:0.24432643883758876] [-0.37831929026626254:0.4412782296084603] [-0.45195109948543155:0.60088934495834301] [-0.30521005880458407:0.3311183120206862] [-0.36388616134483898:0.42110852340341309] [6.8457488985232686:96.540749826434876] [0:0.069277287110260571] [0:5.2455623685594706] [-0.37831929026626254:0.4412782296084603] [-0.36933890438332267:1.4396714665801482] [-0.26058514559856982:0.24432643883758876] [-0.37831929026626254:0.4412782296084603] [-0.45195109948543155:0.60088934495834301] [-0.30521005880458407:0.3311183120206862] [-0.36388616134483898:0.42110852340341309] [6.8457488985232686:96.540749826434876] [0:0.069277287110260571] [0:5.2455623685594706] [-0.37831929026626254:0.4412782296084603] [-0.36933890438332267:1.4396714665801482] [-0.26058514559856982:0.24432643883758876] [-0.37831929026626254:0.4412782296084603] [-0.45195109948543155:0.60088934495834301] [-0.30521005880458407:0.3311183120206862] [-0.36388616134483898:0.42110852340341309] [6.8457488985232686:96.540749826434876] [0:0.069277287110260571] [0.23085252908442305:5.2455623685594706] [-0.37831929026626254:0.4412782296084603] [-0.36933890438332267:1.4396714665801482]
tree_sizes=2770 2840 2858

Tree=0
num_leaves=31
num_cat=0
split_feature=47 10 10 31 7 7 1 41 6 6 20 20 27 27 27 44 44 21 3 27 41 10 1 47 44 32 32 21 21 23
split_gain=3.20327 2.6354 2.45825 2.78821 4.02426 5.64303 2.52583 2.35863 2.36252 3.13207 2.60779 2.34152 2.29123 2.24954 2.41818 2.818 3.27111 2.34323 2.33909 2.2569 2.19947 3.63234 3.01394 3.63277 2.12935 2.07594 4.84344 2.21107 3.19971 2.03558
threshold=2.1262118383438486 0.038623964956917896 0.011600347482930042 0.03797871641580431 0.80448950834529021 0.98073909837215134 0.040024961527160625 -0.02615537467534201 0.036149337353988835 0.021350000843591416 -0.0076047143726547519 0.032509647867535636 0.91171603677009128 1.1958929141766055 0.98712655793522941 0.017586165149112157 0.043192494021634394 0.02586555659597756 0.025795812344391326 0.89976109589637687 -0.037831002882655666 -0.014125766500961865 -0.02763952669982039 1.0269461892097749 -0.00038015427534965335 -0.075748628807893334 -0.010404230988129646 0.043932769693995295 -0.0038520664687549662 -0.029574044488981262
decision_type=2 2 2 2 2 2 2 2 2 2 2 2 2 2 2 2 2 2 2 2 2 2 2 2 2 2 2 2 2 2
left_child=1 2 7 29 -5 -6 -7 20 9 13 -11 25 -10 14 17 24 -17 18 19 -9 21 22 -1 -24 -16 -12 -27 28 -28 -4
right_child=-2 -3 3 4 5 6 -8 8 12 10 11 -13 -14 -15 15 16 -18 -19 -20 -21 -22 -23 23 -25 -26 26 27 -29 -30 -31
leaf_value=0.07885422077931932 0.042949047897003469 0.048744570980626262 0.1055208878123062 0.038650731288462359 0.10968755460314922 0.03843755316054509 0.078826443006410771 0.069137553459431247 0.072478434553126372 0.03627768947077048 0.090023575146111562 0.030604219964695832 0.10784231634268278 0.086437554079855067 0.053523759954838254 0.0097056688584883713 0.063039002852841405 0.055681142979788933 0.10542473400673821 0.098020887459349504 0.046566484035050169 0.078204220763398072 0.059149675093121266 0.01793755309113973 0.095937553725195787 0.027227875498265983 0.085520887505915633 0.10260422163362588 0.038777059326561815 0.078171986225817197
leaf_weight=32 58 76 32 43 32 32 30 175 53 49 31 20 28 80 29 23 23 65 26 32 106 100 55 35 20 31 32 20 27 182
leaf_count=32 58 76 32 43 32 32 30 175 53 49 31 20 28 80 29 23 23 65 26 32 106 100 55 35 20 31 32 20 27 182
internal_value=0.0660136 0.0668943 0.0678502 0.0751303 0.0639911 0.0755829 0.0579806 0.0655102 0.0685554 0.0666403 0.0564772 0.0626249 0.084703 0.0711525 0.068041 0.0541481 0.0363723 0.07247 0.0771536 0.0736026 0.0584172 0.0640757 0.0524949 0.0431227 0.0708355 0.0671669 0.0607254 0.07387 0.0641296 0.0822615
internal_weight=1577 1519 1443 351 137 94 62 1092 764 683 210 161 81 473 393 95 46 298 233 207 328 222 122 90 49 141 110 79 59 214
internal_count=1577 1519 1443 351 137 94 62 1092 764 683 210 161 81 473 393 95 46 298 233 207 328 222 122 90 49 141 110 79 59 214
is_linear=0
shrinkage=1


Tree=1
num_leaves=31
num_cat=0
split_feature=47 10 30 10 31 13 40 0 12 11 8 15 0 48 16 43 13 2 47 17 45 43 29 40 31 32 2 9 20 20
split_gain=2.59465 2.13467 2.38034 1.99118 2.25845 3.73268 2.56408 2.39355 2.2941 2.01908 4.60577 2.327 2.39359 1.91049 2.33109 3.50514 2.50964 2.10485 2.06289 2.02552 4.48162 2.48774 2.45474 2.18986 1.88556 2.24245 2.21297 1.81187 1.8095 1.76743
threshold=2.1262118383438486 0.038623964956917896 0.012496366626527646 0.011600347482930042 0.03797871641580431 0.0026477168532458299 -0.015013851034695934 -0.00085279408662763945 0.013409852080488173 0.037066012665071708 0.0011552050561894902 52.134617146695113 -0.023003481429661684 -0.02615537467534201 0.035895934852326492 0.045341702307067695 -0.026817806794875717 -0.13379008705166065 0.85608436829583412 0.67880830390085312 37.374589986653092 -0.050307712454120461 0.23321761895428419 -0.0036749550146938366 -0.047680785897867499 -0.069054877553699198 -0.075275199421599256 0.58032672289356124 -0.00031878476475200029 0.0012691576295270626
decision_type=2 2 2 2 2 2 2 2 2 2 2 2 2 2 2 2 2 2 2 2 2 2 2 2 2 2 2 2 2 2
left_child=1 3 -3 13 9 -6 -7 -8 -9 10 11 12 -5 19 15 17 -16 -15 -18 20 -1 22 -21 28 -19 -26 -27 -13 -23 -25
right_child=-2 2 -4 4 5 6 7 8 -10 -11 -12 27 -14 14 16 -17 18 24 -20 21 -22 23 -24 29 25 26 -28 -29 -30 -31
leaf_value=-0.018694850967990031 -0.020616742798352038 -0.0037423811782643481 -0.04226576130351295 0.037482023306868298 -0.038427342992761862 -0.024095938164416866 -0.017282286072149874 0.047850363879748017 0.0094398255071913208 0.034134704565499413 -0.017568378847920233 0.058352216671813617 -0.0012566007673740387 -0.026959225170962189 0.043361866694909559 -0.022770768187356072 -0.0089682593243196607 -0.02557091665055071 0.031506108916364614 -0.0071720323397540574 0.037920006297143372 -0.038721962184977851 0.031611074662456912 0.0013427527179607215 0.026371143629981414 -0.027928729897195644 0.0044600186254974408 0.018621561831484237 -0.0092015167472488946 -0.027218373327826464
leaf_weight=27 58 53 23 22 23 23 20 23 48 43 45 22 58 23 27 59 34 21 20 51 29 56 24 78 45 22 513 24 33 30
leaf_count=27 58 53 23 22 23 23 20 23 48 43 45 22 58 23 27 59 34 21 20 51 29 56 24 78 45 22 513 24 33 30
internal_value=0.000141396 0.000934004 -0.0154008 0.00179432 0.00834642 -0.00167891 0.00573524 0.013275 0.0218827 0.0147645 0.00989363 0.0197015 0.00939652 -0.000311704 0.00242893 0.000526694 0.0184688 0.0027295 0.00602225 -0.00669538 0.0106236 -0.010261 0.00523856 -0.0161619 0.00386567 0.00493148 0.00312814 0.0376232 -0.0277762 -0.00659089
internal_weight=1577 1519 76 1443 351 137 114 91 71 214 171 126 80 1092 764 683 81 624 54 328 56 272 75 197 601 580 535 46 89 108
internal_count=1577 1519 76 1443 351 137 114 91 71 214 171 126 80 1092 764 683 81 624 54 328 56 272 75 197 601 580 535 46 89 108
is_linear=0
shrinkage=0.1


Tree=2
num_leaves=31
num_cat=0
split_feature=10 41 28 43 16 17 41 28 9 49 25 30 7 43 29 31 5 44 32 40 28 19 5 24 1 10 41 10 30 0
split_gain=2.13232 2.69119 3.98172 2.84555 2.22071 3.43935 2.00845 2.47761 1.96502 4.03837 2.34269 3.28802 2.95473 3.48799 4.11062 2.73078 2.17146 3.1701 2.70306 2.75665 2.16717 2.20363 2.77085 2.67345 2.26417 2.03818 2.71846 2.71583 2.17817 2.00577
threshold=0.038623964956917896 0.13249160128095896 0.090879905273272291 0.043217611099542926 0.019399789068493222 0.82112638167705765 0.067667506122927837 0.041255989793845267 0.78374889308957851 0.5967798906702354 45.595068764164864 0.041986878378248445 0.70202367664018994 0.029038363419174321 0.83082083823616626 0.036242965944580548 71.839200188633512 0.042356101965817079 0.093414608602829144 0.0051758333135716325 -0.053161655893678987 0.53196298662129704 55.481953201225728 0.0072138781964690155 -0.019192742493121747 -0.036640793380981411 -0.049538842709315294 -0.0081560127038085555 0.026632261817178041 -0.012036239742945208
decision_type=2 2 2 2 2 2 2 2 2 2 2 2 2 2 2 2 2 2 2 2 2 2 2 2 2 2 2 2 2 2
left_child=1 2 3 8 -5 -6 7 -2 10 -10 11 25 15 14 20 -12 18 -18 19 -11 -14 23 -23 24 -22 26 -1 -27 29 -29
right_child=6 -3 -4 4 5 -7 -8 -9 9 16 12 -13 13 -15 -16 -17 17 -19 -20 -21 21 22 -24 -25 -26 27 -28 28 -30 -31
leaf_value=-0.0038646130301058291 -0.0045809598131613298 -0.031557293772697448 0.028708279910139169 0.0020607692664679216 0.00065998496680424134 -0.044338361882581945 0.0031300860993338357 -0.05059429852664471 -0.025039780814224834 0.020072389883586231 0.028851103149354459 0.036415445027144062 0.034247856891968034 0.03331795275916119 -0.039841575772784979 -0.0091932378749808551 -0.014529239993231994 0.024494999399929145 -0.034758522965213555 -0.018301717418297711 0.01580255650676405 0.024863836977344293 -0.0016055296474864875 -0.041680281183549335 -0.017290329606145283 -0.015278509888487557 0.045598627496510752 0.014700807731063798 -0.029393256540325558 -0.0025585863041912788
leaf_weight=25 22 25 52 49 29 41 33 25 77 39 105 23 22 37 23 23 30 68 28 36 39 65 101 21 44 150 20 101 22 202
leaf_count=25 22 25 52 49 29 41 33 25 77 39 105 23 22 37 23 23 30 68 28 36 39 65 101 21 44 150 20 101 22 202
internal_value=0.000127256 0.000977307 0.00152986 0.000534599 -0.0142669 -0.0256962 -0.0157793 -0.0290561 0.00188846 -0.00556675 0.00391441 -0.000584841 0.00900419 0.00427299 0.000861355 0.022015 0.00189306 0.0125488 -0.00824541 0.00165282 0.00406741 0.00160826 0.00875898 -0.00980539 -0.00174066 -0.00222139 0.018119 -0.00414838 0.000988602 0.00319455
internal_weight=1577 1497 1472 1420 119 70 80 47 1301 278 1023 543 480 352 315 128 201 98 103 75 292 270 166 104 83 520 45 475 325 303
internal_count=1577 1497 1472 1420 119 70 80 47 1301 278 1023 543 480 352 315 128 201 98 103 75 292 270 166 104 83 520 45 475 325 303
is_linear=0
shrinkage=0.1


end of trees

feature_importances:
Column_10=8
Column_41=5
Column_20=4
Column_27=4
Column_31=4
Column_32=4
Column_43=4
Column_44=4
Column_47=4
Column_0=3
Column_1=3
Column_7=3
Column_21=3
Column_28=3
Column_30=3
Column_40=3
Column_2=2
Column_5=2
Column_6=2
Column_9=2
Column_13=2
Column_16=2
Column_17=2
Column_29=2
Column_3=1
Column_8=1
Column_11=1
Column_12=1
Column_15=1
Column_19=1
Column_23=1
Column_24=1
Column_25=1
Column_45=1
Column_48=1
Column_49=1

parameters:
[boosting: gbdt]
[objective: regression]
[metric: rmse]
[tree_learner: serial]
[device_type: cpu]
[data_sample_strategy: bagging]
[data: ]
[valid: ]
[num_iterations: 500]
[learning_rate: 0.1]
[num_leaves: 31]
[num_threads: 0]
[seed: 42]
[deterministic: 0]
[force_col_wise: 0]
[force_row_wise: 0]
[histogram_pool_size: -1]
[max_depth: -1]
[min_data_in_leaf: 20]
[min_sum_hessian_in_leaf: 0.001]
[bagging_fraction: 0.8]
[pos_bagging_fraction: 1]
[neg_bagging_fraction: 1]
[bagging_freq: 5]
[bagging_seed: 400]
[bagging_by_query: 0]
[feature_fraction: 0.8]
[feature_fraction_bynode: 1]
[feature_fraction_seed: 30056]
[extra_trees: 0]
[extra_seed: 12879]
[early_stopping_round: 0]
[early_stopping_min_delta: 0]
[first_metric_only: 0]
[max_delta_step: 0]
[lambda_l1: 0]
[lambda_l2: 0]
[linear_lambda: 0]
[min_gain_to_split: 0]
[drop_rate: 0.1]
[max_drop: 50]
[skip_drop: 0.5]
[xgboost_dart_mode: 0]
[uniform_drop: 0]
[drop_seed: 17869]
[top_rate: 0.2]
[other_rate: 0.1]
[min_data_per_group: 100]
[max_cat_threshold: 32]
[cat_l2: 10]
[cat_smooth: 10]
[max_cat_to_onehot: 4]
[top_k: 20]
[monotone_constraints: ]
[monotone_constraints_method: basic]
[monotone_penalty: 0]
[feature_contri: ]
[forcedsplits_filename: ]
[refit_decay_rate: 0.9]
[cegb_tradeoff: 1]
[cegb_penalty_split: 0]
[cegb_penalty_feature_lazy: ]
[cegb_penalty_feature_coupled: ]
[path_smooth: 0]
[interaction_constraints: ]
[verbosity: -1]
[saved_feature_importance_type: 0]
[use_quantized_grad: 0]
[num_grad_quant_bins: 4]
[quant_train_renew_leaf: 0]
[stochastic_rounding: 1]
[linear_tree: 0]
[max_bin: 255]
[max_bin_by_feature: ]
[min_data_in_bin: 3]
[bin_construct_sample_cnt: 200000]
[data_random_seed: 175]
[is_enable_sparse: 1]
[enable_bundle: 1]
[use_missing: 1]
[zero_as_missing: 0]
[feature_pre_filter: 1]
[pre_partition: 0]
[two_round: 0]
[header: 0]
[label_column: ]
[weight_column: ]
[group_column: ]
[ignore_column: ]
[categorical_feature: ]
[forcedbins_filename: ]
[precise_float_parser: 0]
[parser_config_file: ]
[objective_seed: 16083]
[num_class: 1]
[is_unbalance: 0]
[scale_pos_weight: 1]
[sigmoid: 1]
[boost_from_average: 1]
[reg_sqrt: 0]
[alpha: 0.9]
[fair_c: 1]
[poisson_max_delta_step: 0.7]
[tweedie_variance_power: 1.5]
[lambdarank_truncation_level: 30]
[lambdarank_norm: 1]
[label_gain: ]
[lambdarank_position_bias_regularization: 0]
[eval_at: ]
[multi_error_top_k: 1]
[auc_mu_weights: ]
[num_machines: 1]
[local_listen_port: 12400]
[time_out: 120]
[machine_list_filename: ]
[machines: ]
[gpu_platform_id: -1]
[gpu_device_id: -1]
[gpu_use_dp: 0]
[num_gpu: 1]

end of parameters

pandas_categorical:null
