tree
version=v4
num_class=1
num_tree_per_iteration=1
label_index=0
max_feature_idx=378
objective=regression
feature_names=Column_0 Column_1 Column_2 Column_3 Column_4 Column_5 Column_6 Column_7 Column_8 Column_9 Column_10 Column_11 Column_12 Column_13 Column_14 Column_15 Column_16 Column_17 Column_18 Column_19 Column_20 Column_21 Column_22 Column_23 Column_24 Column_25 Column_26 Column_27 Column_28 Column_29 Column_30 Column_31 Column_32 Column_33 Column_34 Column_35 Column_36 Column_37 Column_38 Column_39 Column_40 Column_41 Column_42 Column_43 Column_44 Column_45 Column_46 Column_47 Column_48 Column_49 Column_50 Column_51 Column_52 Column_53 Column_54 Column_55 Column_56 Column_57 Column_58 Column_59 Column_60 Column_61 Column_62 Column_63 Column_64 Column_65 Column_66 Column_67 Column_68 Column_69 Column_70 Column_71 Column_72 Column_73 Column_74 Column_75 Column_76 Column_77 Column_78 Column_79 Column_80 Column_81 Column_82 Column_83 Column_84 Column_85 Column_86 Column_87 Column_88 Column_89 Column_90 Column_91 Column_92 Column_93 Column_94 Column_95 Column_96 Column_97 Column_98 Column_99 Column_100 Column_101 Column_102 Column_103 Column_104 Column_105 Column_106 Column_107 Column_108 Column_109 Column_110 Column_111 Column_112 Column_113 Column_114 Column_115 Column_116 Column_117 Column_118 Column_119 Column_120 Column_121 Column_122 Column_123 Column_124 Column_125 Column_126 Column_127 Column_128 Column_129 Column_130 Column_131 Column_132 Column_133 Column_134 Column_135 Column_136 Column_137 Column_138 Column_139 Column_140 Column_141 Column_142 Column_143 Column_144 Column_145 Column_146 Column_147 Column_148 Column_149 Column_150 Column_151 Column_152 Column_153 Column_154 Column_155 Column_156 Column_157 Column_158 Column_159 Column_160 Column_161 Column_162 Column_163 Column_164 Column_165 Column_166 Column_167 Column_168 Column_169 Column_170 Column_171 Column_172 Column_173 Column_174 Column_175 Column_176 Column_177 Column_178 Column_179 Column_180 Column_181 Column_182 Column_183 Column_184 Column_185 Column_186 Column_187 Column_188 Column_189 Column_190 Column_191 Column_192 Column_193 Column_194 Column_195 Column_196 Column_197 Column_198 Column_199 Column_200 Column_201 Column_202 Column_203 Column_204 Column_205 Column_206 Column_207 Column_208 Column_209 Column_210 Column_211 Column_212 Column_213 Column_214 Column_215 Column_216 Column_217 Column_218 Column_219 Column_220 Column_221 Column_222 Column_223 Column_224 Column_225 Column_226 Column_227 Column_228 Column_229 Column_230 Column_231 Column_232 Column_233 Column_234 Column_235 Column_236 Column_237 Column_238 Column_239 Column_240 Column_241 Column_242 Column_243 Column_244 Column_245 Column_246 Column_247 Column_248 Column_249 Column_250 Column_251 Column_252 Column_253 Column_254 Column_255 Column_256 Column_257 Column_258 Column_259 Column_260 Column_261 Column_262 Column_263 Column_264 Column_265 Column_266 Column_267 Column_268 Column_269 Column_270 Column_271 Column_272 Column_273 Column_274 Column_275 Column_276 Column_277 Column_278 Column_279 Column_280 Column_281 Column_282 Column_283 Column_284 Column_285 Column_286 Column_287 Column_288 Column_289 Column_290 Column_291 Column_292 Column_293 Column_294 Column_295 Column_296 Column_297 Column_298 Column_299 Column_300 Column_301 Column_302 Column_303 Column_304 Column_305 Column_306 Column_307 Column_308 Column_309 Column_310 Column_311 Column_312 Column_313 Column_314 Column_315 Column_316 Column_317 Column_318 Column_319 Column_320 Column_321 Column_322 Column_323 Column_324 Column_325 Column_326 Column_327 Column_328 Column_329 Column_330 Column_331 Column_332 Column_333 Column_334 Column_335 Column_336 Column_337 Column_338 Column_339 Column_340 Column_341 Column_342 Column_343 Column_344 Column_345 Column_346 Column_347 Column_348 Column_349 Column_350 Column_351 Column_352 Column_353 Column_354 Column_355 Column_356 Column_357 Column_358 Column_359 Column_360 Column_361 Column_362 Column_363 Column_364 Column_365 Column_366 Column_367 Column_368 Column_369 Column_370 Column_371 Column_372 Column_373 Column_374 Column_375 Column_376 Column_377 Column_378
feature_infos=[-0.095465950428715807:0.11961636568500011] [-0.20700495603634109:0.27840825655726581] [-0.41242098991554926:0.50825335953706996] [-0.18136769331023839:0.18890739327257886] [-0.30449213287789428:0.28637386876059512] [-0.33842932392022068:0.42802249378508994] [-0.15103511714406415:0.15857552123693477] [-0.24744601117782769:0.23830292161636238] none [0:5] [-3.5186543304782654:3.2396777801215442] [-3.6733536358556265:3.2905035689171145] [-3.2189466866713641:3.0689927142219768] [-0.2830727151194451:1.2603800721297664] [0.027963578859353275:0.87561775362770355] [-0.6996040517836698:2.7046084887521222] [-0.58365033636850594:1.683348607392817] [-1.313400940314666:1.4682869433008536] [-5:5] [-0.20700495603634109:0.27840825655726581] [-0.35446447058082431:0.38203778334696492] [-0.41242098991554926:0.50825335953706996] [0.00635793565954968:0.139799600337813] [0.0097229650294710888:0.9999999966963149] [0.010329067001504646:0.090198843563025932] [-2.9872308009998876:2.8929934471180712] [-0.99147537125329377:0.99936651225910555] [-0.095465950428715807:0.11961636568500011] [-0.20700495603634109:0.27840825655726581] [-0.41242098991554926:0.50825335953706996] [-0.18136769331023839:0.18890739327257886] [-0.30449213287789428:0.28637386876059512] [-0.33842932392022068:0.42802249378508994] [-0.15103511714406415:0.15857552123693477] [-0.24744601117782769:0.23830292161636238] none [0:5] [-3.5186543304782654:3.2396777801215442] [-3.6733536358556265:3.2905035689171145] [-3.2189466866713641:3.0689927142219768] [-0.2830727151194451:1.2603800721297664] [0.027963578859353275:0.87561775362770355] [-0.6996040517836698:2.7046084887521222] [-0.58365033636850594:1.683348607392817] [-1.313400940314666:1.4682869433008536] [-5:5] [-0.20700495603634109:0.27840825655726581] [-0.35446447058082431:0.38203778334696492] [-0.41242098991554926:0.50825335953706996] [0.00635793565954968:0.139799600337813] [0.0097229650294710888:0.9999999966963149] [0.010329067001504646:0.090198843563025932] [-2.9872308009998876:2.8929934471180712] [-0.99147537125329377:0.99936651225910555] [-0.095465950428715807:0.11961636568500011] [-0.20700495603634109:0.27840825655726581] [-0.41242098991554926:0.50825335953706996] [-0.18136769331023839:0.18890739327257886] [-0.30449213287789428:0.28637386876059512] [-0.33842932392022068:0.42802249378508994] [-0.15103511714406415:0.15857552123693477] [-0.24744601117782769:0.23830292161636238] none [0:5] [-3.5186543304782654:3.2396777801215442] [-3.6733536358556265:3.2905035689171145] [-3.2189466866713641:3.0689927142219768] [-0.2830727151194451:1.2603800721297664] [0.027963578859353275:0.87561775362770355] [-0.6996040517836698:2.7046084887521222] [-0.58365033636850594:1.683348607392817] [-1.313400940314666:1.4682869433008536] [-5:5] [-0.20700495603634109:0.27840825655726581] [-0.35446447058082431:0.38203778334696492] [-0.41242098991554926:0.50825335953706996] [0.00635793565954968:0.139799600337813] [0.0097229650294710888:0.9999999966963149] [0.010329067001504646:0.090198843563025932] [-2.9872308009998876:2.8929934471180712] [-0.99147537125329377:0.99936651225910555] [-0.095465950428715807:0.11961636568500011] [-0.20700495603634109:0.27840825655726581] [-0.41242098991554926:0.50825335953706996] [-0.18136769331023839:0.18890739327257886] [-0.30449213287789428:0.28637386876059512] [-0.33842932392022068:0.42802249378508994] [-0.15103511714406415:0.15857552123693477] [-0.24744601117782769:0.23830292161636238] none [0:5] [-3.5186543304782654:3.2396777801215442] [-3.6733536358556265:3.2905035689171145] [-3.2189466866713641:3.0689927142219768] [-0.2830727151194451:1.2603800721297664] [0.027963578859353275:0.87561775362770355] [-0.6996040517836698:2.7046084887521222] [-0.58365033636850594:1.683348607392817] [-1.313400940314666:1.4682869433008536] [-5:5] [-0.20700495603634109:0.27840825655726581] [-0.35446447058082431:0.38203778334696492] [-0.41242098991554926:0.50825335953706996] [0.00635793565954968:0.139799600337813] [0.0097229650294710888:0.9999999966963149] [0.010329067001504646:0.090198843563025932] [-2.9872308009998876:2.8929934471180712] [-0.99147537125329377:0.99936651225910555] [-0.095465950428715807:0.11961636568500011] [-0.20700495603634109:0.27840825655726581] [-0.41242098991554926:0.50825335953706996] [-0.18136769331023839:0.18890739327257886] [-0.30449213287789428:0.28637386876059512] [-0.33842932392022068:0.42802249378508994] [-0.15103511714406415:0.15857552123693477] [-0.24744601117782769:0.23830292161636238] none [0:5] [-3.5186543304782654:3.2396777801215442] [-3.6733536358556265:3.2905035689171145] [-3.2189466866713641:3.0689927142219768] [-0.2830727151194451:1.2603800721297664] [0.027963578859353275:0.87561775362770355] [-0.6996040517836698:2.7046084887521222] [-0.58365033636850594:1.683348607392817] [-1.313400940314666:1.4682869433008536] [-5:5] [-0.20700495603634109:0.27840825655726581] [-0.35446447058082431:0.38203778334696492] [-0.41242098991554926:0.50825335953706996] [0.00635793565954968:0.139799600337813] [0.0097229650294710888:0.9999999966963149] [0.010329067001504646:0.090198843563025932] [-2.9872308009998876:2.8929934471180712] [-0.99147537125329377:0.99936651225910555] [-0.095465950428715807:0.11961636568500011] [-0.20700495603634109:0.27840825655726581] [-0.41242098991554926:0.50825335953706996] [-0.18136769331023839:0.18890739327257886] [-0.30449213287789428:0.28637386876059512] [-0.33842932392022068:0.42802249378508994] [-0.15103511714406415:0.15857552123693477] [-0.24744601117782769:0.23830292161636238] none [0:5] [-3.5186543304782654:3.2396777801215442] [-3.6733536358556265:3.2905035689171145] [-3.2189466866713641:3.0689927142219768] [-0.2830727151194451:1.2603800721297664] [0.027963578859353275:0.87561775362770355] [-0.6996040517836698:2.7046084887521222] [-0.58365033636850594:1.683348607392817] [-1.313400940314666:1.4682869433008536] [-5:5] [-0.20700495603634109:0.27840825655726581] [-0.35446447058082431:0.38203778334696492] [-0.41242098991554926:0.50825335953706996] [0.00635793565954968:0.139799600337813] [0.0097229650294710888:0.9999999966963149] [0.010329067001504646:0.090198843563025932] [-2.9872308009998876:2.8929934471180712] [-0.99147537125329377:0.99936651225910555] [-0.095465950428715807:0.11961636568500011] [-0.20700495603634109:0.27840825655726581] [-0.41242098991554926:0.50825335953706996] [-0.18136769331023839:0.18890739327257886] [-0.30449213287789428:0.28637386876059512] [-0.33842932392022068:0.42802249378508994] [-0.15103511714406415:0.15857552123693477] [-0.24744601117782769:0.23830292161636238] none [0:5] [-3.5186543304782654:3.2396777801215442] [-3.6733536358556265:3.2905035689171145] [-3.2189466866713641:3.0689927142219768] [-0.2830727151194451:1.2603800721297664] [0.027963578859353275:0.87561775362770355] [-0.6996040517836698:2.7046084887521222] [-0.58365033636850594:1.683348607392817] [-1.313400940314666:1.4682869433008536] [-5:5] [-0.20700495603634109:0.27840825655726581] [-0.35446447058082431:0.38203778334696492] [-0.41242098991554926:0.50825335953706996] [0.00635793565954968:0.139799600337813] [0.0097229650294710888:0.9999999966963149] [0.010329067001504646:0.090198843563025932] [-2.9872308009998876:2.8929934471180712] [-0.99147537125329377:0.99936651225910555] [-0.095465950428715807:0.11961636568500011] [-0.20700495603634109:0.27840825655726581] [-0.41242098991554926:0.50825335953706996] [-0.18136769331023839:0.18890739327257886] [-0.30449213287789428:0.28637386876059512] [-0.33842932392022068:0.42802249378508994] [-0.15103511714406415:0.15857552123693477] [-0.24744601117782769:0.23830292161636238] none [0:5] [-3.5186543304782654:3.2396777801215442] [-3.6733536358556265:3.2905035689171145] [-3.2189466866713641:3.0689927142219768] [-0.2830727151194451:1.2603800721297664] [0.027963578859353275:0.87561775362770355] [-0.6996040517836698:2.7046084887521222] [-0.58365033636850594:1.683348607392817] [-1.313400940314666:1.4682869433008536] [-5:5] [-0.20700495603634109:0.27840825655726581] [-0.35446447058082431:0.38203778334696492] [-0.41242098991554926:0.50825335953706996] [0.00635793565954968:0.1413368427135018] [0.0097229650294710888:0.9999999966963149] [0.010329067001504646:0.095064466263626482] [-2.9872308009998876:2.8929934471180712] [-0.99147537125329377:0.99936651225910555] [-0.095465950428715807:0.11961636568500011] [-0.20700495603634109:0.27840825655726581] [-0.41242098991554926:0.50825335953706996] [-0.18136769331023839:0.18890739327257886] [-0.30449213287789428:0.28637386876059512] [-0.33842932392022068:0.42802249378508994] [-0.15103511714406415:0.15857552123693477] [-0.24744601117782769:0.23830292161636238] none [0:5] [-3.5186543304782654:3.2396777801215442] [-3.6733536358556265:3.2905035689171145] [-3.2189466866713641:3.0689927142219768] [-0.2830727151194451:1.2603800721297664] [0.027963578859353275:0.87561775362770355] [-0.6996040517836698:2.7046084887521222] [-0.58365033636850594:1.683348607392817] [-1.313400940314666:1.4682869433008536] [-5:5] [-0.20700495603634109:0.27840825655726581] [-0.35446447058082431:0.38203778334696492] [-0.41242098991554926:0.50825335953706996] [0.00635793565954968:0.1413368427135018] [0.0097229650294710888:0.9999999966963149] [0.010329067001504646:0.095064466263626482] [-2.9872308009998876:2.8929934471180712] [-0.99147537125329377:0.99936651225910555] [-0.095465950428715807:0.11961636568500011] [-0.20700495603634109:0.27840825655726581] [-0.41242098991554926:0.50825335953706996] [-0.18136769331023839:0.18890739327257886] [-0.30449213287789428:0.28637386876059512] [-0.33842932392022068:0.42802249378508994] [-0.15103511714406415:0.15857552123693477] [-0.24744601117782769:0.23830292161636238] none [0:5] [-3.5186543304782654:3.2396777801215442] [-3.6733536358556265:3.2905035689171145] [-3.2189466866713641:3.0689927142219768] [-0.2830727151194451:1.2603800721297664] [0.027963578859353275:0.87561775362770355] [-0.6996040517836698:2.7046084887521222] [-0.58365033636850594:1.683348607392817] [-1.313400940314666:1.4682869433008536] [-5:5] [-0.20700495603634109:0.27840825655726581] [-0.35446447058082431:0.38203778334696492] [-0.41242098991554926:0.50825335953706996] [0.00635793565954968:0.1413368427135018] [0.0097229650294710888:0.9999999966963149] [0.010329067001504646:0.095064466263626482] [-2.9872308009998876:2.8929934471180712] [-0.99147537125329377:0.99936651225910555] [-0.056121826171875:0.150634765625] [-0.0119807273266318:0.017879160964688307] [0.006436872901033514:0.046508970488739206] [-0.095465950428715807:-0.010359936113219947] [0.011139174367260862:0.11961636568500011] [-0.053845800469075909:0.095098654304462543] [0.011545588275577818:0.11766018432761609] [-0.20700495603634109:0.001630859600554313] [0.02390204012373065:0.27840825655726581] [-0.19237376096903366:0.33337979380099031] [0.013527124279289303:0.25249653625528523] [-0.41242098991554926:0.1269186907725961] [-0.03598752911671077:0.50825335953706996] [-0.049948952118257749:0.079254699549232421] [0.0081828357467604255:0.088037560131669343] [-0.18136769331023839:0.0064321624170207148] [0.013497803093788674:0.18890739327257886] [-0.11046219325887685:0.14674069097311335] [0.0076470682273801034:0.14829233659898058] [-0.30449213287789428:0.02549132889284933] [-0.0014874510356709392:0.28637386876059512] [-0.2328213469575259:0.31358260844348407] [0:0.20305979784545278] [-0.33842932392022068:0.25452117433643007] [-0.1069532668485137:0.42802249378508994] [-0.051060640217635532:0.070398637972614406] [0.0065784147444784297:0.078889747321619255] [-0.15103511714406415:0.0099647318086935055] [0.0082397641852556269:0.15857552123693477] [-0.10740604754316969:0.12836122756428042] [0.0071248782009120295:0.12704279582478184] [-0.24744601117782769:0.030926766573809106] [-0.0068130208889870536:0.23830292161636238] none none none none [4.580845819183712:5] [0:1.3331516943118387] [0:5] none [-2.0429929906673028:2.3341844722376854] [0:1.9691730935417975] [-3.5186543304782654:2.3255559168565694] [-1.4017543813877087:3.2396777801215442] [-2.2894323094010494:2.6980511482819391] [0:2.021519431804192] [-3.6733536358556265:2.6980511482819391] [-1.7026427967177824:3.2905035689171145] [-1.2529794825937319:1.9001884290209603] [0:1.7338004893565877] [-3.2189466866713641:1.8701519206216941] [-1.2529794825937319:3.0689927142219768] [0.17316522004632909:0.92430428205912474] [0.089508382826849059:0.41540750245498531] [-0.2830727151194451:0.72448252612345787] [0.49515827053857514:1.2603800721297664] [0.046325768103572286:0.4462164592085367] [0.0062379571573003114:0.31444862718607702] [0.027963578859353275:0.25677245695971707] [0.068192338499733662:0.87561775362770355] [-0.61112739039745989:0.80725944052213983] [0:1.2527805195852351] [-0.6996040517836698:0.37382196877480856] [-0.61001994448316443:2.7046084887521222] [-0.45601588924306868:0.81893876245351083] [0:0.90700555230123547] [-0.58365033636850594:0.33122369396472573] [-0.45432811720046673:1.683348607392817] [-0.43623726840545018:0.17350338194158865] [0.13981086642836563:0.7982579337536807] [-1.313400940314666:-0.2894125870115975] [0.11239819015522425:1.4682869433008536] [-3.0295593346691954:1.7334806105691229] [0.019952144841181813:4.1165975960016175] [-5:0.22738710190919731] [-0.059075799436610343:5] [-0.053845800469075909:0.095098654304462543] [0.011545588275577818:0.11766018432761609] [-0.20700495603634109:0.001630859600554313] [0.02390204012373065:0.27840825655726581] [-0.11138225452487571:0.18339468899657055] [0.014342792463713535:0.18501990259110132] [-0.35446447058082431:0.021834219765775931] [0.01336629260151101:0.38203778334696492] [-0.19237376096903366:0.33337979380099031] [0.013527124279289303:0.25249653625528523] [-0.41242098991554926:0.1269186907725961] [-0.03598752911671077:0.50825335953706996] [0.011419317910288471:0.056105885964789624] [0.0031092732312721452:0.026381602874077995] [0.00635793565954968:0.026951917542222589] [0.01843092528875313:0.1413368427135018] [0.37859500257328504:0.69550515902418175] [0.21728089304694145:0.34643726348641041] [0.0097229650294710888:0.17887972810457703] [0.888149766375111:0.9999999966963149] [0.012004642259114446:0.061161982671904647] [0.00057139963494927176:0.025321780371102127] [0.010329067001504646:0.048651589371841782] [0.013969257805816614:0.095064466263626482] [-2.0371341410872383:1.4606517248115907] [0:1.7018498665945527] [-2.9872308009998876:1.4219291031717771] [-2.0370096849060753:2.8929934471180712] [-0.69589493696124405:0.85062746581925985] [0.14831686246035405:0.779407805033282] [-0.99147537125329377:0.42587662030927165] [0.15838095558814147:0.99936651225910555]
tree_sizes=2303 3512 3163 4520 2218 2867 2368 1299 1686 2249

Tree=0
num_leaves=25
num_cat=0
split_feature=233 40 339 137 19 366 200 321 70 321 292 4 215 239 23 377 113 49 103 176 60 29 266 112
split_gain=6.2241 6.12038 4.44906 4.84057 4.42624 4.11023 3.96561 4.49382 4.82559 4.36614 3.74251 3.92062 3.57512 3.52341 2.8781 2.80323 2.77599 4.76706 2.57796 2.67014 3.37689 2.37455 1.74435 1.07246
threshold=1.0931342751775943 0.038605836872085152 -0.20551289299689932 0.084311189563689007 -0.030549430843607669 0.99049883837825836 2.8846938728704576 -1.997912834985746 -0.29329507989326992 -3.1054606105280462 0.13779591760057128 0.15229526693532844 0.50676444251454866 0.54267107486681698 0.38164895175736518 -0.8401090306226493 0.00096969514501243925 0.017365130521870251 0.014370417354249211 0.30725140978670279 -0.070156638163313703 0.0027716468722299718 0.7118090923845416 -0.14638880042916441
decision_type=2 2 2 2 2 2 2 2 2 2 2 2 2 2 2 2 2 2 2 2 2 2 2 2
left_child=1 5 3 4 -3 18 7 8 12 -10 11 -9 -4 -5 -2 -8 21 -18 -1 20 -20 -6 -22 -21
right_child=14 2 6 13 16 -7 15 10 9 -11 -12 -13 -14 -15 -16 -17 17 -19 19 23 22 -23 -24 -25
leaf_value=0.056962007578069664 0.0080955216814943762 0.03205281568101296 0.050080869986654411 0.044996195231439051 0.048618193275137458 0.061354282276306404 0.039747215476271948 0.037632677701066181 0.027925023253440893 0.040034211102821134 0.05640988489612659 0.022248026905654091 0.038640308757885142 0.023246865493331482 0.032201774983077955 0.064379233619645024 0.042507949365956477 0.06252431339912097 0.024913089218919403 0.046105000942052013 0.045858680186480809 0.030643361000204969 0.036315889118056735 0.062732289613826209
leaf_weight=35 21 37 206 35 75 39 20 3005 77 2142 26 42 101 39 32 26 47 84 30 21 148 24 70 20
leaf_count=35 21 37 206 35 75 39 20 3005 77 2142 26 42 101 39 32 26 47 84 30 21 148 24 70 20
internal_value=0.0395624 0.0397058 0.0393227 0.0448657 0.0480096 0.0460078 0.0389869 0.0388658 0.0404266 0.0396158 0.0375812 0.0374184 0.0463016 0.0335942 0.0225142 0.0535841 0.0506005 0.0553885 0.044139 0.0425634 0.0405857 0.0442053 0.0427713 0.0543734
internal_weight=6402 6349 5986 341 267 363 5645 5599 2526 2219 3073 3047 307 74 53 46 230 131 324 289 248 99 218 41
internal_count=6402 6349 5986 341 267 363 5645 5599 2526 2219 3073 3047 307 74 53 46 230 131 324 289 248 99 218 41
is_linear=0
shrinkage=1


Tree=1
num_leaves=38
num_cat=0
split_feature=27 42 245 121 5 248 140 22 158 45 23 249 77 23 101 130 209 83 135 352 131 318 37 191 112 364 98 16 29 76 219 250 42 365 328 234 196
split_gain=5.53013 4.8975 4.27132 6.29748 4.95881 4.11149 5.50657 5.3175 4.70173 3.97687 3.90296 3.8039 3.79067 3.78583 3.9751 3.93391 3.7754 5.297 5.07388 5.01335 3.91704 3.6583 3.59982 4.39761 4.18201 3.59333 3.25343 3.0801 2.89813 2.74461 3.18746 2.66257 2.42145 2.07551 1.44205 1.30839 0.842398
threshold=-0.063544799224110257 -0.49235596769424206 -0.013488135437009772 0.23329531528078726 -0.023822257008267119 -0.011511883575663349 -0.011270118420930451 0.026321558688534866 0.020298628211497863 -0.025043600997919354 0.71455365439752894 -0.048537499103396546 0.8278718204016321 0.13372167733329932 0.044630409629390695 0.051540870645952488 -0.053799765785246582 0.079433824968207736 -0.03354049615657733 0.055143607848244215 0.22413439163261792 2.8275330205735649 -1.3013044431377589 0.030706747210318523 -0.0048083033688704471 0.30557760361197639 -0.45836290472377267 0.020741213092869918 0.032193735765491234 0.01832271606283235 0.0036532886878668518 -0.01745436016043633 -0.57490186710302293 0.025281019103593556 0.079389820911523176 -0.012111099682122482 -0.0078293084372843529
decision_type=2 2 2 2 2 2 2 2 2 2 2 2 2 2 2 2 2 2 2 2 2 2 2 2 2 2 2 2 2 2 2 2 2 2 2 2 2
left_child=9 22 5 4 35 6 8 25 -3 -1 28 -9 -10 27 15 -15 17 31 19 -18 -19 -20 -2 24 33 -8 -25 36 -6 30 -28 -5 -31 -24 -26 -4 -7
right_child=1 2 3 16 10 13 7 11 12 -11 -12 -13 -14 14 -16 -17 18 20 21 -21 -22 -23 23 26 34 -27 29 -29 -30 32 -32 -33 -34 -35 -36 -37 -38
leaf_value=0.027264754201953335 -0.0087349428548052412 -0.02143463426990207 -0.035316262564700635 -0.017874948165161691 0.0059756681632975777 0.016925353560578171 -0.0043253029202172666 -0.024536658036148944 0.00058867525732559636 -0.00066760565823297717 -0.019669637418403399 -0.0067053373065361233 0.0083967874187865811 0.0030528918088518833 0.019269517371029103 -0.019604977335206313 0.0010020184243081981 0.0033471613490053649 -0.0017427559069899429 -0.023330400457995407 0.029083476970966988 0.0041160910683057071 0.014906904292419507 0.020978608112133559 0.01875526071361407 0.011899378361111752 -0.023331902021324482 0.0019681324181436751 -0.011939102600759458 -0.0044330225558972839 0.0010571671715694992 0.0041157868459578729 0.013322921926553755 -0.00346294789445782 0.036698383018745118 -0.017032655515583046 0.032427047582259817
leaf_weight=31 37 22 20 20 60 20 163 51 982 21 38 75 185 392 36 20 35 27 3340 52 34 289 33 20 31 43 23 24 36 34 31 43 43 28 20 23 20
leaf_count=31 37 22 20 20 60 20 163 51 982 21 38 75 185 392 36 20 35 27 3340 52 34 289 33 20 31 43 23 24 36 34 31 43 43 28 20 23 20
internal_value=-0.00031212 -0.000445989 -0.000755967 -0.00170157 -0.0109237 0.00110999 -0.000191513 -0.00588674 0.0013949 0.0159088 -0.00612436 -0.0139762 0.00183136 0.0049854 0.00334436 0.00193637 -0.00127492 0.00729701 -0.00156249 -0.0134942 0.0177979 -0.0012747 0.00578675 0.00785127 0.0153616 -0.000910207 0.00224112 0.0163715 -0.000695775 -0.000595249 -0.00926227 -0.00280342 0.0054222 0.00640114 0.0259477 -0.0257149 0.0248624
internal_weight=6402 6350 6050 4017 177 2033 1521 332 1189 52 134 126 1167 512 448 412 3840 124 3716 87 61 3629 300 263 112 206 151 64 96 131 54 63 77 61 51 43 40
internal_count=6402 6350 6050 4017 177 2033 1521 332 1189 52 134 126 1167 512 448 412 3840 124 3716 87 61 3629 300 263 112 206 151 64 96 131 54 63 77 61 51 43 40
is_linear=0
shrinkage=0.05


Tree=2
num_leaves=34
num_cat=0
split_feature=233 40 42 206 326 27 131 45 324 324 243 108 313 265 69 85 258 266 361 77 265 330 48 244 217 86 319 72 269 353 77 345 220
split_gain=5.45659 5.29535 4.3142 3.6016 3.42821 4.02307 3.78275 4.35159 3.6851 4.29393 4.00131 3.49974 5.16488 3.72337 4.42931 4.19741 3.22585 3.23043 3.16731 3.00989 2.87094 2.81089 3.24581 2.7662 2.75279 2.74323 2.6938 2.41439 2.37873 2.27951 2.22807 1.78046 1.74777
threshold=1.0931342751775943 0.0080193031009802313 -0.49235596769424206 -0.27489113306267782 1.1897319145650072 -0.040993879548351812 0.70114944882593166 -0.027684808949580527 0.22924702374701603 0.28565670688875694 0.030608433473377942 0.0024037034768578107 -2.515048634386237 0.028047201000944221 -0.1732776253772487 0.065326217220410113 0.063167792141605408 0.71514107660359127 0.007887538234745339 0.61459186529779197 0.025892122967511356 0.32765482797931483 -0.048162858481970543 0.0034845015140871909 0.028854011098709668 -0.031215649709644407 -0.015731675504172281 0.0051662315815877999 -0.68725673249754438 -0.14039315208495465 0.75825475648063079 -0.36521885435195001 -0.026604288794146221
decision_type=2 2 2 2 2 2 2 2 2 2 2 2 2 2 2 2 2 2 2 2 2 2 2 2 2 2 2 2 2 2 2 2 2
left_child=1 16 3 23 5 6 7 -4 10 -10 -7 12 27 15 -15 -13 17 20 -5 -2 31 22 29 -3 28 -14 -26 -6 -20 -18 -31 -1 -24
right_child=19 2 4 18 11 8 -8 -9 9 -11 -12 13 25 14 -16 -17 21 -19 24 -21 -22 -23 32 -25 26 -27 -28 -29 -30 30 -32 -33 -34
leaf_value=0.024908690406611905 -0.004754375450286577 0.006246135789847989 0.017269421465946792 -0.0050695154665294038 0.002917055425927113 -0.0023934242451467687 0.022207707059481795 -0.008499685661031214 0.0020942961626374316 -0.0012535981227041854 -0.015693742751446822 -0.0082103527411705301 0.013887464495721312 0.0015742990762794612 -0.022190291350009078 0.0091787023091907654 -0.012701975100845173 -0.011869939954174083 -0.00079016065604596347 -0.028874243697915893 -0.0054183651641956211 0.022893517771418011 0.0083675864954196391 -0.01486429815942591 0.010521119465528118 -0.0043176074202525569 -0.011705503145079593 0.026906375524828136 0.017222093767794877 0.00016558146867199275 0.019108052106646747 0.0053693576186796361 0.029756122499481952
leaf_weight=20 28 28 28 37 21 1012 37 39 1661 2261 60 148 22 26 75 45 20 38 21 25 34 38 20 34 33 304 23 22 120 49 23 30 20
leaf_count=20 28 28 28 37 21 1012 37 39 1661 2261 60 148 22 26 75 45 20 38 21 25 34 38 20 34 33 304 23 22 120 49 23 30 20
internal_value=-0.000296295 -0.000162002 -0.000479864 0.00540398 -0.000783132 -0.00034217 0.00938366 0.00220467 -0.000545895 0.000163006 -0.0031439 -0.00416572 -0.000907317 -0.00823664 -0.0160277 -0.00412736 0.00641225 0.000166023 0.00825064 -0.0162588 0.00567796 0.0108627 0.00734673 -0.00525533 0.0107791 -0.00306983 0.00129861 0.0153406 0.0145053 0.00210876 0.00630411 0.013319 0.0192341
internal_weight=6402 6349 6057 296 5761 5098 104 67 4994 3922 1072 663 369 294 101 193 292 122 234 53 84 170 132 62 197 326 56 43 141 92 72 50 40
internal_count=6402 6349 6057 296 5761 5098 104 67 4994 3922 1072 663 369 294 101 193 292 122 234 53 84 170 132 62 197 326 56 43 141 92 72 50 40
is_linear=0
shrinkage=0.05


Tree=3
num_leaves=50
num_cat=0
split_feature=254 103 93 41 93 42 109 318 294 177 371 153 261 316 269 238 254 110 91 191 87 98 206 128 364 222 12 239 244 261 45 292 190 318 27 139 142 327 158 2 353 14 231 131 187 124 159 266 110
split_gain=4.73054 5.64791 4.79648 3.9979 4.17867 3.82733 3.57571 3.48547 6.26546 4.26307 3.90021 5.36407 5.78012 3.90173 3.49179 4.02355 3.55397 3.34527 3.2502 3.89032 4.16507 3.37932 3.56222 3.23927 3.16686 3.04648 4.2454 2.92905 3.5169 2.92708 2.91854 3.20477 2.8584 2.80656 2.7094 2.76534 2.60888 2.59485 2.57737 3.35953 2.55683 2.42386 2.60248 2.33709 2.19958 2.1255 2.05118 1.61612 1.30887
threshold=-1.8908680787884238 0.043696444439829209 -1.3911345948316458 0.11858031369938175 -1.108048273107926 -0.49235596769424206 -0.057103270927894127 2.7509278391140639 0.32979952992757416 -0.10686765305332634 0.49168329011542306 0.42240782363154278 0.60523965112867384 0.61815862459006088 0.96357684909397479 0.023972315906948757 0.1960104402386153 0.052892520228833624 -1.1679820387308169 0.030706747210318523 -0.012975368063432744 -0.43000341575407702 -0.27906932853469274 -0.019631229681557557 0.29933625241668776 0.018564637875755467 -0.30086082347480964 0.79586413763126973 -0.047039590715824191 -0.31650775269671666 -0.074575077265272724 0.055194693385180196 0.1184452683334304 0.2016644669915732 -0.026821798220181822 -0.11941593988341957 -0.040874377008844436 0.15937959216327149 0.32037852506561232 -0.0065664098907730608 -0.12255231986883157 0.065694489952738203 0.49768429194932512 0.29131091666087039 -1.3311586677653484 -0.2034786199607084 0.028708853045622026 0.53769946927253431 -0.039280702952357964
decision_type=2 2 2 2 2 2 2 2 2 2 2 2 2 2 2 2 2 2 2 2 2 2 2 2 2 2 2 2 2 2 2 2 2 2 2 2 2 2 2 2 2 2 2 2 2 2 2 2 2
left_child=1 3 6 4 33 18 29 8 10 25 14 13 -13 -12 15 -7 -16 -10 -2 20 -20 -21 -23 34 -24 30 -27 28 -6 -3 45 -32 41 44 37 -36 -37 -5 48 -40 -4 -11 -43 -30 -1 -9 -28 -22 -35
right_child=5 2 40 23 27 7 -8 9 17 32 11 12 -14 -15 16 -17 -18 -19 19 21 47 22 24 -25 -26 26 46 -29 43 -31 31 -33 -34 38 35 36 -38 -39 39 -41 -42 42 -44 -45 -46 -47 -48 -49 -50
leaf_value=-0.014130834901510781 -0.010018483454157016 0.00080537131785578427 0.034602379670174807 -0.0027201561553783678 0.0046765119349458468 0.00071427296464517457 -0.0092258836510436572 0.025699157123245411 -0.031338240722215721 0.014299969484482832 -0.017765360102046386 0.015161980543211238 -0.012988377682266695 -0.0054437518617959377 0 -0.0023799614095071937 -0.016408882437125846 -0.0059319301724873787 -0.0007141015350215161 0.020070732941065355 0.013116700335774781 -0.018004442746412021 0.0076229629272307579 -0.019324787295161617 -0.013446439222081916 0.003806628717155998 0.015516108378249023 0.012452948247768965 -0.0020252884221981416 0.027757540256229798 0.0039735191396647641 -0.019620108228282244 0.016007419540728259 0.013955476304960754 -0.021027611311684007 0.0041391478429484568 -0.009454382350458727 0.021929817269155882 0.016798540184049974 -0.00075976025784610639 0.011351376632007802 -0.0012862241508763339 -0.014883702127759944 -0.024377914270280902 0.0092106986253415769 0.0033621498983531142 0.038583399122360189 0.0284298009922795 0.029665839292463358
leaf_weight=20 32 21 30 20 37 2554 27 20 26 20 84 55 27 283 61 1783 71 27 32 21 37 26 77 28 23 36 20 25 20 20 50 20 23 33 21 83 61 22 52 56 21 198 43 30 20 24 21 36 25
leaf_count=20 32 21 30 20 37 2554 27 20 26 20 84 55 27 283 61 1783 71 27 32 21 37 26 77 28 23 36 20 25 20 20 50 20 23 33 21 83 61 22 52 56 21 198 43 30 20 24 21 36 25
internal_value=-0.000281299 0.00368594 0.013568 0.00154832 0.00520846 -0.000747495 0.0047709 -0.00104338 -0.00143508 0.00304484 -0.00124952 -0.00569306 0.00582753 -0.00828165 -0.000801842 -0.000556682 -0.00881247 -0.0185251 0.00490716 0.00682553 0.0141772 0.00153429 -0.00152893 -0.00338339 0.00271846 0.008821 0.0165162 -0.00252824 -0.00689994 0.01411 0.00356959 -0.00271456 -0.000823963 0.00943826 -0.00119463 -0.00410286 -0.00158709 0.0100944 0.0123066 0.0076557 0.0251672 -0.0023319 -0.00373824 -0.0155586 -0.00234151 0.013664 0.0275178 0.0207653 0.0208526
internal_weight=6402 672 119 553 318 5730 68 5446 4971 475 4918 449 82 367 4469 4337 132 53 284 252 105 147 126 235 100 191 77 112 87 41 114 70 284 206 207 165 144 42 166 108 51 261 241 50 40 44 41 73 58
internal_count=6402 672 119 553 318 5730 68 5446 4971 475 4918 449 82 367 4469 4337 132 53 284 252 105 147 126 235 100 191 77 112 87 41 114 70 284 206 207 165 144 42 166 108 51 261 241 50 40 44 41 73 58
is_linear=0
shrinkage=0.05


Tree=4
num_leaves=23
num_cat=0
split_feature=233 27 42 245 121 167 155 165 279 163 161 18 98 206 218 361 77 105 27 280 77 213
split_gain=4.83329 4.75944 3.46571 3.81637 5.52662 5.60203 4.78035 4.14055 3.63959 3.41976 4.67204 3.36741 3.21981 3.05074 2.97552 2.85139 2.70979 2.53757 2.46142 2.28825 1.78949 1.59037
threshold=1.0931342751775943 -0.063544799224110257 -0.49235596769424206 -0.013488135437009772 0.23329531528078726 -0.0059424571723447053 -0.072325277424429943 0.059529525741368834 -0.042778860738535818 -0.06181602314590872 -0.15600280756603765 0.012921848440492269 0.29669542966584511 -0.27489113306267782 0.022040416632837293 0.007887538234745339 0.61459186529779197 0.031796732239138419 -0.0032040555687429802 0.035220535971277993 0.57587664770603486 0.022049485226495434
decision_type=2 2 2 2 2 2 2 2 2 2 2 2 2 2 2 2 2 2 2 2 2 2
left_child=1 11 13 7 5 21 -6 9 -8 10 -4 -1 -11 18 -7 -15 -2 19 -3 -17 -20 -5
right_child=16 2 3 4 6 14 8 -9 -10 12 -12 -13 -14 15 -16 17 -18 -19 20 -21 -22 -23
leaf_value=0.026217067021479724 -0.004365026694971047 0.0089239541176371097 -0.001336941413799554 -0.0090519734133563158 0.018487815449607238 0.0031589194287191518 -0.0072419957627529539 -0.020260486462284136 -0.00078817519147575421 0.001725529460626878 -0.024129306521900463 6.4612760490893767e-05 0.0090862243603856106 -0.0050733058665680753 -0.01451964710898429 -0.0018548641976015451 -0.027260880029771437 -0.0035887696390613094 -0.022176044677457027 0.014608955014443859 -0.0010202064665395822 -0.026334504561649787
leaf_weight=29 28 21 348 20 31 69 233 22 3551 1451 24 22 166 37 36 24 25 29 21 147 20 48
leaf_count=29 28 21 348 20 31 69 233 22 3551 1451 24 22 166 37 36 24 25 29 21 147 20 48
internal_value=-0.000266964 -0.000140527 -0.000264614 -0.000527256 -0.00142337 -0.0101647 -0.00102541 0.00124732 -0.00118707 0.00148873 -0.00282694 0.0150557 0.00248478 0.00498662 -0.00286278 0.00757749 -0.0152901 0.00994424 -0.00483293 0.0122693 -0.0120054 -0.0213456
internal_weight=6402 6349 6298 5999 3988 173 3815 2011 3784 1989 372 51 1617 299 105 237 53 200 62 171 41 68
internal_count=6402 6349 6298 5999 3988 173 3815 2011 3784 1989 372 51 1617 299 105 237 53 200 62 171 41 68
is_linear=0
shrinkage=0.05


Tree=5
num_leaves=31
num_cat=0
split_feature=135 265 368 301 233 162 103 324 362 158 243 260 18 260 184 22 135 200 20 179 107 11 158 20 54 204 77 330 123 122
split_gain=4.28503 5.53934 8.13127 5.83511 4.03325 3.46708 4.38837 4.17871 3.76926 4.26121 4.07851 3.28797 4.9111 4.47518 3.63818 3.21853 3.19775 4.96736 4.67282 4.01512 3.97119 3.79026 3.15587 3.32101 3.05231 3.33524 2.84663 2.70185 2.39936 1.9133
threshold=-0.03354049615657733 0.053448954870751318 0.010296685235768136 -0.1160585683860224 1.0931342751775943 0.029252276050106499 0.054634402728955013 0.35164841743260628 0.084912875059041396 0.79711282858268795 0.022181904468270178 -0.22240366991403684 0.084607938853892742 0.40430121886495068 0.040321154883927818 0.045614552115196931 0.013691720234283224 2.5763020736262807 -0.12936575629978533 -0.71555897577746397 0.79083394880786073 -2.4997377424292777 0.15871964515061973 0.021243146496653157 0.021165925561441593 -0.18076655329585226 0.61459186529779197 0.2812365704205364 0.028483407059803015 0.32241227492481367
decision_type=2 2 2 2 2 2 2 2 2 2 2 2 2 2 2 2 2 2 2 2 2 2 2 2 2 2 2 2 2 2
left_child=1 2 3 -1 5 6 16 8 24 10 -10 12 14 29 -8 22 19 18 -18 20 -2 -21 23 -5 25 -7 -6 -24 -3 -13
right_child=4 28 -4 15 26 7 11 -9 9 -11 -12 13 -14 -15 -16 -17 17 -19 -20 21 -22 -23 27 -25 -26 -27 -28 -29 -30 -31
leaf_value=-0.02559129969411026 -0.010323122654938802 -0.0076867477800608812 0.019997443962306922 0.016545426160331611 -0.0018310005051458455 0.012141186927352353 0.0015235550617773363 -0.024366793554291687 -0.026028323880616266 0.007374909048166749 0 0.020311129458776472 0.01891169279999258 -0.0080211072030225618 -0.024504550140333401 -0.019269358005617312 0.014992612855373367 0.017201544218373083 -0.0030332962910495378 -0.0082070946664345654 0.0087138294159022339 0.0016351741659872334 -0.0016188375197800035 -0.0036144288361567977 0.016080361515338572 -0.0041403988206756013 -0.025211803432397002 -0.021127302565948105 -0.030292700704257561 0.0028251302720450639
leaf_weight=33 135 21 34 42 27 37 36 24 47 22 22 86 24 21 21 26 37 33 1090 100 34 4033 70 39 27 204 26 24 29 20
leaf_count=33 135 21 34 42 27 37 36 24 47 22 22 86 24 21 21 26 37 33 1090 100 34 4033 70 39 27 204 26 24 29 20
internal_value=7.77675e-07 -0.00565611 -0.00278068 -0.00611881 0.000296294 0.000417448 0.000729235 -0.00418424 -0.00281465 -0.0116016 -0.0177263 0.00785706 0 0.0128743 -0.0080043 -0.00288583 0.000456744 -0.00187139 -0.00243578 0.0010857 -0.00646075 0.00139563 -0.000413536 0.00678469 0.000153526 -0.001616 -0.0134209 -0.00667002 -0.0209323 0.0170648
internal_weight=6424 318 268 234 6106 6053 5670 383 359 91 69 208 81 127 57 201 5462 1160 1127 4302 169 4133 175 81 268 241 53 94 50 106
internal_count=6424 318 268 234 6106 6053 5670 383 359 91 69 208 81 127 57 201 5462 1160 1127 4302 169 4133 175 81 268 241 53 94 50 106
is_linear=0
shrinkage=0.05


Tree=6
num_leaves=25
num_cat=0
split_feature=49 135 340 265 368 159 233 268 0 2 238 211 216 72 79 184 98 218 323 77 325 141 70 14
split_gain=4.42318 4.11238 4.88816 5.33044 9.73591 3.83042 3.47546 3.45936 4.54638 5.1352 5.25787 4.12601 3.83159 3.75345 3.55825 3.45273 3.14202 2.94784 2.75057 2.66811 2.64572 2.40811 2.32583 1.94358
threshold=0.093154556609022318 -0.03354049615657733 0.22719970022315442 0.04777544099002231 0.010296685235768136 0.039507435938742917 1.0931342751775943 1.4905364352848547 0.014566976815246326 -0.031618663704182141 0.041159598837794041 0.079432392244231598 0.048950913401306646 -1.7083717775830018 0.020924619850753143 0.032984007282122689 -0.21286618511111668 -0.11125707495333652 0.58441365270600176 0.61459186529779197 -0.063779691590143309 -0.046546549625456839 -0.020874599991746342 0.13410952929644504
decision_type=2 2 2 2 2 2 2 2 2 2 2 2 2 2 2 2 2 2 2 2 2 2 2 2
left_child=1 2 -1 4 5 17 7 11 9 20 -11 12 13 -3 -14 16 -10 -4 22 -8 -9 -7 -5 -17
right_child=-2 6 3 18 -6 21 19 8 15 10 -12 -13 14 -15 -16 23 -18 -19 -20 -21 -22 -23 -24 -25
leaf_value=-0.029571690206503989 0.020542798668388776 0.0082235471993757827 -0.016199020748691902 0.0024586658387338346 0.028855280619693471 -0.0062914485520447084 -0.0011087938729259703 -0.010122359959432649 -0.0039247436743033558 -0.0055610859984272266 0.016889908572754724 -0.016928879681445682 0.022317313210552803 0.0004029856098381275 -0.0022740160909307983 0.0020099282950459428 0.014019009393541762 0.0032514551202492688 -0.03242051217667944 -0.023956042841046521 -0.025962423906708013 -0.027105618626868579 -0.021130430528902896 -0.019532739220328312
leaf_weight=20 26 158 23 20 25 35 26 93 36 160 31 33 39 5309 23 20 73 124 20 26 38 24 21 21
leaf_count=20 26 158 23 20 25 35 26 93 36 160 31 33 39 5309 23 20 73 124 20 26 38 24 21 21
internal_value=4.84959e-07 -8.25326e-05 -0.00568079 -0.00401775 -0.000521417 -0.00412308 0.00020373 0.000315559 -0.0037921 -0.00714565 -0.00188411 0.000665102 0.000771321 0.000630066 0.0131252 0.00337352 0.00804864 0.000165249 -0.0171536 -0.0126524 -0.0147716 -0.0148744 -0.00952391 -0.00892314
internal_weight=6424 6398 312 292 231 206 6086 6034 472 322 191 5562 5529 5467 62 150 109 147 61 52 131 59 41 41
internal_count=6424 6398 312 292 231 206 6086 6034 472 322 191 5562 5529 5467 62 150 109 147 61 52 131 59 41 41
is_linear=0
shrinkage=0.05


Tree=7
num_leaves=13
num_cat=0
split_feature=49 32 167 131 217 279 135 345 157 367 278 119
split_gain=3.99365 3.91425 3.62009 5.77524 4.23211 4.20928 3.35574 4.42121 3.34284 3.03369 2.68601 1.76949
threshold=0.093154556609022318 0.35808594811108402 0.25501890044633657 0.6195819464595238 0.13106570994955583 0.21928665788052132 -0.03354049615657733 -1.2272894272918653 0.062403228756916292 0.037693143423143824 0.17864215973544373 0.016489753461882275
decision_type=2 2 2 2 2 2 2 2 2 2 2 2
left_child=1 2 4 -4 5 6 7 -1 -8 11 -5 -6
right_child=-2 -3 3 10 9 -7 8 -9 -10 -11 -12 -13
leaf_value=-0.018478348131843802 0.019519594167198603 -0.022108733972803277 -0.0045663701782345401 0.010406295953327744 -0.013730443267160981 -0.021774879537893636 0.00022380014738247029 -0.0022997296774476509 0.011796532296642024 -0.02293838572816765 0.03681339373932549 0.0064933705075091615
leaf_weight=51 26 20 32 20 20 22 5843 250 63 34 20 23
leaf_count=51 26 20 32 20 20 22 5843 250 63 34 20 23
internal_value=1.31402e-07 -7.87136e-05 -8.5028e-06 0.0111309 -0.000136656 6.64896e-06 8.50062e-05 -0.00506279 0.000348292 -0.0117793 0.0237934 -0.00280708
internal_weight=6424 6398 6378 72 6306 6229 6207 301 5906 77 40 43
internal_count=6424 6398 6378 72 6306 6229 6207 301 5906 77 40 43
is_linear=0
shrinkage=0.05


Tree=8
num_leaves=17
num_cat=0
split_feature=49 32 194 131 272 362 160 214 66 135 364 22 335 369 359 188
split_gain=3.60574 3.53444 4.09684 4.18541 3.95449 4.75425 4.61358 6.35746 5.80098 5.07643 4.57849 4.37456 3.82569 4.30066 3.01035 2.48429
threshold=0.093154556609022318 0.35808594811108402 0.27444939442655653 0.64992637481898052 0.022431584940328996 0.06688354349416803 0.33678346144617605 -0.48153028441818685 0.13076483489133217 -0.028940325998344226 0.29933625241668776 0.017696072707273362 -0.32437076877761462 0.027803484898302155 0.032098789252186989 -0.89629954392959965
decision_type=2 2 2 2 2 2 2 2 2 2 2 2 2 2 2 2
left_child=1 2 4 -4 5 14 8 -8 9 -6 -10 -9 -7 -14 15 -1
right_child=-2 -3 3 -5 6 12 7 11 10 -11 -12 -13 13 -15 -16 -17
leaf_value=0.0065041336445676506 0.018547353990575818 -0.02100879697509073 -0.0037651864005558522 0.025162411943031617 -0.012281629568094591 -0.01328134719958509 -0.02596118337526096 -0.022772866062942737 0.00033561487193467434 -0.0010918360826541137 0.012535101452213657 -0.0032972039374041502 0.0046642321492197094 0.026290352795566758 -0.016037661431171642 -0.00013505099211555565
leaf_weight=146 26 20 20 32 120 28 38 31 197 659 127 421 565 24 29 3941
leaf_count=146 26 20 20 32 120 28 38 31 197 659 127 421 565 24 29 3941
internal_value=3.08925e-08 -7.48484e-05 -8.09186e-06 0.0139546 -0.000123875 0.000600549 -0.00227927 -0.00631669 -0.000480729 -0.00282333 0.00513533 -0.00464873 0.00469316 0.00555823 -1.18295e-05 0.000101051
internal_weight=6424 6398 6378 52 6326 4733 1593 490 1103 779 324 452 617 589 4116 4087
internal_count=6424 6398 6378 52 6326 4733 1593 490 1103 779 324 452 617 589 4116 4087
is_linear=0
shrinkage=0.05


Tree=9
num_leaves=24
num_cat=0
split_feature=233 49 162 375 265 94 80 50 268 366 0 311 167 189 266 0 190 189 0 261 27 216 38
split_gain=3.39187 3.66144 3.50688 4.18176 3.89772 4.29741 3.84405 3.2407 4.06255 3.76993 3.55223 5.97541 3.89937 3.58973 4.09669 3.48611 3.33737 3.98237 3.22996 2.93079 2.4904 2.43039 2.15163
threshold=1.0931342751775943 0.093154556609022318 0.029252276050106499 -0.19461535648974071 0.061146217765393689 0.73416700636352095 0.12683663653732491 0.96078457710667264 1.4905364352848547 0.97166905262383374 0.0039313812263762635 1.0018861844414584 -0.033903738925985798 0.011143215156424914 0.75499975573325984 0.013783378589239949 0.11408869311216192 0.026414840761482154 -0.0041768777626131062 0.10418251448242112 0.0078301051570804931 -0.0076569236598371107 -1.1562773441590086
decision_type=2 2 2 2 2 2 2 2 2 2 2 2 2 2 2 2 2 2 2 2 2 2 2
left_child=1 2 7 21 5 6 -5 8 16 22 13 12 -12 14 -9 -11 17 -1 -15 -7 -2 -4 -10
right_child=20 -3 3 4 -6 19 -8 10 9 15 11 -13 -14 18 -16 -17 -18 -19 -20 -21 -22 -23 -24
leaf_value=0.00067356796213955414 -0.020706950724561895 0.019167873054089776 -0.0049879485964606516 -0.001420578883582678 -0.020405602083935857 0 0.01286380173586649 0.00097425013795900063 -0.0033010887160184847 -0.0063114863655845017 -0.00066037103808673991 -0.0074468276151681478 0.020716117183092932 0.021506133559856106 -0.020395173151585066 0.0051785759363896875 0.015169084666533947 -0.0050001238618799064 -0.0042188292306694969 -0.015614971791925234 0.00065353738557024786 -0.027357249027214099 -0.021790516476496376
leaf_weight=4879 34 25 22 142 28 54 70 79 25 200 27 35 94 30 31 98 38 330 20 66 22 29 46
leaf_count=4879 34 25 22 142 28 54 70 79 25 200 27 35 94 30 31 98 38 330 20 66 22 29 46
internal_value=0 0.000108466 3.22572e-05 -0.00443275 -0.00251589 -0.000986374 0.00327623 0.000342528 6.43679e-05 -0.0050049 0.00526864 0.0106349 0.0159083 1.93288e-06 -0.00501568 -0.00251563 0.000421911 0.00031308 0.0111285 -0.00855506 -0.01224 -0.0178342 -0.0153643
internal_weight=6424 6368 6343 411 360 332 212 5932 5616 369 316 156 121 160 110 298 5247 5209 50 120 56 51 71
internal_count=6424 6368 6343 411 360 332 212 5932 5616 369 316 156 121 160 110 298 5247 5209 50 120 56 51 71
is_linear=0
shrinkage=0.05


end of trees

feature_importances:
Column_77=7
Column_27=6
Column_135=6
Column_233=6
Column_42=5
Column_49=5
Column_131=5
Column_265=5
Column_0=4
Column_98=4
Column_158=4
Column_266=4
Column_22=3
Column_23=3
Column_45=3
Column_103=3
Column_167=3
Column_206=3
Column_261=3
Column_318=3
Column_324=3
Column_364=3
Column_2=2
Column_14=2
Column_18=2
Column_20=2
Column_29=2
Column_32=2
Column_40=2
Column_70=2
Column_72=2
Column_93=2
Column_110=2
Column_112=2
Column_121=2
Column_159=2
Column_162=2
Column_184=2
Column_189=2
Column_190=2
Column_191=2
Column_200=2
Column_216=2
Column_217=2
Column_218=2
Column_238=2
Column_239=2
Column_243=2
Column_244=2
Column_245=2
Column_254=2
Column_260=2
Column_268=2
Column_269=2
Column_279=2
Column_292=2
Column_321=2
Column_330=2
Column_345=2
Column_353=2
Column_361=2
Column_362=2
Column_366=2
Column_368=2
Column_4=1
Column_5=1
Column_11=1
Column_12=1
Column_16=1
Column_19=1
Column_37=1
Column_38=1
Column_41=1
Column_48=1
Column_50=1
Column_54=1
Column_60=1
Column_66=1
Column_69=1
Column_76=1
Column_79=1
Column_80=1
Column_83=1
Column_85=1
Column_86=1
Column_87=1
Column_91=1
Column_94=1
Column_101=1
Column_105=1
Column_107=1
Column_108=1
Column_109=1
Column_113=1
Column_119=1
Column_122=1
Column_123=1
Column_124=1
Column_128=1
Column_130=1
Column_137=1
Column_139=1
Column_140=1
Column_141=1
Column_142=1
Column_153=1
Column_155=1
Column_157=1
Column_160=1
Column_161=1
Column_163=1
Column_165=1
Column_176=1
Column_177=1
Column_179=1
Column_187=1
Column_188=1
Column_194=1
Column_196=1
Column_204=1
Column_209=1
Column_211=1
Column_213=1
Column_214=1
Column_215=1
Column_219=1
Column_220=1
Column_222=1
Column_231=1
Column_234=1
Column_248=1
Column_249=1
Column_250=1
Column_258=1
Column_272=1
Column_278=1
Column_280=1
Column_294=1
Column_301=1
Column_311=1
Column_313=1
Column_316=1
Column_319=1
Column_323=1
Column_325=1
Column_326=1
Column_327=1
Column_328=1
Column_335=1
Column_339=1
Column_340=1
Column_352=1
Column_359=1
Column_365=1
Column_367=1
Column_369=1
Column_371=1
Column_375=1
Column_377=1

parameters:
[boosting: gbdt]
[objective: regression]
[metric: rmse]
[tree_learner: serial]
[device_type: cpu]
[data_sample_strategy: bagging]
[data: ]
[valid: ]
[num_iterations: 2000]
[learning_rate: 0.05]
[num_leaves: 63]
[num_threads: -1]
[seed: 42]
[deterministic: 0]
[force_col_wise: 0]
[force_row_wise: 0]
[histogram_pool_size: -1]
[max_depth: 7]
[min_data_in_leaf: 20]
[min_sum_hessian_in_leaf: 0.001]
[bagging_fraction: 0.8]
[pos_bagging_fraction: 1]
[neg_bagging_fraction: 1]
[bagging_freq: 5]
[bagging_seed: 400]
[bagging_by_query: 0]
[feature_fraction: 0.8]
[feature_fraction_bynode: 1]
[feature_fraction_seed: 30056]
[extra_trees: 0]
[extra_seed: 12879]
[early_stopping_round: 0]
[early_stopping_min_delta: 0]
[first_metric_only: 0]
[max_delta_step: 0]
[lambda_l1: 0.1]
[lambda_l2: 0.1]
[linear_lambda: 0]
[min_gain_to_split: 0]
[drop_rate: 0.1]
[max_drop: 50]
[skip_drop: 0.5]
[xgboost_dart_mode: 0]
[uniform_drop: 0]
[drop_seed: 17869]
[top_rate: 0.2]
[other_rate: 0.1]
[min_data_per_group: 100]
[max_cat_threshold: 32]
[cat_l2: 10]
[cat_smooth: 10]
[max_cat_to_onehot: 4]
[top_k: 20]
[monotone_constraints: ]
[monotone_constraints_method: basic]
[monotone_penalty: 0]
[feature_contri: ]
[forcedsplits_filename: ]
[refit_decay_rate: 0.9]
[cegb_tradeoff: 1]
[cegb_penalty_split: 0]
[cegb_penalty_feature_lazy: ]
[cegb_penalty_feature_coupled: ]
[path_smooth: 0]
[interaction_constraints: ]
[verbosity: -1]
[saved_feature_importance_type: 0]
[use_quantized_grad: 0]
[num_grad_quant_bins: 4]
[quant_train_renew_leaf: 0]
[stochastic_rounding: 1]
[linear_tree: 0]
[max_bin: 255]
[max_bin_by_feature: ]
[min_data_in_bin: 3]
[bin_construct_sample_cnt: 200000]
[data_random_seed: 175]
[is_enable_sparse: 1]
[enable_bundle: 1]
[use_missing: 1]
[zero_as_missing: 0]
[feature_pre_filter: 1]
[pre_partition: 0]
[two_round: 0]
[header: 0]
[label_column: ]
[weight_column: ]
[group_column: ]
[ignore_column: ]
[categorical_feature: ]
[forcedbins_filename: ]
[precise_float_parser: 0]
[parser_config_file: ]
[objective_seed: 16083]
[num_class: 1]
[is_unbalance: 0]
[scale_pos_weight: 1]
[sigmoid: 1]
[boost_from_average: 1]
[reg_sqrt: 0]
[alpha: 0.9]
[fair_c: 1]
[poisson_max_delta_step: 0.7]
[tweedie_variance_power: 1.5]
[lambdarank_truncation_level: 30]
[lambdarank_norm: 1]
[label_gain: ]
[lambdarank_position_bias_regularization: 0]
[eval_at: ]
[multi_error_top_k: 1]
[auc_mu_weights: ]
[num_machines: 1]
[local_listen_port: 12400]
[time_out: 120]
[machine_list_filename: ]
[machines: ]
[gpu_platform_id: -1]
[gpu_device_id: -1]
[gpu_use_dp: 0]
[num_gpu: 1]

end of parameters

pandas_categorical:null
